digraph Tree {
node [shape=box, style="filled, rounded", color="black", fontname=helvetica] ;
edge [fontname=helvetica] ;
0 [label="Speed <= 4.0\nentropy = 2.94\nsamples = 139041\nvalue = [2817, 6455, 4136, 17874, 15605, 45768, 5998, 1856\n8024, 19039, 11469]\nclass = CLASS_0", fillcolor="#d3f4f9"] ;
1 [label="Boosts <= 0.5\nentropy = 2.12\nsamples = 56621\nvalue = [2200, 5771, 3506, 14342, 3451, 26509, 813, 29, 0, 0\n0]\nclass = CLASS_0", fillcolor="#c6f1f8"] ;
0 -> 1 [labeldistance=2.5, labelangle=45, headlabel="True"] ;
2 [label="Speed_2 <= 0.5\nentropy = 1.82\nsamples = 46172\nvalue = [1531, 3500, 1632, 13081, 2040, 24388, 0, 0, 0, 0\n0]\nclass = CLASS_0", fillcolor="#bbeef6"] ;
1 -> 2 ;
3 [label="Speed_1 <= 0.5\nentropy = 1.7\nsamples = 37845\nvalue = [965, 2934, 896, 11235, 1162, 20653, 0, 0, 0, 0, 0]\nclass = CLASS_0", fillcolor="#b9eef6"] ;
2 -> 3 ;
4 [label="Speed_3 <= 0.5\nentropy = 1.58\nsamples = 31020\nvalue = [582, 2410, 448, 9529, 555, 17496, 0, 0, 0, 0, 0]\nclass = CLASS_0", fillcolor="#b6edf5"] ;
3 -> 4 ;
5 [label="Speed_0 <= 0.5\nentropy = 1.48\nsamples = 25295\nvalue = [327, 2031, 188, 8032, 240, 14477, 0, 0, 0, 0, 0]\nclass = CLASS_0", fillcolor="#b5edf5"] ;
4 -> 5 ;
6 [label="Move <= 0.5\nentropy = 1.36\nsamples = 20706\nvalue = [174, 1662, 6, 6706, 53, 12105, 0, 0, 0, 0, 0]\nclass = CLASS_0", fillcolor="#b3ecf5"] ;
5 -> 6 ;
7 [label="Mud_2 <= 2.5\nentropy = 1.52\nsamples = 9427\nvalue = [174, 1104, 5, 3305, 23, 4816, 0, 0, 0, 0, 0]\nclass = CLASS_0", fillcolor="#cef3f9"] ;
6 -> 7 ;
8 [label="Mud_1 <= 1.5\nentropy = 1.58\nsamples = 6339\nvalue = [130, 885, 4, 2454, 10, 2856, 0, 0, 0, 0, 0]\nclass = CLASS_0", fillcolor="#ebfafc"] ;
7 -> 8 ;
9 [label="Mud_2 <= 1.5\nentropy = 1.67\nsamples = 2476\nvalue = [59, 491, 2, 1097, 5, 822, 0, 0, 0, 0, 0]\nclass = CLASS_2", fillcolor="#defbdf"] ;
8 -> 9 ;
10 [label="Y <= 2.5\nentropy = 1.71\nsamples = 1435\nvalue = [44, 339, 1, 645, 4, 402, 0, 0, 0, 0, 0]\nclass = CLASS_2", fillcolor="#d0f9d2"] ;
9 -> 10 ;
11 [label="Y <= 0.5\nentropy = 1.7\nsamples = 1104\nvalue = [33, 294, 1, 498, 2, 276, 0, 0, 0, 0, 0]\nclass = CLASS_2", fillcolor="#cdf8cf"] ;
10 -> 11 ;
12 [label="Mud_0 <= 2.5\nentropy = 1.63\nsamples = 289\nvalue = [8, 49, 0, 117, 0, 115, 0, 0, 0, 0, 0]\nclass = CLASS_2", fillcolor="#fdfffd"] ;
11 -> 12 ;
13 [label="Mud_0 <= 0.5\nentropy = 1.72\nsamples = 186\nvalue = [8, 46, 0, 84, 0, 48, 0, 0, 0, 0, 0]\nclass = CLASS_2", fillcolor="#cbf8cd"] ;
12 -> 13 ;
14 [label="entropy = 1.92\nsamples = 41\nvalue = [7, 15, 0, 12, 0, 7, 0, 0, 0, 0, 0]\nclass = CLASS_4", fillcolor="#fcfbeb"] ;
13 -> 14 ;
15 [label="entropy = 1.54\nsamples = 145\nvalue = [1, 31, 0, 72, 0, 41, 0, 0, 0, 0, 0]\nclass = CLASS_2", fillcolor="#c4f7c6"] ;
13 -> 15 ;
16 [label="entropy = 1.08\nsamples = 103\nvalue = [0, 3, 0, 33, 0, 67, 0, 0, 0, 0, 0]\nclass = CLASS_0", fillcolor="#9fe7f2"] ;
12 -> 16 ;
17 [label="Mud_2 <= 0.5\nentropy = 1.68\nsamples = 815\nvalue = [25, 245, 1, 381, 2, 161, 0, 0, 0, 0, 0]\nclass = CLASS_2", fillcolor="#d0f9d2"] ;
11 -> 17 ;
18 [label="entropy = 1.83\nsamples = 245\nvalue = [21, 82, 0, 98, 1, 43, 0, 0, 0, 0, 0]\nclass = CLASS_2", fillcolor="#ecfcec"] ;
17 -> 18 ;
19 [label="Y <= 1.5\nentropy = 1.57\nsamples = 570\nvalue = [4, 163, 1, 283, 1, 118, 0, 0, 0, 0, 0]\nclass = CLASS_2", fillcolor="#c5f7c7"] ;
17 -> 19 ;
20 [label="entropy = 1.59\nsamples = 274\nvalue = [4, 57, 1, 141, 0, 71, 0, 0, 0, 0, 0]\nclass = CLASS_2", fillcolor="#bbf6bd"] ;
19 -> 20 ;
21 [label="entropy = 1.49\nsamples = 296\nvalue = [0, 106, 0, 142, 1, 47, 0, 0, 0, 0, 0]\nclass = CLASS_2", fillcolor="#d9fadb"] ;
19 -> 21 ;
22 [label="Mud_3 <= 1.5\nentropy = 1.65\nsamples = 331\nvalue = [11, 45, 0, 147, 2, 126, 0, 0, 0, 0, 0]\nclass = CLASS_2", fillcolor="#ebfcec"] ;
10 -> 22 ;
23 [label="entropy = 1.84\nsamples = 142\nvalue = [11, 42, 0, 60, 1, 28, 0, 0, 0, 0, 0]\nclass = CLASS_2", fillcolor="#dbfadd"] ;
22 -> 23 ;
24 [label="entropy = 1.14\nsamples = 189\nvalue = [0, 3, 0, 87, 1, 98, 0, 0, 0, 0, 0]\nclass = CLASS_0", fillcolor="#eafafc"] ;
22 -> 24 ;
25 [label="Mud_3 <= 1.5\nentropy = 1.56\nsamples = 1041\nvalue = [15, 152, 1, 452, 1, 420, 0, 0, 0, 0, 0]\nclass = CLASS_2", fillcolor="#f5fef5"] ;
9 -> 25 ;
26 [label="Y <= 1.5\nentropy = 1.65\nsamples = 422\nvalue = [9, 83, 0, 190, 1, 139, 0, 0, 0, 0, 0]\nclass = CLASS_2", fillcolor="#dbfadd"] ;
25 -> 26 ;
27 [label="Mud_0 <= 0.5\nentropy = 1.64\nsamples = 217\nvalue = [6, 39, 0, 80, 0, 92, 0, 0, 0, 0, 0]\nclass = CLASS_0", fillcolor="#eefbfd"] ;
26 -> 27 ;
28 [label="entropy = 1.65\nsamples = 31\nvalue = [2, 16, 0, 9, 0, 4, 0, 0, 0, 0, 0]\nclass = CLASS_4", fillcolor="#f7f4c0"] ;
27 -> 28 ;
29 [label="entropy = 1.53\nsamples = 186\nvalue = [4, 23, 0, 71, 0, 88, 0, 0, 0, 0, 0]\nclass = CLASS_0", fillcolor="#e2f8fb"] ;
27 -> 29 ;
30 [label="Y <= 2.5\nentropy = 1.57\nsamples = 205\nvalue = [3, 44, 0, 110, 1, 47, 0, 0, 0, 0, 0]\nclass = CLASS_2", fillcolor="#b0f5b3"] ;
26 -> 30 ;
31 [label="entropy = 1.26\nsamples = 119\nvalue = [0, 15, 0, 81, 1, 22, 0, 0, 0, 0, 0]\nclass = CLASS_2", fillcolor="#87ef8b"] ;
30 -> 31 ;
32 [label="entropy = 1.74\nsamples = 86\nvalue = [3, 29, 0, 29, 0, 25, 0, 0, 0, 0, 0]\nclass = CLASS_4", fillcolor="#ffffff"] ;
30 -> 32 ;
33 [label="Y <= 2.5\nentropy = 1.47\nsamples = 619\nvalue = [6, 69, 1, 262, 0, 281, 0, 0, 0, 0, 0]\nclass = CLASS_0", fillcolor="#f4fcfe"] ;
25 -> 33 ;
34 [label="Y <= 1.5\nentropy = 1.55\nsamples = 463\nvalue = [6, 66, 1, 205, 0, 185, 0, 0, 0, 0, 0]\nclass = CLASS_2", fillcolor="#f1fdf1"] ;
33 -> 34 ;
35 [label="entropy = 1.59\nsamples = 295\nvalue = [6, 43, 1, 110, 0, 135, 0, 0, 0, 0, 0]\nclass = CLASS_0", fillcolor="#e4f8fb"] ;
34 -> 35 ;
36 [label="entropy = 1.38\nsamples = 168\nvalue = [0, 23, 0, 95, 0, 50, 0, 0, 0, 0, 0]\nclass = CLASS_2", fillcolor="#b3f5b7"] ;
34 -> 36 ;
37 [label="entropy = 1.07\nsamples = 156\nvalue = [0, 3, 0, 57, 0, 96, 0, 0, 0, 0, 0]\nclass = CLASS_0", fillcolor="#b1ecf5"] ;
33 -> 37 ;
38 [label="Y <= 1.5\nentropy = 1.48\nsamples = 3863\nvalue = [71, 394, 2, 1357, 5, 2034, 0, 0, 0, 0, 0]\nclass = CLASS_0", fillcolor="#caf2f8"] ;
8 -> 38 ;
39 [label="Mud_0 <= 1.5\nentropy = 1.3\nsamples = 1882\nvalue = [19, 116, 2, 624, 0, 1121, 0, 0, 0, 0, 0]\nclass = CLASS_0", fillcolor="#b1ecf5"] ;
38 -> 39 ;
40 [label="Y <= 0.5\nentropy = 1.54\nsamples = 711\nvalue = [18, 89, 0, 250, 0, 354, 0, 0, 0, 0, 0]\nclass = CLASS_0", fillcolor="#d2f4f9"] ;
39 -> 40 ;
41 [label="Mud_0 <= 0.5\nentropy = 1.74\nsamples = 294\nvalue = [18, 61, 0, 79, 0, 136, 0, 0, 0, 0, 0]\nclass = CLASS_0", fillcolor="#cbf2f8"] ;
40 -> 41 ;
42 [label="entropy = 1.89\nsamples = 112\nvalue = [18, 17, 0, 33, 0, 44, 0, 0, 0, 0, 0]\nclass = CLASS_0", fillcolor="#e3f8fb"] ;
41 -> 42 ;
43 [label="entropy = 1.49\nsamples = 182\nvalue = [0, 44, 0, 46, 0, 92, 0, 0, 0, 0, 0]\nclass = CLASS_0", fillcolor="#bceef6"] ;
41 -> 43 ;
44 [label="entropy = 1.28\nsamples = 417\nvalue = [0, 28, 0, 171, 0, 218, 0, 0, 0, 0, 0]\nclass = CLASS_0", fillcolor="#d9f6fa"] ;
40 -> 44 ;
45 [label="Mud_1 <= 2.5\nentropy = 1.08\nsamples = 1171\nvalue = [1, 27, 2, 374, 0, 767, 0, 0, 0, 0, 0]\nclass = CLASS_0", fillcolor="#9de7f2"] ;
39 -> 45 ;
46 [label="Mud_3 <= 4.5\nentropy = 1.2\nsamples = 519\nvalue = [1, 20, 0, 213, 0, 285, 0, 0, 0, 0, 0]\nclass = CLASS_0", fillcolor="#d0f3f9"] ;
45 -> 46 ;
47 [label="entropy = 1.21\nsamples = 496\nvalue = [1, 20, 0, 212, 0, 263, 0, 0, 0, 0, 0]\nclass = CLASS_0", fillcolor="#dbf6fa"] ;
46 -> 47 ;
48 [label="entropy = 0.26\nsamples = 23\nvalue = [0, 0, 0, 1, 0, 22, 0, 0, 0, 0, 0]\nclass = CLASS_0", fillcolor="#42d0e6"] ;
46 -> 48 ;
49 [label="Mud_0 <= 2.5\nentropy = 0.92\nsamples = 652\nvalue = [0, 7, 2, 161, 0, 482, 0, 0, 0, 0, 0]\nclass = CLASS_0", fillcolor="#7edfee"] ;
45 -> 49 ;
50 [label="entropy = 1.06\nsamples = 303\nvalue = [0, 4, 2, 98, 0, 199, 0, 0, 0, 0, 0]\nclass = CLASS_0", fillcolor="#9de7f2"] ;
49 -> 50 ;
51 [label="entropy = 0.75\nsamples = 349\nvalue = [0, 3, 0, 63, 0, 283, 0, 0, 0, 0, 0]\nclass = CLASS_0", fillcolor="#67d9eb"] ;
49 -> 51 ;
52 [label="Mud_3 <= 1.5\nentropy = 1.6\nsamples = 1981\nvalue = [52, 278, 0, 733, 5, 913, 0, 0, 0, 0, 0]\nclass = CLASS_0", fillcolor="#e2f8fb"] ;
38 -> 52 ;
53 [label="Mud_2 <= 0.5\nentropy = 1.76\nsamples = 782\nvalue = [33, 180, 0, 317, 2, 250, 0, 0, 0, 0, 0]\nclass = CLASS_2", fillcolor="#e6fce7"] ;
52 -> 53 ;
54 [label="entropy = 1.89\nsamples = 146\nvalue = [19, 40, 0, 57, 0, 30, 0, 0, 0, 0, 0]\nclass = CLASS_2", fillcolor="#dffbe1"] ;
53 -> 54 ;
55 [label="Mud_3 <= 0.5\nentropy = 1.69\nsamples = 636\nvalue = [14, 140, 0, 260, 2, 220, 0, 0, 0, 0, 0]\nclass = CLASS_2", fillcolor="#ecfced"] ;
53 -> 55 ;
56 [label="Y <= 2.5\nentropy = 1.73\nsamples = 171\nvalue = [12, 39, 0, 84, 0, 36, 0, 0, 0, 0, 0]\nclass = CLASS_2", fillcolor="#bcf6be"] ;
55 -> 56 ;
57 [label="entropy = 1.37\nsamples = 95\nvalue = [0, 19, 0, 57, 0, 19, 0, 0, 0, 0, 0]\nclass = CLASS_2", fillcolor="#9cf2a0"] ;
56 -> 57 ;
58 [label="entropy = 1.94\nsamples = 76\nvalue = [12, 20, 0, 27, 0, 17, 0, 0, 0, 0, 0]\nclass = CLASS_2", fillcolor="#e6fce7"] ;
56 -> 58 ;
59 [label="entropy = 1.61\nsamples = 465\nvalue = [2, 101, 0, 176, 2, 184, 0, 0, 0, 0, 0]\nclass = CLASS_0", fillcolor="#fafefe"] ;
55 -> 59 ;
60 [label="Y <= 2.5\nentropy = 1.41\nsamples = 1199\nvalue = [19, 98, 0, 416, 3, 663, 0, 0, 0, 0, 0]\nclass = CLASS_0", fillcolor="#c1f0f7"] ;
52 -> 60 ;
61 [label="Mud_2 <= 1.5\nentropy = 1.61\nsamples = 647\nvalue = [19, 85, 0, 234, 3, 306, 0, 0, 0, 0, 0]\nclass = CLASS_0", fillcolor="#dcf6fa"] ;
60 -> 61 ;
62 [label="Mud_2 <= 0.5\nentropy = 1.76\nsamples = 377\nvalue = [19, 74, 0, 128, 1, 155, 0, 0, 0, 0, 0]\nclass = CLASS_0", fillcolor="#eafafc"] ;
61 -> 62 ;
63 [label="entropy = 1.88\nsamples = 120\nvalue = [17, 19, 0, 43, 0, 41, 0, 0, 0, 0, 0]\nclass = CLASS_2", fillcolor="#fafefa"] ;
62 -> 63 ;
64 [label="entropy = 1.61\nsamples = 257\nvalue = [2, 55, 0, 85, 1, 114, 0, 0, 0, 0, 0]\nclass = CLASS_0", fillcolor="#def7fb"] ;
62 -> 64 ;
65 [label="entropy = 1.24\nsamples = 270\nvalue = [0, 11, 0, 106, 2, 151, 0, 0, 0, 0, 0]\nclass = CLASS_0", fillcolor="#c9f2f8"] ;
61 -> 65 ;
66 [label="Mud_3 <= 2.5\nentropy = 1.06\nsamples = 552\nvalue = [0, 13, 0, 182, 0, 357, 0, 0, 0, 0, 0]\nclass = CLASS_0", fillcolor="#a1e8f3"] ;
60 -> 66 ;
67 [label="entropy = 1.22\nsamples = 264\nvalue = [0, 12, 0, 114, 0, 138, 0, 0, 0, 0, 0]\nclass = CLASS_0", fillcolor="#dff7fb"] ;
66 -> 67 ;
68 [label="entropy = 0.82\nsamples = 288\nvalue = [0, 1, 0, 68, 0, 219, 0, 0, 0, 0, 0]\nclass = CLASS_0", fillcolor="#77dded"] ;
66 -> 68 ;
69 [label="Mud_3 <= 1.5\nentropy = 1.32\nsamples = 3088\nvalue = [44, 219, 1, 851, 13, 1960, 0, 0, 0, 0, 0]\nclass = CLASS_0", fillcolor="#9de7f2"] ;
7 -> 69 ;
70 [label="Y <= 2.5\nentropy = 1.51\nsamples = 1160\nvalue = [31, 122, 0, 354, 5, 648, 0, 0, 0, 0, 0]\nclass = CLASS_0", fillcolor="#b7edf6"] ;
69 -> 70 ;
71 [label="Mud_1 <= 1.5\nentropy = 1.38\nsamples = 882\nvalue = [10, 66, 0, 295, 4, 507, 0, 0, 0, 0, 0]\nclass = CLASS_0", fillcolor="#b7edf6"] ;
70 -> 71 ;
72 [label="entropy = 1.49\nsamples = 360\nvalue = [5, 44, 0, 138, 0, 173, 0, 0, 0, 0, 0]\nclass = CLASS_0", fillcolor="#e0f7fb"] ;
71 -> 72 ;
73 [label="Mud_0 <= 1.5\nentropy = 1.24\nsamples = 522\nvalue = [5, 22, 0, 157, 4, 334, 0, 0, 0, 0, 0]\nclass = CLASS_0", fillcolor="#9fe7f2"] ;
71 -> 73 ;
74 [label="Y <= 0.5\nentropy = 1.49\nsamples = 186\nvalue = [5, 17, 0, 60, 1, 103, 0, 0, 0, 0, 0]\nclass = CLASS_0", fillcolor="#bbeef6"] ;
73 -> 74 ;
75 [label="Mud_1 <= 3.5\nentropy = 1.82\nsamples = 57\nvalue = [5, 12, 0, 24, 0, 16, 0, 0, 0, 0, 0]\nclass = CLASS_2", fillcolor="#d8fada"] ;
74 -> 75 ;
76 [label="entropy = 1.65\nsamples = 44\nvalue = [4, 5, 0, 24, 0, 11, 0, 0, 0, 0, 0]\nclass = CLASS_2", fillcolor="#b1f5b4"] ;
75 -> 76 ;
77 [label="entropy = 1.3\nsamples = 13\nvalue = [1, 7, 0, 0, 0, 5, 0, 0, 0, 0, 0]\nclass = CLASS_4", fillcolor="#f8f6ce"] ;
75 -> 77 ;
78 [label="entropy = 1.13\nsamples = 129\nvalue = [0, 5, 0, 36, 1, 87, 0, 0, 0, 0, 0]\nclass = CLASS_0", fillcolor="#92e4f1"] ;
74 -> 78 ;
79 [label="Y <= 1.5\nentropy = 1.04\nsamples = 336\nvalue = [0, 5, 0, 97, 3, 231, 0, 0, 0, 0, 0]\nclass = CLASS_0", fillcolor="#90e4f0"] ;
73 -> 79 ;
80 [label="entropy = 0.86\nsamples = 215\nvalue = [0, 0, 0, 50, 2, 163, 0, 0, 0, 0, 0]\nclass = CLASS_0", fillcolor="#77dded"] ;
79 -> 80 ;
81 [label="entropy = 1.24\nsamples = 121\nvalue = [0, 5, 0, 47, 1, 68, 0, 0, 0, 0, 0]\nclass = CLASS_0", fillcolor="#c7f1f8"] ;
79 -> 81 ;
82 [label="Mud_3 <= 0.5\nentropy = 1.75\nsamples = 278\nvalue = [21, 56, 0, 59, 1, 141, 0, 0, 0, 0, 0]\nclass = CLASS_0", fillcolor="#b5edf5"] ;
70 -> 82 ;
83 [label="entropy = 1.94\nsamples = 87\nvalue = [21, 11, 0, 18, 1, 36, 0, 0, 0, 0, 0]\nclass = CLASS_0", fillcolor="#d2f4f9"] ;
82 -> 83 ;
84 [label="entropy = 1.44\nsamples = 191\nvalue = [0, 45, 0, 41, 0, 105, 0, 0, 0, 0, 0]\nclass = CLASS_0", fillcolor="#aeebf4"] ;
82 -> 84 ;
85 [label="Y <= 0.5\nentropy = 1.19\nsamples = 1928\nvalue = [13, 97, 1, 497, 8, 1312, 0, 0, 0, 0, 0]\nclass = CLASS_0", fillcolor="#8ee3f0"] ;
69 -> 85 ;
86 [label="Mud_0 <= 1.5\nentropy = 1.46\nsamples = 458\nvalue = [10, 55, 0, 128, 0, 265, 0, 0, 0, 0, 0]\nclass = CLASS_0", fillcolor="#adebf4"] ;
85 -> 86 ;
87 [label="Mud_0 <= 0.5\nentropy = 1.75\nsamples = 183\nvalue = [10, 43, 0, 50, 0, 80, 0, 0, 0, 0, 0]\nclass = CLASS_0", fillcolor="#d2f4f9"] ;
86 -> 87 ;
88 [label="entropy = 1.93\nsamples = 57\nvalue = [10, 10, 0, 16, 0, 21, 0, 0, 0, 0, 0]\nclass = CLASS_0", fillcolor="#e7f9fc"] ;
87 -> 88 ;
89 [label="entropy = 1.53\nsamples = 126\nvalue = [0, 33, 0, 34, 0, 59, 0, 0, 0, 0, 0]\nclass = CLASS_0", fillcolor="#c9f2f8"] ;
87 -> 89 ;
90 [label="entropy = 1.1\nsamples = 275\nvalue = [0, 12, 0, 78, 0, 185, 0, 0, 0, 0, 0]\nclass = CLASS_0", fillcolor="#93e4f1"] ;
86 -> 90 ;
91 [label="Mud_1 <= 1.5\nentropy = 1.06\nsamples = 1470\nvalue = [3, 42, 1, 369, 8, 1047, 0, 0, 0, 0, 0]\nclass = CLASS_0", fillcolor="#85e1ef"] ;
85 -> 91 ;
92 [label="Y <= 2.5\nentropy = 1.24\nsamples = 577\nvalue = [3, 28, 1, 169, 4, 372, 0, 0, 0, 0, 0]\nclass = CLASS_0", fillcolor="#9ce7f2"] ;
91 -> 92 ;
93 [label="entropy = 1.35\nsamples = 394\nvalue = [3, 27, 0, 129, 3, 232, 0, 0, 0, 0, 0]\nclass = CLASS_0", fillcolor="#b2ecf5"] ;
92 -> 93 ;
94 [label="entropy = 0.9\nsamples = 183\nvalue = [0, 1, 1, 40, 1, 140, 0, 0, 0, 0, 0]\nclass = CLASS_0", fillcolor="#75dded"] ;
92 -> 94 ;
95 [label="entropy = 0.92\nsamples = 893\nvalue = [0, 14, 0, 200, 4, 675, 0, 0, 0, 0, 0]\nclass = CLASS_0", fillcolor="#77dded"] ;
91 -> 95 ;
96 [label="Mud_2 <= 1.5\nentropy = 1.17\nsamples = 11279\nvalue = [0, 558, 1, 3401, 30, 7289, 0, 0, 0, 0, 0]\nclass = CLASS_0", fillcolor="#9de7f2"] ;
6 -> 96 ;
97 [label="Mud_1 <= 1.5\nentropy = 1.28\nsamples = 4434\nvalue = [0, 305, 1, 1515, 17, 2596, 0, 0, 0, 0, 0]\nclass = CLASS_0", fillcolor="#b6edf5"] ;
96 -> 97 ;
98 [label="Mud_0 <= 1.5\nentropy = 1.37\nsamples = 1763\nvalue = [0, 148, 1, 696, 9, 909, 0, 0, 0, 0, 0]\nclass = CLASS_0", fillcolor="#d7f5fa"] ;
97 -> 98 ;
99 [label="Mud_3 <= 2.5\nentropy = 1.42\nsamples = 687\nvalue = [0, 65, 1, 325, 5, 291, 0, 0, 0, 0, 0]\nclass = CLASS_2", fillcolor="#eefdef"] ;
98 -> 99 ;
100 [label="entropy = 1.41\nsamples = 474\nvalue = [0, 43, 1, 250, 4, 176, 0, 0, 0, 0, 0]\nclass = CLASS_2", fillcolor="#cef9d0"] ;
99 -> 100 ;
101 [label="entropy = 1.38\nsamples = 213\nvalue = [0, 22, 0, 75, 1, 115, 0, 0, 0, 0, 0]\nclass = CLASS_0", fillcolor="#c6f1f7"] ;
99 -> 101 ;
102 [label="entropy = 1.3\nsamples = 1076\nvalue = [0, 83, 0, 371, 4, 618, 0, 0, 0, 0, 0]\nclass = CLASS_0", fillcolor="#baeef6"] ;
98 -> 102 ;
103 [label="Y <= 1.5\nentropy = 1.21\nsamples = 2671\nvalue = [0, 157, 0, 819, 8, 1687, 0, 0, 0, 0, 0]\nclass = CLASS_0", fillcolor="#a2e8f3"] ;
97 -> 103 ;
104 [label="Y <= 0.5\nentropy = 1.15\nsamples = 1436\nvalue = [0, 93, 0, 356, 4, 983, 0, 0, 0, 0, 0]\nclass = CLASS_0", fillcolor="#8ce3f0"] ;
103 -> 104 ;
105 [label="entropy = 0.94\nsamples = 386\nvalue = [0, 4, 0, 94, 3, 285, 0, 0, 0, 0, 0]\nclass = CLASS_0", fillcolor="#7ddfee"] ;
104 -> 105 ;
106 [label="Mud_2 <= 0.5\nentropy = 1.2\nsamples = 1050\nvalue = [0, 89, 0, 262, 1, 698, 0, 0, 0, 0, 0]\nclass = CLASS_0", fillcolor="#91e4f1"] ;
104 -> 106 ;
107 [label="entropy = 1.32\nsamples = 304\nvalue = [0, 46, 0, 63, 1, 194, 0, 0, 0, 0, 0]\nclass = CLASS_0", fillcolor="#93e4f1"] ;
106 -> 107 ;
108 [label="entropy = 1.13\nsamples = 746\nvalue = [0, 43, 0, 199, 0, 504, 0, 0, 0, 0, 0]\nclass = CLASS_0", fillcolor="#91e4f1"] ;
106 -> 108 ;
109 [label="Mud_3 <= 1.5\nentropy = 1.24\nsamples = 1235\nvalue = [0, 64, 0, 463, 4, 704, 0, 0, 0, 0, 0]\nclass = CLASS_0", fillcolor="#c1f0f7"] ;
103 -> 109 ;
110 [label="Move <= 1.5\nentropy = 1.37\nsamples = 503\nvalue = [0, 42, 0, 209, 3, 249, 0, 0, 0, 0, 0]\nclass = CLASS_0", fillcolor="#e4f8fb"] ;
109 -> 110 ;
111 [label="Y <= 2.5\nentropy = 1.2\nsamples = 344\nvalue = [0, 11, 0, 138, 2, 193, 0, 0, 0, 0, 0]\nclass = CLASS_0", fillcolor="#caf2f8"] ;
110 -> 111 ;
112 [label="entropy = 0.99\nsamples = 204\nvalue = [0, 0, 0, 90, 0, 114, 0, 0, 0, 0, 0]\nclass = CLASS_0", fillcolor="#d5f5fa"] ;
111 -> 112 ;
113 [label="entropy = 1.37\nsamples = 140\nvalue = [0, 11, 0, 48, 2, 79, 0, 0, 0, 0, 0]\nclass = CLASS_0", fillcolor="#bceef6"] ;
111 -> 113 ;
114 [label="entropy = 1.56\nsamples = 159\nvalue = [0, 31, 0, 71, 1, 56, 0, 0, 0, 0, 0]\nclass = CLASS_2", fillcolor="#e2fbe3"] ;
110 -> 114 ;
115 [label="entropy = 1.12\nsamples = 732\nvalue = [0, 22, 0, 254, 1, 455, 0, 0, 0, 0, 0]\nclass = CLASS_0", fillcolor="#aceaf4"] ;
109 -> 115 ;
116 [label="Mud_1 <= 0.5\nentropy = 1.08\nsamples = 6845\nvalue = [0, 253, 0, 1886, 13, 4693, 0, 0, 0, 0, 0]\nclass = CLASS_0", fillcolor="#8fe3f0"] ;
96 -> 116 ;
117 [label="Move <= 1.5\nentropy = 1.34\nsamples = 788\nvalue = [0, 77, 0, 259, 2, 450, 0, 0, 0, 0, 0]\nclass = CLASS_0", fillcolor="#b8edf6"] ;
116 -> 117 ;
118 [label="entropy = 1.38\nsamples = 390\nvalue = [0, 42, 0, 153, 0, 195, 0, 0, 0, 0, 0]\nclass = CLASS_0", fillcolor="#dcf6fa"] ;
117 -> 118 ;
119 [label="entropy = 1.27\nsamples = 398\nvalue = [0, 35, 0, 106, 2, 255, 0, 0, 0, 0, 0]\nclass = CLASS_0", fillcolor="#9ae6f2"] ;
117 -> 119 ;
120 [label="Mud_3 <= 1.5\nentropy = 1.03\nsamples = 6057\nvalue = [0, 176, 0, 1627, 11, 4243, 0, 0, 0, 0, 0]\nclass = CLASS_0", fillcolor="#8ae2f0"] ;
116 -> 120 ;
121 [label="Y <= 1.5\nentropy = 1.14\nsamples = 2343\nvalue = [0, 112, 0, 671, 6, 1554, 0, 0, 0, 0, 0]\nclass = CLASS_0", fillcolor="#96e5f1"] ;
120 -> 121 ;
122 [label="Mud_0 <= 1.5\nentropy = 1.01\nsamples = 1291\nvalue = [0, 37, 0, 327, 2, 925, 0, 0, 0, 0, 0]\nclass = CLASS_0", fillcolor="#84e1ef"] ;
121 -> 122 ;
123 [label="Move <= 1.5\nentropy = 1.18\nsamples = 461\nvalue = [0, 25, 0, 132, 2, 302, 0, 0, 0, 0, 0]\nclass = CLASS_0", fillcolor="#99e6f2"] ;
122 -> 123 ;
124 [label="entropy = 1.44\nsamples = 138\nvalue = [0, 17, 0, 47, 1, 73, 0, 0, 0, 0, 0]\nclass = CLASS_0", fillcolor="#c6f1f8"] ;
123 -> 124 ;
125 [label="entropy = 1.02\nsamples = 323\nvalue = [0, 8, 0, 85, 1, 229, 0, 0, 0, 0, 0]\nclass = CLASS_0", fillcolor="#87e1ef"] ;
123 -> 125 ;
126 [label="entropy = 0.89\nsamples = 830\nvalue = [0, 12, 0, 195, 0, 623, 0, 0, 0, 0, 0]\nclass = CLASS_0", fillcolor="#7adeed"] ;
122 -> 126 ;
127 [label="Move <= 1.5\nentropy = 1.27\nsamples = 1052\nvalue = [0, 75, 0, 344, 4, 629, 0, 0, 0, 0, 0]\nclass = CLASS_0", fillcolor="#afebf5"] ;
121 -> 127 ;
128 [label="entropy = 1.06\nsamples = 719\nvalue = [0, 12, 0, 232, 3, 472, 0, 0, 0, 0, 0]\nclass = CLASS_0", fillcolor="#9de7f2"] ;
127 -> 128 ;
129 [label="Mud_3 <= 0.5\nentropy = 1.52\nsamples = 333\nvalue = [0, 63, 0, 112, 1, 157, 0, 0, 0, 0, 0]\nclass = CLASS_0", fillcolor="#d7f5fa"] ;
127 -> 129 ;
130 [label="entropy = 1.43\nsamples = 100\nvalue = [0, 33, 0, 15, 0, 52, 0, 0, 0, 0, 0]\nclass = CLASS_0", fillcolor="#c7f1f8"] ;
129 -> 130 ;
131 [label="entropy = 1.46\nsamples = 233\nvalue = [0, 30, 0, 97, 1, 105, 0, 0, 0, 0, 0]\nclass = CLASS_0", fillcolor="#f3fcfd"] ;
129 -> 131 ;
132 [label="Mud_0 <= 1.5\nentropy = 0.96\nsamples = 3714\nvalue = [0, 64, 0, 956, 5, 2689, 0, 0, 0, 0, 0]\nclass = CLASS_0", fillcolor="#83e0ef"] ;
120 -> 132 ;
133 [label="Move <= 1.5\nentropy = 1.04\nsamples = 1342\nvalue = [0, 32, 0, 400, 2, 908, 0, 0, 0, 0, 0]\nclass = CLASS_0", fillcolor="#94e5f1"] ;
132 -> 133 ;
134 [label="Y <= 2.5\nentropy = 1.14\nsamples = 629\nvalue = [0, 23, 0, 223, 0, 383, 0, 0, 0, 0, 0]\nclass = CLASS_0", fillcolor="#b1ecf5"] ;
133 -> 134 ;
135 [label="entropy = 1.21\nsamples = 469\nvalue = [0, 23, 0, 186, 0, 260, 0, 0, 0, 0, 0]\nclass = CLASS_0", fillcolor="#cbf2f8"] ;
134 -> 135 ;
136 [label="entropy = 0.78\nsamples = 160\nvalue = [0, 0, 0, 37, 0, 123, 0, 0, 0, 0, 0]\nclass = CLASS_0", fillcolor="#75dded"] ;
134 -> 136 ;
137 [label="entropy = 0.93\nsamples = 713\nvalue = [0, 9, 0, 177, 2, 525, 0, 0, 0, 0, 0]\nclass = CLASS_0", fillcolor="#7edfee"] ;
133 -> 137 ;
138 [label="Mud_2 <= 2.5\nentropy = 0.9\nsamples = 2372\nvalue = [0, 32, 0, 556, 3, 1781, 0, 0, 0, 0, 0]\nclass = CLASS_0", fillcolor="#79deed"] ;
132 -> 138 ;
139 [label="entropy = 0.93\nsamples = 1165\nvalue = [0, 11, 0, 317, 2, 835, 0, 0, 0, 0, 0]\nclass = CLASS_0", fillcolor="#86e1ef"] ;
138 -> 139 ;
140 [label="Mud_3 <= 4.5\nentropy = 0.85\nsamples = 1207\nvalue = [0, 21, 0, 239, 1, 946, 0, 0, 0, 0, 0]\nclass = CLASS_0", fillcolor="#6edbec"] ;
138 -> 140 ;
141 [label="entropy = 0.88\nsamples = 1126\nvalue = [0, 21, 0, 236, 1, 868, 0, 0, 0, 0, 0]\nclass = CLASS_0", fillcolor="#72dced"] ;
140 -> 141 ;
142 [label="entropy = 0.23\nsamples = 81\nvalue = [0, 0, 0, 3, 0, 78, 0, 0, 0, 0, 0]\nclass = CLASS_0", fillcolor="#41d0e6"] ;
140 -> 142 ;
143 [label="Move <= 1.5\nentropy = 1.84\nsamples = 4589\nvalue = [153, 369, 182, 1326, 187, 2372, 0, 0, 0, 0, 0]\nclass = CLASS_0", fillcolor="#c0eff7"] ;
5 -> 143 ;
144 [label="Y <= 1.5\nentropy = 1.98\nsamples = 3276\nvalue = [153, 286, 167, 969, 166, 1535, 0, 0, 0, 0, 0]\nclass = CLASS_0", fillcolor="#cef3f9"] ;
143 -> 144 ;
145 [label="Y <= 0.5\nentropy = 2.25\nsamples = 1454\nvalue = [126, 126, 129, 356, 126, 591, 0, 0, 0, 0, 0]\nclass = CLASS_0", fillcolor="#d5f5f9"] ;
144 -> 145 ;
146 [label="Mud_0 <= 1.5\nentropy = 2.51\nsamples = 422\nvalue = [58, 48, 60, 76, 60, 120, 0, 0, 0, 0, 0]\nclass = CLASS_0", fillcolor="#e6f9fc"] ;
145 -> 146 ;
147 [label="Mud_1 <= 0.5\nentropy = 2.52\nsamples = 172\nvalue = [41, 23, 27, 32, 15, 34, 0, 0, 0, 0, 0]\nclass = CLASS_5", fillcolor="#fef9f5"] ;
146 -> 147 ;
148 [label="entropy = 1.88\nsamples = 21\nvalue = [8, 8, 0, 3, 1, 1, 0, 0, 0, 0, 0]\nclass = CLASS_5", fillcolor="#ffffff"] ;
147 -> 148 ;
149 [label="entropy = 2.51\nsamples = 151\nvalue = [33, 15, 27, 29, 14, 33, 0, 0, 0, 0, 0]\nclass = CLASS_5", fillcolor="#ffffff"] ;
147 -> 149 ;
150 [label="entropy = 2.4\nsamples = 250\nvalue = [17, 25, 33, 44, 45, 86, 0, 0, 0, 0, 0]\nclass = CLASS_0", fillcolor="#d7f5fa"] ;
146 -> 150 ;
151 [label="Move <= 0.5\nentropy = 2.08\nsamples = 1032\nvalue = [68, 78, 69, 280, 66, 471, 0, 0, 0, 0, 0]\nclass = CLASS_0", fillcolor="#cdf3f8"] ;
145 -> 151 ;
152 [label="Mud_1 <= 1.5\nentropy = 1.88\nsamples = 603\nvalue = [11, 59, 29, 207, 24, 273, 0, 0, 0, 0, 0]\nclass = CLASS_0", fillcolor="#def7fb"] ;
151 -> 152 ;
153 [label="entropy = 2.05\nsamples = 253\nvalue = [8, 45, 17, 104, 7, 72, 0, 0, 0, 0, 0]\nclass = CLASS_2", fillcolor="#dcfadd"] ;
152 -> 153 ;
154 [label="Mud_2 <= 1.5\nentropy = 1.6\nsamples = 350\nvalue = [3, 14, 12, 103, 17, 201, 0, 0, 0, 0, 0]\nclass = CLASS_0", fillcolor="#b0ecf5"] ;
152 -> 154 ;
155 [label="entropy = 1.84\nsamples = 126\nvalue = [1, 9, 7, 48, 7, 54, 0, 0, 0, 0, 0]\nclass = CLASS_0", fillcolor="#f0fbfd"] ;
154 -> 155 ;
156 [label="entropy = 1.4\nsamples = 224\nvalue = [2, 5, 5, 55, 10, 147, 0, 0, 0, 0, 0]\nclass = CLASS_0", fillcolor="#93e4f1"] ;
154 -> 156 ;
157 [label="Mud_0 <= 1.5\nentropy = 2.18\nsamples = 429\nvalue = [57, 19, 40, 73, 42, 198, 0, 0, 0, 0, 0]\nclass = CLASS_0", fillcolor="#b9eef6"] ;
151 -> 157 ;
158 [label="entropy = 2.14\nsamples = 181\nvalue = [42, 6, 19, 32, 7, 75, 0, 0, 0, 0, 0]\nclass = CLASS_0", fillcolor="#d0f3f9"] ;
157 -> 158 ;
159 [label="entropy = 2.1\nsamples = 248\nvalue = [15, 13, 21, 41, 35, 123, 0, 0, 0, 0, 0]\nclass = CLASS_0", fillcolor="#b1ecf5"] ;
157 -> 159 ;
160 [label="Move <= 0.5\nentropy = 1.66\nsamples = 1822\nvalue = [27, 160, 38, 613, 40, 944, 0, 0, 0, 0, 0]\nclass = CLASS_0", fillcolor="#c9f2f8"] ;
144 -> 160 ;
161 [label="Mud_3 <= 1.5\nentropy = 1.59\nsamples = 1066\nvalue = [25, 128, 1, 393, 7, 512, 0, 0, 0, 0, 0]\nclass = CLASS_0", fillcolor="#dcf6fa"] ;
160 -> 161 ;
162 [label="Mud_2 <= 0.5\nentropy = 1.76\nsamples = 414\nvalue = [18, 80, 0, 168, 3, 145, 0, 0, 0, 0, 0]\nclass = CLASS_2", fillcolor="#eefdef"] ;
161 -> 162 ;
163 [label="entropy = 1.96\nsamples = 61\nvalue = [10, 19, 0, 23, 1, 8, 0, 0, 0, 0, 0]\nclass = CLASS_2", fillcolor="#ecfded"] ;
162 -> 163 ;
164 [label="Mud_3 <= 0.5\nentropy = 1.66\nsamples = 353\nvalue = [8, 61, 0, 145, 2, 137, 0, 0, 0, 0, 0]\nclass = CLASS_2", fillcolor="#f8fef8"] ;
162 -> 164 ;
165 [label="entropy = 1.76\nsamples = 107\nvalue = [8, 19, 0, 49, 0, 31, 0, 0, 0, 0, 0]\nclass = CLASS_2", fillcolor="#d0f9d2"] ;
164 -> 165 ;
166 [label="entropy = 1.54\nsamples = 246\nvalue = [0, 42, 0, 96, 2, 106, 0, 0, 0, 0, 0]\nclass = CLASS_0", fillcolor="#f2fcfd"] ;
164 -> 166 ;
167 [label="Mud_2 <= 1.5\nentropy = 1.4\nsamples = 652\nvalue = [7, 48, 1, 225, 4, 367, 0, 0, 0, 0, 0]\nclass = CLASS_0", fillcolor="#bdeff6"] ;
161 -> 167 ;
168 [label="Y <= 2.5\nentropy = 1.71\nsamples = 239\nvalue = [7, 35, 1, 84, 3, 109, 0, 0, 0, 0, 0]\nclass = CLASS_0", fillcolor="#dff7fb"] ;
167 -> 168 ;
169 [label="entropy = 1.9\nsamples = 141\nvalue = [7, 32, 1, 49, 2, 50, 0, 0, 0, 0, 0]\nclass = CLASS_0", fillcolor="#fdfeff"] ;
168 -> 169 ;
170 [label="entropy = 1.19\nsamples = 98\nvalue = [0, 3, 0, 35, 1, 59, 0, 0, 0, 0, 0]\nclass = CLASS_0", fillcolor="#b4ecf5"] ;
168 -> 170 ;
171 [label="entropy = 1.13\nsamples = 413\nvalue = [0, 13, 0, 141, 1, 258, 0, 0, 0, 0, 0]\nclass = CLASS_0", fillcolor="#aaeaf4"] ;
167 -> 171 ;
172 [label="Y <= 2.5\nentropy = 1.61\nsamples = 756\nvalue = [2, 32, 37, 220, 33, 432, 0, 0, 0, 0, 0]\nclass = CLASS_0", fillcolor="#b1ecf5"] ;
160 -> 172 ;
173 [label="Mud_1 <= 0.5\nentropy = 1.74\nsamples = 471\nvalue = [2, 20, 37, 147, 22, 243, 0, 0, 0, 0, 0]\nclass = CLASS_0", fillcolor="#c4f0f7"] ;
172 -> 173 ;
174 [label="entropy = 1.78\nsamples = 53\nvalue = [1, 9, 0, 21, 2, 20, 0, 0, 0, 0, 0]\nclass = CLASS_2", fillcolor="#f9fef9"] ;
173 -> 174 ;
175 [label="entropy = 1.68\nsamples = 418\nvalue = [1, 11, 37, 126, 20, 223, 0, 0, 0, 0, 0]\nclass = CLASS_0", fillcolor="#bdeff6"] ;
173 -> 175 ;
176 [label="Mud_2 <= 1.5\nentropy = 1.27\nsamples = 285\nvalue = [0, 12, 0, 73, 11, 189, 0, 0, 0, 0, 0]\nclass = CLASS_0", fillcolor="#93e4f1"] ;
172 -> 176 ;
177 [label="entropy = 1.64\nsamples = 101\nvalue = [0, 12, 0, 34, 6, 49, 0, 0, 0, 0, 0]\nclass = CLASS_0", fillcolor="#d3f4f9"] ;
176 -> 177 ;
178 [label="entropy = 0.92\nsamples = 184\nvalue = [0, 0, 0, 39, 5, 140, 0, 0, 0, 0, 0]\nclass = CLASS_0", fillcolor="#75dded"] ;
176 -> 178 ;
179 [label="Y <= 0.5\nentropy = 1.35\nsamples = 1313\nvalue = [0, 83, 15, 357, 21, 837, 0, 0, 0, 0, 0]\nclass = CLASS_0", fillcolor="#9ce6f2"] ;
143 -> 179 ;
180 [label="Mud_1 <= 0.5\nentropy = 1.52\nsamples = 398\nvalue = [0, 21, 15, 95, 18, 249, 0, 0, 0, 0, 0]\nclass = CLASS_0", fillcolor="#9ae6f2"] ;
179 -> 180 ;
181 [label="entropy = 1.71\nsamples = 60\nvalue = [0, 13, 2, 8, 3, 34, 0, 0, 0, 0, 0]\nclass = CLASS_0", fillcolor="#a7e9f3"] ;
180 -> 181 ;
182 [label="entropy = 1.43\nsamples = 338\nvalue = [0, 8, 13, 87, 15, 215, 0, 0, 0, 0, 0]\nclass = CLASS_0", fillcolor="#9ae6f2"] ;
180 -> 182 ;
183 [label="Mud_3 <= 1.5\nentropy = 1.22\nsamples = 915\nvalue = [0, 62, 0, 262, 3, 588, 0, 0, 0, 0, 0]\nclass = CLASS_0", fillcolor="#9ce7f2"] ;
179 -> 183 ;
184 [label="Y <= 1.5\nentropy = 1.43\nsamples = 353\nvalue = [0, 42, 0, 127, 2, 182, 0, 0, 0, 0, 0]\nclass = CLASS_0", fillcolor="#cff3f9"] ;
183 -> 184 ;
185 [label="Mud_2 <= 1.5\nentropy = 1.21\nsamples = 219\nvalue = [0, 9, 0, 73, 2, 135, 0, 0, 0, 0, 0]\nclass = CLASS_0", fillcolor="#abeaf4"] ;
184 -> 185 ;
186 [label="entropy = 1.36\nsamples = 83\nvalue = [0, 8, 0, 41, 0, 34, 0, 0, 0, 0, 0]\nclass = CLASS_2", fillcolor="#e3fbe4"] ;
185 -> 186 ;
187 [label="entropy = 0.95\nsamples = 136\nvalue = [0, 1, 0, 32, 2, 101, 0, 0, 0, 0, 0]\nclass = CLASS_0", fillcolor="#7cdeee"] ;
185 -> 187 ;
188 [label="entropy = 1.56\nsamples = 134\nvalue = [0, 33, 0, 54, 0, 47, 0, 0, 0, 0, 0]\nclass = CLASS_2", fillcolor="#effdf0"] ;
184 -> 188 ;
189 [label="Mud_2 <= 1.5\nentropy = 1.02\nsamples = 562\nvalue = [0, 20, 0, 135, 1, 406, 0, 0, 0, 0, 0]\nclass = CLASS_0", fillcolor="#81e0ee"] ;
183 -> 189 ;
190 [label="entropy = 1.24\nsamples = 209\nvalue = [0, 17, 0, 61, 0, 131, 0, 0, 0, 0, 0]\nclass = CLASS_0", fillcolor="#a1e8f3"] ;
189 -> 190 ;
191 [label="entropy = 0.84\nsamples = 353\nvalue = [0, 3, 0, 74, 1, 275, 0, 0, 0, 0, 0]\nclass = CLASS_0", fillcolor="#70dcec"] ;
189 -> 191 ;
192 [label="Y <= 1.5\nentropy = 1.88\nsamples = 5725\nvalue = [255, 379, 260, 1497, 315, 3019, 0, 0, 0, 0, 0]\nclass = CLASS_0", fillcolor="#b8edf6"] ;
4 -> 192 ;
193 [label="Speed_0 <= 0.5\nentropy = 1.52\nsamples = 2941\nvalue = [48, 195, 44, 788, 68, 1798, 0, 0, 0, 0, 0]\nclass = CLASS_0", fillcolor="#a2e8f3"] ;
192 -> 193 ;
194 [label="Mud_1 <= 2.5\nentropy = 1.37\nsamples = 2427\nvalue = [13, 167, 11, 677, 37, 1522, 0, 0, 0, 0, 0]\nclass = CLASS_0", fillcolor="#9fe7f2"] ;
193 -> 194 ;
195 [label="Move <= 0.5\nentropy = 1.47\nsamples = 1626\nvalue = [10, 142, 7, 524, 26, 917, 0, 0, 0, 0, 0]\nclass = CLASS_0", fillcolor="#b8eef6"] ;
194 -> 195 ;
196 [label="Mud_1 <= 0.5\nentropy = 1.58\nsamples = 709\nvalue = [9, 103, 1, 248, 5, 343, 0, 0, 0, 0, 0]\nclass = CLASS_0", fillcolor="#d6f5fa"] ;
195 -> 196 ;
197 [label="Mud_0 <= 1.5\nentropy = 1.94\nsamples = 126\nvalue = [7, 30, 0, 42, 4, 43, 0, 0, 0, 0, 0]\nclass = CLASS_0", fillcolor="#fdfeff"] ;
196 -> 197 ;
198 [label="entropy = 1.89\nsamples = 40\nvalue = [4, 19, 0, 10, 1, 6, 0, 0, 0, 0, 0]\nclass = CLASS_4", fillcolor="#f7f4c4"] ;
197 -> 198 ;
199 [label="entropy = 1.77\nsamples = 86\nvalue = [3, 11, 0, 32, 3, 37, 0, 0, 0, 0, 0]\nclass = CLASS_0", fillcolor="#edfafd"] ;
197 -> 199 ;
200 [label="Mud_0 <= 2.5\nentropy = 1.46\nsamples = 583\nvalue = [2, 73, 1, 206, 1, 300, 0, 0, 0, 0, 0]\nclass = CLASS_0", fillcolor="#cef3f9"] ;
196 -> 200 ;
201 [label="Mud_1 <= 1.5\nentropy = 1.56\nsamples = 367\nvalue = [2, 60, 1, 137, 1, 166, 0, 0, 0, 0, 0]\nclass = CLASS_0", fillcolor="#e6f9fc"] ;
200 -> 201 ;
202 [label="entropy = 1.6\nsamples = 180\nvalue = [1, 37, 1, 79, 0, 62, 0, 0, 0, 0, 0]\nclass = CLASS_2", fillcolor="#e2fbe4"] ;
201 -> 202 ;
203 [label="entropy = 1.45\nsamples = 187\nvalue = [1, 23, 0, 58, 1, 104, 0, 0, 0, 0, 0]\nclass = CLASS_0", fillcolor="#b8eef6"] ;
201 -> 203 ;
204 [label="entropy = 1.2\nsamples = 216\nvalue = [0, 13, 0, 69, 0, 134, 0, 0, 0, 0, 0]\nclass = CLASS_0", fillcolor="#a7e9f4"] ;
200 -> 204 ;
205 [label="Move <= 1.5\nentropy = 1.32\nsamples = 917\nvalue = [1, 39, 6, 276, 21, 574, 0, 0, 0, 0, 0]\nclass = CLASS_0", fillcolor="#a3e8f3"] ;
195 -> 205 ;
206 [label="entropy = 1.13\nsamples = 287\nvalue = [0, 9, 0, 106, 0, 172, 0, 0, 0, 0, 0]\nclass = CLASS_0", fillcolor="#b7edf6"] ;
205 -> 206 ;
207 [label="Mud_2 <= 2.5\nentropy = 1.37\nsamples = 630\nvalue = [1, 30, 6, 170, 21, 402, 0, 0, 0, 0, 0]\nclass = CLASS_0", fillcolor="#9be6f2"] ;
205 -> 207 ;
208 [label="entropy = 1.5\nsamples = 423\nvalue = [1, 24, 6, 138, 14, 240, 0, 0, 0, 0, 0]\nclass = CLASS_0", fillcolor="#b8edf6"] ;
207 -> 208 ;
209 [label="entropy = 1.01\nsamples = 207\nvalue = [0, 6, 0, 32, 7, 162, 0, 0, 0, 0, 0]\nclass = CLASS_0", fillcolor="#6cdbec"] ;
207 -> 209 ;
210 [label="Move <= 1.5\nentropy = 1.07\nsamples = 801\nvalue = [3, 25, 4, 153, 11, 605, 0, 0, 0, 0, 0]\nclass = CLASS_0", fillcolor="#75dded"] ;
194 -> 210 ;
211 [label="entropy = 1.02\nsamples = 485\nvalue = [3, 19, 0, 93, 2, 368, 0, 0, 0, 0, 0]\nclass = CLASS_0", fillcolor="#74dded"] ;
210 -> 211 ;
212 [label="Y <= 0.5\nentropy = 1.1\nsamples = 316\nvalue = [0, 6, 4, 60, 9, 237, 0, 0, 0, 0, 0]\nclass = CLASS_0", fillcolor="#76dded"] ;
210 -> 212 ;
213 [label="entropy = 0.7\nsamples = 139\nvalue = [0, 0, 0, 26, 0, 113, 0, 0, 0, 0, 0]\nclass = CLASS_0", fillcolor="#67d9eb"] ;
212 -> 213 ;
214 [label="entropy = 1.32\nsamples = 177\nvalue = [0, 6, 4, 34, 9, 124, 0, 0, 0, 0, 0]\nclass = CLASS_0", fillcolor="#82e0ef"] ;
212 -> 214 ;
215 [label="Move <= 1.5\nentropy = 1.95\nsamples = 514\nvalue = [35, 28, 33, 111, 31, 276, 0, 0, 0, 0, 0]\nclass = CLASS_0", fillcolor="#aeebf4"] ;
193 -> 215 ;
216 [label="Mud_0 <= 2.5\nentropy = 2.09\nsamples = 292\nvalue = [35, 17, 24, 63, 13, 140, 0, 0, 0, 0, 0]\nclass = CLASS_0", fillcolor="#bceff6"] ;
215 -> 216 ;
217 [label="entropy = 2.21\nsamples = 207\nvalue = [34, 15, 21, 50, 6, 81, 0, 0, 0, 0, 0]\nclass = CLASS_0", fillcolor="#d8f5fa"] ;
216 -> 217 ;
218 [label="entropy = 1.45\nsamples = 85\nvalue = [1, 2, 3, 13, 7, 59, 0, 0, 0, 0, 0]\nclass = CLASS_0", fillcolor="#80e0ee"] ;
216 -> 218 ;
219 [label="entropy = 1.61\nsamples = 222\nvalue = [0, 11, 9, 48, 18, 136, 0, 0, 0, 0, 0]\nclass = CLASS_0", fillcolor="#9be6f2"] ;
215 -> 219 ;
220 [label="Move <= 0.5\nentropy = 2.16\nsamples = 2784\nvalue = [207, 184, 216, 709, 247, 1221, 0, 0, 0, 0, 0]\nclass = CLASS_0", fillcolor="#cef3f9"] ;
192 -> 220 ;
221 [label="Y <= 2.5\nentropy = 2.38\nsamples = 1345\nvalue = [151, 131, 135, 323, 140, 465, 0, 0, 0, 0, 0]\nclass = CLASS_0", fillcolor="#e3f8fb"] ;
220 -> 221 ;
222 [label="Mud_2 <= 1.5\nentropy = 2.13\nsamples = 764\nvalue = [48, 83, 57, 262, 33, 281, 0, 0, 0, 0, 0]\nclass = CLASS_0", fillcolor="#f8fdfe"] ;
221 -> 222 ;
223 [label="Mud_2 <= 0.5\nentropy = 2.35\nsamples = 304\nvalue = [38, 67, 25, 90, 12, 72, 0, 0, 0, 0, 0]\nclass = CLASS_2", fillcolor="#f0fdf0"] ;
222 -> 223 ;
224 [label="entropy = 2.24\nsamples = 100\nvalue = [28, 22, 4, 26, 2, 18, 0, 0, 0, 0, 0]\nclass = CLASS_5", fillcolor="#fefcfa"] ;
223 -> 224 ;
225 [label="Mud_1 <= 2.5\nentropy = 2.28\nsamples = 204\nvalue = [10, 45, 21, 64, 10, 54, 0, 0, 0, 0, 0]\nclass = CLASS_2", fillcolor="#f2fdf2"] ;
223 -> 225 ;
226 [label="entropy = 2.22\nsamples = 139\nvalue = [9, 34, 7, 49, 8, 32, 0, 0, 0, 0, 0]\nclass = CLASS_2", fillcolor="#e3fbe4"] ;
225 -> 226 ;
227 [label="entropy = 2.18\nsamples = 65\nvalue = [1, 11, 14, 15, 2, 22, 0, 0, 0, 0, 0]\nclass = CLASS_0", fillcolor="#e3f8fb"] ;
225 -> 227 ;
228 [label="entropy = 1.81\nsamples = 460\nvalue = [10, 16, 32, 172, 21, 209, 0, 0, 0, 0, 0]\nclass = CLASS_0", fillcolor="#e6f9fc"] ;
222 -> 228 ;
229 [label="Mud_3 <= 1.5\nentropy = 2.44\nsamples = 581\nvalue = [103, 48, 78, 61, 107, 184, 0, 0, 0, 0, 0]\nclass = CLASS_0", fillcolor="#dff7fb"] ;
221 -> 229 ;
230 [label="Mud_2 <= 1.5\nentropy = 2.42\nsamples = 226\nvalue = [70, 22, 21, 33, 24, 56, 0, 0, 0, 0, 0]\nclass = CLASS_5", fillcolor="#fdf5ef"] ;
229 -> 230 ;
231 [label="entropy = 2.28\nsamples = 83\nvalue = [30, 14, 11, 12, 1, 15, 0, 0, 0, 0, 0]\nclass = CLASS_5", fillcolor="#f9e3d3"] ;
230 -> 231 ;
232 [label="entropy = 2.36\nsamples = 143\nvalue = [40, 8, 10, 21, 23, 41, 0, 0, 0, 0, 0]\nclass = CLASS_0", fillcolor="#fdffff"] ;
230 -> 232 ;
233 [label="Mud_3 <= 2.5\nentropy = 2.33\nsamples = 355\nvalue = [33, 26, 57, 28, 83, 128, 0, 0, 0, 0, 0]\nclass = CLASS_0", fillcolor="#def7fb"] ;
229 -> 233 ;
234 [label="Speed_3 <= 1.5\nentropy = 2.34\nsamples = 201\nvalue = [24, 15, 47, 14, 30, 71, 0, 0, 0, 0, 0]\nclass = CLASS_0", fillcolor="#e0f7fb"] ;
233 -> 234 ;
235 [label="entropy = 2.28\nsamples = 181\nvalue = [16, 11, 45, 14, 27, 68, 0, 0, 0, 0, 0]\nclass = CLASS_0", fillcolor="#def7fb"] ;
234 -> 235 ;
236 [label="entropy = 2.15\nsamples = 20\nvalue = [8, 4, 2, 0, 3, 3, 0, 0, 0, 0, 0]\nclass = CLASS_5", fillcolor="#f8e0ce"] ;
234 -> 236 ;
237 [label="entropy = 2.14\nsamples = 154\nvalue = [9, 11, 10, 14, 53, 57, 0, 0, 0, 0, 0]\nclass = CLASS_0", fillcolor="#f7fdfe"] ;
233 -> 237 ;
238 [label="Move <= 1.5\nentropy = 1.87\nsamples = 1439\nvalue = [56, 53, 81, 386, 107, 756, 0, 0, 0, 0, 0]\nclass = CLASS_0", fillcolor="#b9eef6"] ;
220 -> 238 ;
239 [label="Y <= 2.5\nentropy = 1.45\nsamples = 977\nvalue = [1, 35, 22, 310, 33, 576, 0, 0, 0, 0, 0]\nclass = CLASS_0", fillcolor="#b0ebf5"] ;
238 -> 239 ;
240 [label="Speed_0 <= 0.5\nentropy = 1.37\nsamples = 621\nvalue = [1, 24, 9, 233, 8, 346, 0, 0, 0, 0, 0]\nclass = CLASS_0", fillcolor="#c5f1f7"] ;
239 -> 240 ;
241 [label="Mud_1 <= 1.5\nentropy = 1.21\nsamples = 515\nvalue = [0, 20, 0, 207, 2, 286, 0, 0, 0, 0, 0]\nclass = CLASS_0", fillcolor="#ccf2f8"] ;
240 -> 241 ;
242 [label="entropy = 1.34\nsamples = 196\nvalue = [0, 17, 0, 87, 0, 92, 0, 0, 0, 0, 0]\nclass = CLASS_0", fillcolor="#f6fdfe"] ;
241 -> 242 ;
243 [label="entropy = 1.08\nsamples = 319\nvalue = [0, 3, 0, 120, 2, 194, 0, 0, 0, 0, 0]\nclass = CLASS_0", fillcolor="#b5edf5"] ;
241 -> 243 ;
244 [label="entropy = 1.74\nsamples = 106\nvalue = [1, 4, 9, 26, 6, 60, 0, 0, 0, 0, 0]\nclass = CLASS_0", fillcolor="#abeaf4"] ;
240 -> 244 ;
245 [label="Mud_2 <= 0.5\nentropy = 1.48\nsamples = 356\nvalue = [0, 11, 13, 77, 25, 230, 0, 0, 0, 0, 0]\nclass = CLASS_0", fillcolor="#92e4f1"] ;
239 -> 245 ;
246 [label="entropy = 1.92\nsamples = 43\nvalue = [0, 9, 1, 13, 3, 17, 0, 0, 0, 0, 0]\nclass = CLASS_0", fillcolor="#e5f8fc"] ;
245 -> 246 ;
247 [label="entropy = 1.34\nsamples = 313\nvalue = [0, 2, 12, 64, 22, 213, 0, 0, 0, 0, 0]\nclass = CLASS_0", fillcolor="#89e2ef"] ;
245 -> 247 ;
248 [label="Mud_3 <= 1.5\nentropy = 2.31\nsamples = 462\nvalue = [55, 18, 59, 76, 74, 180, 0, 0, 0, 0, 0]\nclass = CLASS_0", fillcolor="#caf2f8"] ;
238 -> 248 ;
249 [label="Mud_3 <= 0.5\nentropy = 2.35\nsamples = 203\nvalue = [38, 9, 32, 43, 15, 66, 0, 0, 0, 0, 0]\nclass = CLASS_0", fillcolor="#e3f8fb"] ;
248 -> 249 ;
250 [label="entropy = 2.21\nsamples = 66\nvalue = [20, 5, 2, 15, 4, 20, 0, 0, 0, 0, 0]\nclass = CLASS_5", fillcolor="#ffffff"] ;
249 -> 250 ;
251 [label="entropy = 2.3\nsamples = 137\nvalue = [18, 4, 30, 28, 11, 46, 0, 0, 0, 0, 0]\nclass = CLASS_0", fillcolor="#e1f8fb"] ;
249 -> 251 ;
252 [label="entropy = 2.15\nsamples = 259\nvalue = [17, 9, 27, 33, 59, 114, 0, 0, 0, 0, 0]\nclass = CLASS_0", fillcolor="#c9f2f8"] ;
248 -> 252 ;
253 [label="Move <= 0.5\nentropy = 2.1\nsamples = 6825\nvalue = [383, 524, 448, 1706, 607, 3157, 0, 0, 0, 0, 0]\nclass = CLASS_0", fillcolor="#c7f1f8"] ;
3 -> 253 ;
254 [label="Y <= 1.5\nentropy = 2.3\nsamples = 3142\nvalue = [256, 350, 253, 815, 309, 1159, 0, 0, 0, 0, 0]\nclass = CLASS_0", fillcolor="#e2f8fb"] ;
253 -> 254 ;
255 [label="Mud_1 <= 1.5\nentropy = 2.43\nsamples = 1573\nvalue = [199, 153, 160, 372, 198, 491, 0, 0, 0, 0, 0]\nclass = CLASS_0", fillcolor="#ebfafc"] ;
254 -> 255 ;
256 [label="Y <= 0.5\nentropy = 2.49\nsamples = 662\nvalue = [126, 83, 74, 153, 59, 167, 0, 0, 0, 0, 0]\nclass = CLASS_0", fillcolor="#fafefe"] ;
255 -> 256 ;
257 [label="Mud_0 <= 2.5\nentropy = 2.31\nsamples = 267\nvalue = [29, 28, 28, 68, 16, 98, 0, 0, 0, 0, 0]\nclass = CLASS_0", fillcolor="#e1f8fb"] ;
256 -> 257 ;
258 [label="Speed_0 <= 0.5\nentropy = 2.43\nsamples = 180\nvalue = [23, 28, 22, 52, 11, 44, 0, 0, 0, 0, 0]\nclass = CLASS_2", fillcolor="#f3fdf4"] ;
257 -> 258 ;
259 [label="Mud_1 <= 0.5\nentropy = 2.35\nsamples = 153\nvalue = [14, 28, 18, 49, 7, 37, 0, 0, 0, 0, 0]\nclass = CLASS_2", fillcolor="#ebfceb"] ;
258 -> 259 ;
260 [label="entropy = 1.95\nsamples = 47\nvalue = [8, 11, 0, 17, 0, 11, 0, 0, 0, 0, 0]\nclass = CLASS_2", fillcolor="#defbdf"] ;
259 -> 260 ;
261 [label="entropy = 2.37\nsamples = 106\nvalue = [6, 17, 18, 32, 7, 26, 0, 0, 0, 0, 0]\nclass = CLASS_2", fillcolor="#f0fdf1"] ;
259 -> 261 ;
262 [label="entropy = 2.2\nsamples = 27\nvalue = [9, 0, 4, 3, 4, 7, 0, 0, 0, 0, 0]\nclass = CLASS_5", fillcolor="#fcf2eb"] ;
258 -> 262 ;
263 [label="entropy = 1.65\nsamples = 87\nvalue = [6, 0, 6, 16, 5, 54, 0, 0, 0, 0, 0]\nclass = CLASS_0", fillcolor="#95e5f1"] ;
257 -> 263 ;
264 [label="Mud_2 <= 1.5\nentropy = 2.52\nsamples = 395\nvalue = [97, 55, 46, 85, 43, 69, 0, 0, 0, 0, 0]\nclass = CLASS_5", fillcolor="#fefaf7"] ;
256 -> 264 ;
265 [label="entropy = 2.43\nsamples = 164\nvalue = [39, 37, 16, 43, 12, 17, 0, 0, 0, 0, 0]\nclass = CLASS_2", fillcolor="#f9fef9"] ;
264 -> 265 ;
266 [label="entropy = 2.49\nsamples = 231\nvalue = [58, 18, 30, 42, 31, 52, 0, 0, 0, 0, 0]\nclass = CLASS_5", fillcolor="#fefbf8"] ;
264 -> 266 ;
267 [label="Mud_0 <= 1.5\nentropy = 2.34\nsamples = 911\nvalue = [73, 70, 86, 219, 139, 324, 0, 0, 0, 0, 0]\nclass = CLASS_0", fillcolor="#e1f8fb"] ;
255 -> 267 ;
268 [label="Speed_0 <= 0.5\nentropy = 2.49\nsamples = 330\nvalue = [43, 41, 39, 75, 41, 91, 0, 0, 0, 0, 0]\nclass = CLASS_0", fillcolor="#f3fcfd"] ;
267 -> 268 ;
269 [label="entropy = 2.46\nsamples = 275\nvalue = [27, 39, 32, 67, 31, 79, 0, 0, 0, 0, 0]\nclass = CLASS_0", fillcolor="#f4fcfe"] ;
268 -> 269 ;
270 [label="entropy = 2.4\nsamples = 55\nvalue = [16, 2, 7, 8, 10, 12, 0, 0, 0, 0, 0]\nclass = CLASS_5", fillcolor="#fdf3ed"] ;
268 -> 270 ;
271 [label="Y <= 0.5\nentropy = 2.19\nsamples = 581\nvalue = [30, 29, 47, 144, 98, 233, 0, 0, 0, 0, 0]\nclass = CLASS_0", fillcolor="#d7f5fa"] ;
267 -> 271 ;
272 [label="Speed_0 <= 0.5\nentropy = 1.88\nsamples = 251\nvalue = [6, 9, 15, 63, 27, 131, 0, 0, 0, 0, 0]\nclass = CLASS_0", fillcolor="#b7edf6"] ;
271 -> 272 ;
273 [label="entropy = 1.62\nsamples = 210\nvalue = [1, 2, 12, 53, 20, 122, 0, 0, 0, 0, 0]\nclass = CLASS_0", fillcolor="#a8e9f4"] ;
272 -> 273 ;
274 [label="entropy = 2.49\nsamples = 41\nvalue = [5, 7, 3, 10, 7, 9, 0, 0, 0, 0, 0]\nclass = CLASS_2", fillcolor="#f9fef9"] ;
272 -> 274 ;
275 [label="entropy = 2.34\nsamples = 330\nvalue = [24, 20, 32, 81, 71, 102, 0, 0, 0, 0, 0]\nclass = CLASS_0", fillcolor="#eefbfd"] ;
271 -> 275 ;
276 [label="Speed_3 <= 0.5\nentropy = 2.1\nsamples = 1569\nvalue = [57, 197, 93, 443, 111, 668, 0, 0, 0, 0, 0]\nclass = CLASS_0", fillcolor="#d7f5fa"] ;
254 -> 276 ;
277 [label="Y <= 2.5\nentropy = 1.98\nsamples = 1296\nvalue = [27, 173, 56, 381, 75, 584, 0, 0, 0, 0, 0]\nclass = CLASS_0", fillcolor="#d3f4f9"] ;
276 -> 277 ;
278 [label="Mud_2 <= 2.5\nentropy = 2.14\nsamples = 744\nvalue = [19, 99, 49, 239, 64, 274, 0, 0, 0, 0, 0]\nclass = CLASS_0", fillcolor="#f1fcfd"] ;
277 -> 278 ;
279 [label="Mud_2 <= 0.5\nentropy = 2.25\nsamples = 487\nvalue = [18, 89, 33, 170, 45, 132, 0, 0, 0, 0, 0]\nclass = CLASS_2", fillcolor="#eafceb"] ;
278 -> 279 ;
280 [label="entropy = 2.45\nsamples = 86\nvalue = [14, 13, 7, 20, 8, 24, 0, 0, 0, 0, 0]\nclass = CLASS_0", fillcolor="#f3fcfd"] ;
279 -> 280 ;
281 [label="Mud_2 <= 1.5\nentropy = 2.13\nsamples = 401\nvalue = [4, 76, 26, 150, 37, 108, 0, 0, 0, 0, 0]\nclass = CLASS_2", fillcolor="#e3fbe4"] ;
279 -> 281 ;
282 [label="entropy = 2.16\nsamples = 189\nvalue = [2, 55, 12, 60, 17, 43, 0, 0, 0, 0, 0]\nclass = CLASS_2", fillcolor="#f8fef8"] ;
281 -> 282 ;
283 [label="Mud_3 <= 0.5\nentropy = 2.02\nsamples = 212\nvalue = [2, 21, 14, 90, 20, 65, 0, 0, 0, 0, 0]\nclass = CLASS_2", fillcolor="#ddfbdf"] ;
281 -> 283 ;
284 [label="entropy = 1.37\nsamples = 28\nvalue = [0, 5, 2, 19, 2, 0, 0, 0, 0, 0, 0]\nclass = CLASS_2", fillcolor="#86ef8b"] ;
283 -> 284 ;
285 [label="Mud_1 <= 1.5\nentropy = 2.02\nsamples = 184\nvalue = [2, 16, 12, 71, 18, 65, 0, 0, 0, 0, 0]\nclass = CLASS_2", fillcolor="#f5fef5"] ;
283 -> 285 ;
286 [label="entropy = 2.14\nsamples = 75\nvalue = [2, 8, 10, 33, 5, 17, 0, 0, 0, 0, 0]\nclass = CLASS_2", fillcolor="#c8f8cb"] ;
285 -> 286 ;
287 [label="entropy = 1.8\nsamples = 109\nvalue = [0, 8, 2, 38, 13, 48, 0, 0, 0, 0, 0]\nclass = CLASS_0", fillcolor="#e3f8fb"] ;
285 -> 287 ;
288 [label="entropy = 1.72\nsamples = 257\nvalue = [1, 10, 16, 69, 19, 142, 0, 0, 0, 0, 0]\nclass = CLASS_0", fillcolor="#b2ecf5"] ;
278 -> 288 ;
289 [label="Mud_3 <= 2.5\nentropy = 1.64\nsamples = 552\nvalue = [8, 74, 7, 142, 11, 310, 0, 0, 0, 0, 0]\nclass = CLASS_0", fillcolor="#aeebf4"] ;
277 -> 289 ;
290 [label="Mud_3 <= 0.5\nentropy = 1.82\nsamples = 380\nvalue = [8, 74, 6, 114, 7, 171, 0, 0, 0, 0, 0]\nclass = CLASS_0", fillcolor="#d5f4f9"] ;
289 -> 290 ;
291 [label="entropy = 1.98\nsamples = 68\nvalue = [8, 21, 1, 24, 0, 14, 0, 0, 0, 0, 0]\nclass = CLASS_2", fillcolor="#f2fdf3"] ;
290 -> 291 ;
292 [label="Mud_3 <= 1.5\nentropy = 1.67\nsamples = 312\nvalue = [0, 53, 5, 90, 7, 157, 0, 0, 0, 0, 0]\nclass = CLASS_0", fillcolor="#c3f0f7"] ;
290 -> 292 ;
293 [label="entropy = 1.72\nsamples = 165\nvalue = [0, 42, 4, 35, 3, 81, 0, 0, 0, 0, 0]\nclass = CLASS_0", fillcolor="#c0eff7"] ;
292 -> 293 ;
294 [label="entropy = 1.49\nsamples = 147\nvalue = [0, 11, 1, 55, 4, 76, 0, 0, 0, 0, 0]\nclass = CLASS_0", fillcolor="#d2f4f9"] ;
292 -> 294 ;
295 [label="entropy = 0.84\nsamples = 172\nvalue = [0, 0, 1, 28, 4, 139, 0, 0, 0, 0, 0]\nclass = CLASS_0", fillcolor="#66d9eb"] ;
289 -> 295 ;
296 [label="Y <= 2.5\nentropy = 2.44\nsamples = 273\nvalue = [30, 24, 37, 62, 36, 84, 0, 0, 0, 0, 0]\nclass = CLASS_0", fillcolor="#eafafc"] ;
276 -> 296 ;
297 [label="Mud_3 <= 1.5\nentropy = 2.21\nsamples = 149\nvalue = [5, 16, 14, 46, 14, 54, 0, 0, 0, 0, 0]\nclass = CLASS_0", fillcolor="#f0fbfd"] ;
296 -> 297 ;
298 [label="entropy = 2.36\nsamples = 59\nvalue = [2, 9, 12, 19, 6, 11, 0, 0, 0, 0, 0]\nclass = CLASS_2", fillcolor="#e2fbe3"] ;
297 -> 298 ;
299 [label="entropy = 1.91\nsamples = 90\nvalue = [3, 7, 2, 27, 8, 43, 0, 0, 0, 0, 0]\nclass = CLASS_0", fillcolor="#cdf3f8"] ;
297 -> 299 ;
300 [label="entropy = 2.49\nsamples = 124\nvalue = [25, 8, 23, 16, 22, 30, 0, 0, 0, 0, 0]\nclass = CLASS_0", fillcolor="#f5fdfe"] ;
296 -> 300 ;
301 [label="Y <= 0.5\nentropy = 1.87\nsamples = 3683\nvalue = [127, 174, 195, 891, 298, 1998, 0, 0, 0, 0, 0]\nclass = CLASS_0", fillcolor="#b0ecf5"] ;
253 -> 301 ;
302 [label="Mud_1 <= 1.5\nentropy = 2.07\nsamples = 584\nvalue = [46, 19, 39, 117, 79, 284, 0, 0, 0, 0, 0]\nclass = CLASS_0", fillcolor="#b8edf6"] ;
301 -> 302 ;
303 [label="entropy = 2.12\nsamples = 267\nvalue = [34, 14, 12, 57, 26, 124, 0, 0, 0, 0, 0]\nclass = CLASS_0", fillcolor="#c0eff7"] ;
302 -> 303 ;
304 [label="entropy = 1.96\nsamples = 317\nvalue = [12, 5, 27, 60, 53, 160, 0, 0, 0, 0, 0]\nclass = CLASS_0", fillcolor="#b2ecf5"] ;
302 -> 304 ;
305 [label="Move <= 1.5\nentropy = 1.81\nsamples = 3099\nvalue = [81, 155, 156, 774, 219, 1714, 0, 0, 0, 0, 0]\nclass = CLASS_0", fillcolor="#afebf4"] ;
301 -> 305 ;
306 [label="Y <= 2.5\nentropy = 1.93\nsamples = 1795\nvalue = [58, 69, 123, 450, 175, 920, 0, 0, 0, 0, 0]\nclass = CLASS_0", fillcolor="#baeef6"] ;
305 -> 306 ;
307 [label="Mud_1 <= 1.5\nentropy = 2.04\nsamples = 1367\nvalue = [57, 55, 111, 354, 150, 640, 0, 0, 0, 0, 0]\nclass = CLASS_0", fillcolor="#c7f1f8"] ;
306 -> 307 ;
308 [label="Y <= 1.5\nentropy = 2.08\nsamples = 578\nvalue = [36, 22, 61, 179, 38, 242, 0, 0, 0, 0, 0]\nclass = CLASS_0", fillcolor="#e0f7fb"] ;
307 -> 308 ;
309 [label="Mud_0 <= 2.5\nentropy = 1.89\nsamples = 265\nvalue = [3, 11, 29, 81, 16, 125, 0, 0, 0, 0, 0]\nclass = CLASS_0", fillcolor="#d0f3f9"] ;
308 -> 309 ;
310 [label="entropy = 1.98\nsamples = 184\nvalue = [3, 11, 21, 64, 10, 75, 0, 0, 0, 0, 0]\nclass = CLASS_0", fillcolor="#edfbfd"] ;
309 -> 310 ;
311 [label="entropy = 1.51\nsamples = 81\nvalue = [0, 0, 8, 17, 6, 50, 0, 0, 0, 0, 0]\nclass = CLASS_0", fillcolor="#99e6f2"] ;
309 -> 311 ;
312 [label="Mud_1 <= 0.5\nentropy = 2.17\nsamples = 313\nvalue = [33, 11, 32, 98, 22, 117, 0, 0, 0, 0, 0]\nclass = CLASS_0", fillcolor="#eefbfd"] ;
308 -> 312 ;
313 [label="entropy = 2.15\nsamples = 92\nvalue = [21, 5, 5, 33, 3, 25, 0, 0, 0, 0, 0]\nclass = CLASS_2", fillcolor="#e7fce8"] ;
312 -> 313 ;
314 [label="entropy = 2.09\nsamples = 221\nvalue = [12, 6, 27, 65, 19, 92, 0, 0, 0, 0, 0]\nclass = CLASS_0", fillcolor="#ddf7fa"] ;
312 -> 314 ;
315 [label="Y <= 1.5\nentropy = 1.96\nsamples = 789\nvalue = [21, 33, 50, 175, 112, 398, 0, 0, 0, 0, 0]\nclass = CLASS_0", fillcolor="#b7edf6"] ;
307 -> 315 ;
316 [label="Speed_0 <= 0.5\nentropy = 1.87\nsamples = 356\nvalue = [8, 27, 20, 58, 39, 204, 0, 0, 0, 0, 0]\nclass = CLASS_0", fillcolor="#9ee7f2"] ;
315 -> 316 ;
317 [label="Mud_0 <= 1.5\nentropy = 1.65\nsamples = 287\nvalue = [0, 20, 14, 47, 27, 179, 0, 0, 0, 0, 0]\nclass = CLASS_0", fillcolor="#92e4f1"] ;
316 -> 317 ;
318 [label="entropy = 1.9\nsamples = 113\nvalue = [0, 16, 6, 23, 10, 58, 0, 0, 0, 0, 0]\nclass = CLASS_0", fillcolor="#b2ecf5"] ;
317 -> 318 ;
319 [label="entropy = 1.42\nsamples = 174\nvalue = [0, 4, 8, 24, 17, 121, 0, 0, 0, 0, 0]\nclass = CLASS_0", fillcolor="#7fdfee"] ;
317 -> 319 ;
320 [label="entropy = 2.39\nsamples = 69\nvalue = [8, 7, 6, 11, 12, 25, 0, 0, 0, 0, 0]\nclass = CLASS_0", fillcolor="#d2f4f9"] ;
316 -> 320 ;
321 [label="Mud_2 <= 2.5\nentropy = 1.97\nsamples = 433\nvalue = [13, 6, 30, 117, 73, 194, 0, 0, 0, 0, 0]\nclass = CLASS_0", fillcolor="#cff3f9"] ;
315 -> 321 ;
322 [label="entropy = 1.93\nsamples = 275\nvalue = [11, 2, 14, 96, 42, 110, 0, 0, 0, 0, 0]\nclass = CLASS_0", fillcolor="#f0fbfd"] ;
321 -> 322 ;
323 [label="entropy = 1.88\nsamples = 158\nvalue = [2, 4, 16, 21, 31, 84, 0, 0, 0, 0, 0]\nclass = CLASS_0", fillcolor="#acebf4"] ;
321 -> 323 ;
324 [label="entropy = 1.45\nsamples = 428\nvalue = [1, 14, 12, 96, 25, 280, 0, 0, 0, 0, 0]\nclass = CLASS_0", fillcolor="#91e4f1"] ;
306 -> 324 ;
325 [label="Speed_3 <= 0.5\nentropy = 1.6\nsamples = 1304\nvalue = [23, 86, 33, 324, 44, 794, 0, 0, 0, 0, 0]\nclass = CLASS_0", fillcolor="#a0e8f3"] ;
305 -> 325 ;
326 [label="Y <= 1.5\nentropy = 1.47\nsamples = 1055\nvalue = [16, 72, 10, 277, 22, 658, 0, 0, 0, 0, 0]\nclass = CLASS_0", fillcolor="#9ee7f2"] ;
325 -> 326 ;
327 [label="Mud_2 <= 1.5\nentropy = 1.45\nsamples = 646\nvalue = [16, 33, 10, 149, 14, 424, 0, 0, 0, 0, 0]\nclass = CLASS_0", fillcolor="#91e4f1"] ;
326 -> 327 ;
328 [label="entropy = 1.67\nsamples = 262\nvalue = [7, 29, 5, 62, 6, 153, 0, 0, 0, 0, 0]\nclass = CLASS_0", fillcolor="#a5e9f3"] ;
327 -> 328 ;
329 [label="entropy = 1.23\nsamples = 384\nvalue = [9, 4, 5, 87, 8, 271, 0, 0, 0, 0, 0]\nclass = CLASS_0", fillcolor="#84e1ef"] ;
327 -> 329 ;
330 [label="Mud_3 <= 1.5\nentropy = 1.42\nsamples = 409\nvalue = [0, 39, 0, 128, 8, 234, 0, 0, 0, 0, 0]\nclass = CLASS_0", fillcolor="#b4edf5"] ;
326 -> 330 ;
331 [label="entropy = 1.65\nsamples = 159\nvalue = [0, 31, 0, 58, 4, 66, 0, 0, 0, 0, 0]\nclass = CLASS_0", fillcolor="#effbfd"] ;
330 -> 331 ;
332 [label="entropy = 1.15\nsamples = 250\nvalue = [0, 8, 0, 70, 4, 168, 0, 0, 0, 0, 0]\nclass = CLASS_0", fillcolor="#93e4f1"] ;
330 -> 332 ;
333 [label="Y <= 1.5\nentropy = 1.94\nsamples = 249\nvalue = [7, 14, 23, 47, 22, 136, 0, 0, 0, 0, 0]\nclass = CLASS_0", fillcolor="#a8e9f4"] ;
325 -> 333 ;
334 [label="entropy = 1.64\nsamples = 167\nvalue = [2, 9, 10, 29, 10, 107, 0, 0, 0, 0, 0]\nclass = CLASS_0", fillcolor="#8fe3f0"] ;
333 -> 334 ;
335 [label="entropy = 2.33\nsamples = 82\nvalue = [5, 5, 13, 18, 12, 29, 0, 0, 0, 0, 0]\nclass = CLASS_0", fillcolor="#ddf7fb"] ;
333 -> 335 ;
336 [label="Move <= 0.5\nentropy = 2.18\nsamples = 8327\nvalue = [566, 566, 736, 1846, 878, 3735, 0, 0, 0, 0, 0]\nclass = CLASS_0", fillcolor="#c5f1f7"] ;
2 -> 336 ;
337 [label="Y <= 1.5\nentropy = 2.35\nsamples = 3866\nvalue = [385, 351, 411, 925, 398, 1396, 0, 0, 0, 0, 0]\nclass = CLASS_0", fillcolor="#dff7fb"] ;
336 -> 337 ;
338 [label="Mud_1 <= 1.5\nentropy = 2.14\nsamples = 1875\nvalue = [122, 169, 135, 494, 130, 825, 0, 0, 0, 0, 0]\nclass = CLASS_0", fillcolor="#d0f3f9"] ;
337 -> 338 ;
339 [label="Mud_0 <= 2.5\nentropy = 2.33\nsamples = 746\nvalue = [75, 102, 64, 242, 48, 215, 0, 0, 0, 0, 0]\nclass = CLASS_2", fillcolor="#f5fef5"] ;
338 -> 339 ;
340 [label="Speed_0 <= 0.5\nentropy = 2.35\nsamples = 506\nvalue = [58, 87, 42, 175, 30, 114, 0, 0, 0, 0, 0]\nclass = CLASS_2", fillcolor="#e0fbe1"] ;
339 -> 340 ;
341 [label="Mud_1 <= 0.5\nentropy = 2.26\nsamples = 420\nvalue = [37, 78, 28, 156, 21, 100, 0, 0, 0, 0, 0]\nclass = CLASS_2", fillcolor="#dcfade"] ;
340 -> 341 ;
342 [label="entropy = 2.16\nsamples = 154\nvalue = [22, 37, 5, 59, 4, 27, 0, 0, 0, 0, 0]\nclass = CLASS_2", fillcolor="#dafadb"] ;
341 -> 342 ;
343 [label="Mud_0 <= 1.5\nentropy = 2.25\nsamples = 266\nvalue = [15, 41, 23, 97, 17, 73, 0, 0, 0, 0, 0]\nclass = CLASS_2", fillcolor="#e6fce7"] ;
341 -> 343 ;
344 [label="entropy = 2.1\nsamples = 139\nvalue = [8, 28, 13, 60, 2, 28, 0, 0, 0, 0, 0]\nclass = CLASS_2", fillcolor="#c6f8c8"] ;
343 -> 344 ;
345 [label="Y <= 0.5\nentropy = 2.27\nsamples = 127\nvalue = [7, 13, 10, 37, 15, 45, 0, 0, 0, 0, 0]\nclass = CLASS_0", fillcolor="#edfbfd"] ;
343 -> 345 ;
346 [label="entropy = 1.69\nsamples = 56\nvalue = [0, 5, 1, 25, 3, 22, 0, 0, 0, 0, 0]\nclass = CLASS_2", fillcolor="#eefdee"] ;
345 -> 346 ;
347 [label="entropy = 2.46\nsamples = 71\nvalue = [7, 8, 9, 12, 12, 23, 0, 0, 0, 0, 0]\nclass = CLASS_0", fillcolor="#daf6fa"] ;
345 -> 347 ;
348 [label="entropy = 2.51\nsamples = 86\nvalue = [21, 9, 14, 19, 9, 14, 0, 0, 0, 0, 0]\nclass = CLASS_5", fillcolor="#fefbf9"] ;
340 -> 348 ;
349 [label="Y <= 0.5\nentropy = 2.16\nsamples = 240\nvalue = [17, 15, 22, 67, 18, 101, 0, 0, 0, 0, 0]\nclass = CLASS_0", fillcolor="#d8f5fa"] ;
339 -> 349 ;
350 [label="Speed_0 <= 0.5\nentropy = 1.66\nsamples = 102\nvalue = [2, 3, 4, 33, 5, 55, 0, 0, 0, 0, 0]\nclass = CLASS_0", fillcolor="#c0eff7"] ;
349 -> 350 ;
351 [label="entropy = 1.34\nsamples = 87\nvalue = [0, 1, 3, 29, 2, 52, 0, 0, 0, 0, 0]\nclass = CLASS_0", fillcolor="#b0ecf5"] ;
350 -> 351 ;
352 [label="entropy = 2.47\nsamples = 15\nvalue = [2, 2, 1, 4, 3, 3, 0, 0, 0, 0, 0]\nclass = CLASS_2", fillcolor="#effdef"] ;
350 -> 352 ;
353 [label="Speed_2 <= 1.5\nentropy = 2.39\nsamples = 138\nvalue = [15, 12, 18, 34, 13, 46, 0, 0, 0, 0, 0]\nclass = CLASS_0", fillcolor="#e8f9fc"] ;
349 -> 353 ;
354 [label="Mud_2 <= 0.5\nentropy = 2.28\nsamples = 118\nvalue = [13, 9, 10, 34, 10, 42, 0, 0, 0, 0, 0]\nclass = CLASS_0", fillcolor="#ecfafd"] ;
353 -> 354 ;
355 [label="entropy = 1.9\nsamples = 17\nvalue = [0, 6, 2, 5, 0, 4, 0, 0, 0, 0, 0]\nclass = CLASS_4", fillcolor="#fdfcee"] ;
354 -> 355 ;
356 [label="entropy = 2.2\nsamples = 101\nvalue = [13, 3, 8, 29, 10, 38, 0, 0, 0, 0, 0]\nclass = CLASS_0", fillcolor="#e6f9fc"] ;
354 -> 356 ;
357 [label="entropy = 2.15\nsamples = 20\nvalue = [2, 3, 8, 0, 3, 4, 0, 0, 0, 0, 0]\nclass = CLASS_3", fillcolor="#e3f8ce"] ;
353 -> 357 ;
358 [label="Speed_1 <= 0.5\nentropy = 1.92\nsamples = 1129\nvalue = [47, 67, 71, 252, 82, 610, 0, 0, 0, 0, 0]\nclass = CLASS_0", fillcolor="#aeebf4"] ;
338 -> 358 ;
359 [label="Mud_0 <= 1.5\nentropy = 1.75\nsamples = 943\nvalue = [27, 48, 49, 213, 50, 556, 0, 0, 0, 0, 0]\nclass = CLASS_0", fillcolor="#a2e8f3"] ;
358 -> 359 ;
360 [label="Y <= 0.5\nentropy = 1.93\nsamples = 374\nvalue = [21, 32, 16, 93, 18, 194, 0, 0, 0, 0, 0]\nclass = CLASS_0", fillcolor="#b8edf6"] ;
359 -> 360 ;
361 [label="Speed_0 <= 0.5\nentropy = 1.94\nsamples = 138\nvalue = [15, 19, 1, 32, 4, 67, 0, 0, 0, 0, 0]\nclass = CLASS_0", fillcolor="#beeff6"] ;
360 -> 361 ;
362 [label="Mud_0 <= 0.5\nentropy = 1.67\nsamples = 103\nvalue = [5, 16, 0, 25, 1, 56, 0, 0, 0, 0, 0]\nclass = CLASS_0", fillcolor="#b0ecf5"] ;
361 -> 362 ;
363 [label="entropy = 2.04\nsamples = 30\nvalue = [5, 4, 0, 10, 1, 10, 0, 0, 0, 0, 0]\nclass = CLASS_2", fillcolor="#ffffff"] ;
362 -> 363 ;
364 [label="entropy = 1.32\nsamples = 73\nvalue = [0, 12, 0, 15, 0, 46, 0, 0, 0, 0, 0]\nclass = CLASS_0", fillcolor="#95e5f1"] ;
362 -> 364 ;
365 [label="entropy = 2.26\nsamples = 35\nvalue = [10, 3, 1, 7, 3, 11, 0, 0, 0, 0, 0]\nclass = CLASS_0", fillcolor="#f7fdfe"] ;
361 -> 365 ;
366 [label="entropy = 1.85\nsamples = 236\nvalue = [6, 13, 15, 61, 14, 127, 0, 0, 0, 0, 0]\nclass = CLASS_0", fillcolor="#b4edf5"] ;
360 -> 366 ;
367 [label="Mud_1 <= 2.5\nentropy = 1.57\nsamples = 569\nvalue = [6, 16, 33, 120, 32, 362, 0, 0, 0, 0, 0]\nclass = CLASS_0", fillcolor="#94e5f1"] ;
359 -> 367 ;
368 [label="Mud_0 <= 2.5\nentropy = 1.73\nsamples = 269\nvalue = [4, 9, 19, 75, 14, 148, 0, 0, 0, 0, 0]\nclass = CLASS_0", fillcolor="#b4edf5"] ;
367 -> 368 ;
369 [label="entropy = 1.88\nsamples = 118\nvalue = [2, 7, 16, 28, 4, 61, 0, 0, 0, 0, 0]\nclass = CLASS_0", fillcolor="#b6edf5"] ;
368 -> 369 ;
370 [label="entropy = 1.52\nsamples = 151\nvalue = [2, 2, 3, 47, 10, 87, 0, 0, 0, 0, 0]\nclass = CLASS_0", fillcolor="#b3ecf5"] ;
368 -> 370 ;
371 [label="entropy = 1.38\nsamples = 300\nvalue = [2, 7, 14, 45, 18, 214, 0, 0, 0, 0, 0]\nclass = CLASS_0", fillcolor="#7cdfee"] ;
367 -> 371 ;
372 [label="entropy = 2.47\nsamples = 186\nvalue = [20, 19, 22, 39, 32, 54, 0, 0, 0, 0, 0]\nclass = CLASS_0", fillcolor="#ebfafc"] ;
358 -> 372 ;
373 [label="Mud_3 <= 1.5\nentropy = 2.48\nsamples = 1991\nvalue = [263, 182, 276, 431, 268, 571, 0, 0, 0, 0, 0]\nclass = CLASS_0", fillcolor="#edfbfd"] ;
337 -> 373 ;
374 [label="Mud_2 <= 1.5\nentropy = 2.55\nsamples = 799\nvalue = [140, 130, 119, 178, 80, 152, 0, 0, 0, 0, 0]\nclass = CLASS_2", fillcolor="#f7fef7"] ;
373 -> 374 ;
375 [label="Speed_3 <= 0.5\nentropy = 2.4\nsamples = 321\nvalue = [93, 63, 37, 73, 13, 42, 0, 0, 0, 0, 0]\nclass = CLASS_5", fillcolor="#fdf5ef"] ;
374 -> 375 ;
376 [label="entropy = 2.36\nsamples = 258\nvalue = [70, 58, 26, 66, 10, 28, 0, 0, 0, 0, 0]\nclass = CLASS_5", fillcolor="#fefcfb"] ;
375 -> 376 ;
377 [label="entropy = 2.3\nsamples = 63\nvalue = [23, 5, 11, 7, 3, 14, 0, 0, 0, 0, 0]\nclass = CLASS_5", fillcolor="#fae8db"] ;
375 -> 377 ;
378 [label="Y <= 2.5\nentropy = 2.53\nsamples = 478\nvalue = [47, 67, 82, 105, 67, 110, 0, 0, 0, 0, 0]\nclass = CLASS_0", fillcolor="#fcfeff"] ;
374 -> 378 ;
379 [label="Mud_1 <= 0.5\nentropy = 2.47\nsamples = 272\nvalue = [17, 30, 55, 71, 50, 49, 0, 0, 0, 0, 0]\nclass = CLASS_2", fillcolor="#f0fdf1"] ;
378 -> 379 ;
380 [label="entropy = 2.22\nsamples = 55\nvalue = [2, 7, 18, 10, 16, 2, 0, 0, 0, 0, 0]\nclass = CLASS_3", fillcolor="#f9fef5"] ;
379 -> 380 ;
381 [label="Mud_3 <= 0.5\nentropy = 2.46\nsamples = 217\nvalue = [15, 23, 37, 61, 34, 47, 0, 0, 0, 0, 0]\nclass = CLASS_2", fillcolor="#effdef"] ;
379 -> 381 ;
382 [label="entropy = 2.4\nsamples = 74\nvalue = [4, 17, 6, 21, 12, 14, 0, 0, 0, 0, 0]\nclass = CLASS_2", fillcolor="#f1fdf2"] ;
381 -> 382 ;
383 [label="Mud_2 <= 2.5\nentropy = 2.37\nsamples = 143\nvalue = [11, 6, 31, 40, 22, 33, 0, 0, 0, 0, 0]\nclass = CLASS_2", fillcolor="#f2fdf3"] ;
381 -> 383 ;
384 [label="entropy = 2.33\nsamples = 72\nvalue = [8, 4, 24, 16, 5, 15, 0, 0, 0, 0, 0]\nclass = CLASS_3", fillcolor="#effbe3"] ;
383 -> 384 ;
385 [label="entropy = 2.19\nsamples = 71\nvalue = [3, 2, 7, 24, 17, 18, 0, 0, 0, 0, 0]\nclass = CLASS_2", fillcolor="#e9fce9"] ;
383 -> 385 ;
386 [label="Speed_3 <= 0.5\nentropy = 2.48\nsamples = 206\nvalue = [30, 37, 27, 34, 17, 61, 0, 0, 0, 0, 0]\nclass = CLASS_0", fillcolor="#e3f8fb"] ;
378 -> 386 ;
387 [label="Mud_2 <= 2.5\nentropy = 2.43\nsamples = 166\nvalue = [16, 36, 22, 33, 11, 48, 0, 0, 0, 0, 0]\nclass = CLASS_0", fillcolor="#edfafd"] ;
386 -> 387 ;
388 [label="entropy = 2.42\nsamples = 77\nvalue = [12, 16, 14, 19, 2, 14, 0, 0, 0, 0, 0]\nclass = CLASS_2", fillcolor="#f5fef6"] ;
387 -> 388 ;
389 [label="entropy = 2.28\nsamples = 89\nvalue = [4, 20, 8, 14, 9, 34, 0, 0, 0, 0, 0]\nclass = CLASS_0", fillcolor="#d7f5fa"] ;
387 -> 389 ;
390 [label="entropy = 2.11\nsamples = 40\nvalue = [14, 1, 5, 1, 6, 13, 0, 0, 0, 0, 0]\nclass = CLASS_5", fillcolor="#fefaf8"] ;
386 -> 390 ;
391 [label="Y <= 2.5\nentropy = 2.35\nsamples = 1192\nvalue = [123, 52, 157, 253, 188, 419, 0, 0, 0, 0, 0]\nclass = CLASS_0", fillcolor="#dcf6fa"] ;
373 -> 391 ;
392 [label="Mud_2 <= 1.5\nentropy = 2.48\nsamples = 654\nvalue = [98, 35, 118, 123, 127, 153, 0, 0, 0, 0, 0]\nclass = CLASS_0", fillcolor="#f5fdfe"] ;
391 -> 392 ;
393 [label="entropy = 2.41\nsamples = 253\nvalue = [78, 14, 35, 39, 30, 57, 0, 0, 0, 0, 0]\nclass = CLASS_5", fillcolor="#fcf2ea"] ;
392 -> 393 ;
394 [label="Speed_2 <= 1.5\nentropy = 2.37\nsamples = 401\nvalue = [20, 21, 83, 84, 97, 96, 0, 0, 0, 0, 0]\nclass = CLASS_1", fillcolor="#feffff"] ;
392 -> 394 ;
395 [label="Mud_2 <= 2.5\nentropy = 2.32\nsamples = 364\nvalue = [16, 13, 82, 72, 90, 91, 0, 0, 0, 0, 0]\nclass = CLASS_0", fillcolor="#feffff"] ;
394 -> 395 ;
396 [label="entropy = 2.33\nsamples = 202\nvalue = [12, 8, 60, 38, 35, 49, 0, 0, 0, 0, 0]\nclass = CLASS_3", fillcolor="#f7fdf1"] ;
395 -> 396 ;
397 [label="entropy = 2.18\nsamples = 162\nvalue = [4, 5, 22, 34, 55, 42, 0, 0, 0, 0, 0]\nclass = CLASS_1", fillcolor="#eafcf4"] ;
395 -> 397 ;
398 [label="entropy = 2.34\nsamples = 37\nvalue = [4, 8, 1, 12, 7, 5, 0, 0, 0, 0, 0]\nclass = CLASS_2", fillcolor="#e4fbe5"] ;
394 -> 398 ;
399 [label="Speed_3 <= 0.5\nentropy = 1.99\nsamples = 538\nvalue = [25, 17, 39, 130, 61, 266, 0, 0, 0, 0, 0]\nclass = CLASS_0", fillcolor="#bdeff6"] ;
391 -> 399 ;
400 [label="entropy = 1.73\nsamples = 428\nvalue = [10, 8, 23, 111, 36, 240, 0, 0, 0, 0, 0]\nclass = CLASS_0", fillcolor="#aeebf4"] ;
399 -> 400 ;
401 [label="entropy = 2.51\nsamples = 110\nvalue = [15, 9, 16, 19, 25, 26, 0, 0, 0, 0, 0]\nclass = CLASS_0", fillcolor="#fdfeff"] ;
399 -> 401 ;
402 [label="Mud_2 <= 1.5\nentropy = 1.98\nsamples = 4461\nvalue = [181, 215, 325, 921, 480, 2339, 0, 0, 0, 0, 0]\nclass = CLASS_0", fillcolor="#b0ebf5"] ;
336 -> 402 ;
403 [label="Move <= 1.5\nentropy = 2.06\nsamples = 1821\nvalue = [113, 98, 140, 424, 159, 887, 0, 0, 0, 0, 0]\nclass = CLASS_0", fillcolor="#bdeff6"] ;
402 -> 403 ;
404 [label="Y <= 2.5\nentropy = 1.91\nsamples = 870\nvalue = [25, 33, 69, 230, 68, 445, 0, 0, 0, 0, 0]\nclass = CLASS_0", fillcolor="#bceff6"] ;
403 -> 404 ;
405 [label="Speed_1 <= 0.5\nentropy = 1.76\nsamples = 663\nvalue = [10, 22, 46, 194, 38, 353, 0, 0, 0, 0, 0]\nclass = CLASS_0", fillcolor="#bceef6"] ;
404 -> 405 ;
406 [label="entropy = 1.61\nsamples = 539\nvalue = [1, 18, 27, 162, 29, 302, 0, 0, 0, 0, 0]\nclass = CLASS_0", fillcolor="#b5edf5"] ;
405 -> 406 ;
407 [label="entropy = 2.16\nsamples = 124\nvalue = [9, 4, 19, 32, 9, 51, 0, 0, 0, 0, 0]\nclass = CLASS_0", fillcolor="#d6f5fa"] ;
405 -> 407 ;
408 [label="entropy = 2.21\nsamples = 207\nvalue = [15, 11, 23, 36, 30, 92, 0, 0, 0, 0, 0]\nclass = CLASS_0", fillcolor="#beeff6"] ;
404 -> 408 ;
409 [label="Mud_3 <= 1.5\nentropy = 2.17\nsamples = 951\nvalue = [88, 65, 71, 194, 91, 442, 0, 0, 0, 0, 0]\nclass = CLASS_0", fillcolor="#beeff6"] ;
403 -> 409 ;
410 [label="Y <= 1.5\nentropy = 2.32\nsamples = 379\nvalue = [30, 41, 34, 104, 37, 133, 0, 0, 0, 0, 0]\nclass = CLASS_0", fillcolor="#eafafc"] ;
409 -> 410 ;
411 [label="Y <= 0.5\nentropy = 2.22\nsamples = 265\nvalue = [23, 15, 23, 66, 29, 109, 0, 0, 0, 0, 0]\nclass = CLASS_0", fillcolor="#d4f4f9"] ;
410 -> 411 ;
412 [label="Speed_1 <= 0.5\nentropy = 1.9\nsamples = 114\nvalue = [3, 8, 5, 26, 11, 61, 0, 0, 0, 0, 0]\nclass = CLASS_0", fillcolor="#b0ecf5"] ;
411 -> 412 ;
413 [label="entropy = 1.66\nsamples = 97\nvalue = [2, 6, 4, 25, 3, 57, 0, 0, 0, 0, 0]\nclass = CLASS_0", fillcolor="#a7e9f3"] ;
412 -> 413 ;
414 [label="entropy = 2.09\nsamples = 17\nvalue = [1, 2, 1, 1, 8, 4, 0, 0, 0, 0, 0]\nclass = CLASS_1", fillcolor="#c2f7e1"] ;
412 -> 414 ;
415 [label="entropy = 2.36\nsamples = 151\nvalue = [20, 7, 18, 40, 18, 48, 0, 0, 0, 0, 0]\nclass = CLASS_0", fillcolor="#f1fbfd"] ;
411 -> 415 ;
416 [label="Speed_3 <= 0.5\nentropy = 2.33\nsamples = 114\nvalue = [7, 26, 11, 38, 8, 24, 0, 0, 0, 0, 0]\nclass = CLASS_2", fillcolor="#e4fbe5"] ;
410 -> 416 ;
417 [label="entropy = 2.05\nsamples = 92\nvalue = [1, 25, 5, 36, 5, 20, 0, 0, 0, 0, 0]\nclass = CLASS_2", fillcolor="#defbe0"] ;
416 -> 417 ;
418 [label="entropy = 2.38\nsamples = 22\nvalue = [6, 1, 6, 2, 3, 4, 0, 0, 0, 0, 0]\nclass = CLASS_5", fillcolor="#ffffff"] ;
416 -> 418 ;
419 [label="Y <= 1.5\nentropy = 2.0\nsamples = 572\nvalue = [58, 24, 37, 90, 54, 309, 0, 0, 0, 0, 0]\nclass = CLASS_0", fillcolor="#a5e9f3"] ;
409 -> 419 ;
420 [label="Y <= 0.5\nentropy = 2.04\nsamples = 429\nvalue = [57, 22, 28, 56, 37, 229, 0, 0, 0, 0, 0]\nclass = CLASS_0", fillcolor="#a3e8f3"] ;
419 -> 420 ;
421 [label="Mud_1 <= 1.5\nentropy = 1.81\nsamples = 191\nvalue = [6, 15, 10, 33, 13, 114, 0, 0, 0, 0, 0]\nclass = CLASS_0", fillcolor="#99e6f2"] ;
420 -> 421 ;
422 [label="entropy = 2.1\nsamples = 76\nvalue = [5, 13, 4, 17, 3, 34, 0, 0, 0, 0, 0]\nclass = CLASS_0", fillcolor="#c6f1f8"] ;
421 -> 422 ;
423 [label="entropy = 1.45\nsamples = 115\nvalue = [1, 2, 6, 16, 10, 80, 0, 0, 0, 0, 0]\nclass = CLASS_0", fillcolor="#7fdfee"] ;
421 -> 423 ;
424 [label="Mud_2 <= 0.5\nentropy = 2.07\nsamples = 238\nvalue = [51, 7, 18, 23, 24, 115, 0, 0, 0, 0, 0]\nclass = CLASS_0", fillcolor="#bbeef6"] ;
420 -> 424 ;
425 [label="entropy = 1.88\nsamples = 79\nvalue = [19, 5, 0, 6, 9, 40, 0, 0, 0, 0, 0]\nclass = CLASS_0", fillcolor="#baeef6"] ;
424 -> 425 ;
426 [label="entropy = 2.08\nsamples = 159\nvalue = [32, 2, 18, 17, 15, 75, 0, 0, 0, 0, 0]\nclass = CLASS_0", fillcolor="#bceef6"] ;
424 -> 426 ;
427 [label="Speed_3 <= 0.5\nentropy = 1.71\nsamples = 143\nvalue = [1, 2, 9, 34, 17, 80, 0, 0, 0, 0, 0]\nclass = CLASS_0", fillcolor="#abeaf4"] ;
419 -> 427 ;
428 [label="entropy = 1.44\nsamples = 118\nvalue = [0, 2, 4, 31, 7, 74, 0, 0, 0, 0, 0]\nclass = CLASS_0", fillcolor="#9de7f2"] ;
427 -> 428 ;
429 [label="entropy = 2.04\nsamples = 25\nvalue = [1, 0, 5, 3, 10, 6, 0, 0, 0, 0, 0]\nclass = CLASS_1", fillcolor="#d5faea"] ;
427 -> 429 ;
430 [label="Speed_1 <= 0.5\nentropy = 1.9\nsamples = 2640\nvalue = [68, 117, 185, 497, 321, 1452, 0, 0, 0, 0, 0]\nclass = CLASS_0", fillcolor="#a7e9f3"] ;
402 -> 430 ;
431 [label="Y <= 0.5\nentropy = 1.85\nsamples = 2163\nvalue = [53, 102, 133, 405, 235, 1235, 0, 0, 0, 0, 0]\nclass = CLASS_0", fillcolor="#a2e8f3"] ;
430 -> 431 ;
432 [label="Mud_1 <= 1.5\nentropy = 1.41\nsamples = 330\nvalue = [1, 12, 9, 57, 23, 228, 0, 0, 0, 0, 0]\nclass = CLASS_0", fillcolor="#83e0ef"] ;
431 -> 432 ;
433 [label="entropy = 1.82\nsamples = 130\nvalue = [1, 12, 6, 27, 11, 73, 0, 0, 0, 0, 0]\nclass = CLASS_0", fillcolor="#a7e9f3"] ;
432 -> 433 ;
434 [label="entropy = 1.03\nsamples = 200\nvalue = [0, 0, 3, 30, 12, 155, 0, 0, 0, 0, 0]\nclass = CLASS_0", fillcolor="#6ddbec"] ;
432 -> 434 ;
435 [label="Move <= 1.5\nentropy = 1.91\nsamples = 1833\nvalue = [52, 90, 124, 348, 212, 1007, 0, 0, 0, 0, 0]\nclass = CLASS_0", fillcolor="#a7e9f3"] ;
431 -> 435 ;
436 [label="Y <= 1.5\nentropy = 1.79\nsamples = 1023\nvalue = [19, 47, 60, 222, 87, 588, 0, 0, 0, 0, 0]\nclass = CLASS_0", fillcolor="#a5e9f3"] ;
435 -> 436 ;
437 [label="Speed_0 <= 0.5\nentropy = 1.51\nsamples = 347\nvalue = [9, 23, 2, 99, 7, 207, 0, 0, 0, 0, 0]\nclass = CLASS_0", fillcolor="#a9eaf4"] ;
436 -> 437 ;
438 [label="Mud_0 <= 1.5\nentropy = 1.2\nsamples = 280\nvalue = [0, 13, 0, 87, 2, 178, 0, 0, 0, 0, 0]\nclass = CLASS_0", fillcolor="#a2e8f3"] ;
437 -> 438 ;
439 [label="entropy = 1.44\nsamples = 110\nvalue = [0, 13, 0, 37, 1, 59, 0, 0, 0, 0, 0]\nclass = CLASS_0", fillcolor="#c3f0f7"] ;
438 -> 439 ;
440 [label="entropy = 0.92\nsamples = 170\nvalue = [0, 0, 0, 50, 1, 119, 0, 0, 0, 0, 0]\nclass = CLASS_0", fillcolor="#8de3f0"] ;
438 -> 440 ;
441 [label="entropy = 2.2\nsamples = 67\nvalue = [9, 10, 2, 12, 5, 29, 0, 0, 0, 0, 0]\nclass = CLASS_0", fillcolor="#c2f0f7"] ;
437 -> 441 ;
442 [label="Y <= 2.5\nentropy = 1.84\nsamples = 676\nvalue = [10, 24, 58, 123, 80, 381, 0, 0, 0, 0, 0]\nclass = CLASS_0", fillcolor="#a3e8f3"] ;
436 -> 442 ;
443 [label="Mud_2 <= 3.5\nentropy = 1.79\nsamples = 434\nvalue = [3, 22, 36, 90, 35, 248, 0, 0, 0, 0, 0]\nclass = CLASS_0", fillcolor="#a4e8f3"] ;
442 -> 443 ;
444 [label="Mud_1 <= 1.5\nentropy = 1.81\nsamples = 342\nvalue = [3, 17, 36, 74, 21, 191, 0, 0, 0, 0, 0]\nclass = CLASS_0", fillcolor="#a9eaf4"] ;
443 -> 444 ;
445 [label="entropy = 2.1\nsamples = 140\nvalue = [3, 13, 17, 33, 11, 63, 0, 0, 0, 0, 0]\nclass = CLASS_0", fillcolor="#c7f1f8"] ;
444 -> 445 ;
446 [label="entropy = 1.53\nsamples = 202\nvalue = [0, 4, 19, 41, 10, 128, 0, 0, 0, 0, 0]\nclass = CLASS_0", fillcolor="#94e5f1"] ;
444 -> 446 ;
447 [label="entropy = 1.51\nsamples = 92\nvalue = [0, 5, 0, 16, 14, 57, 0, 0, 0, 0, 0]\nclass = CLASS_0", fillcolor="#94e5f1"] ;
443 -> 447 ;
448 [label="entropy = 1.84\nsamples = 242\nvalue = [7, 2, 22, 33, 45, 133, 0, 0, 0, 0, 0]\nclass = CLASS_0", fillcolor="#a7e9f3"] ;
442 -> 448 ;
449 [label="Speed_3 <= 0.5\nentropy = 2.03\nsamples = 810\nvalue = [33, 43, 64, 126, 125, 419, 0, 0, 0, 0, 0]\nclass = CLASS_0", fillcolor="#aaeaf4"] ;
435 -> 449 ;
450 [label="Y <= 1.5\nentropy = 1.93\nsamples = 640\nvalue = [19, 34, 45, 108, 80, 354, 0, 0, 0, 0, 0]\nclass = CLASS_0", fillcolor="#a3e8f3"] ;
449 -> 450 ;
451 [label="entropy = 1.98\nsamples = 393\nvalue = [19, 14, 35, 59, 54, 212, 0, 0, 0, 0, 0]\nclass = CLASS_0", fillcolor="#a4e9f3"] ;
450 -> 451 ;
452 [label="Mud_3 <= 0.5\nentropy = 1.74\nsamples = 247\nvalue = [0, 20, 10, 49, 26, 142, 0, 0, 0, 0, 0]\nclass = CLASS_0", fillcolor="#a2e8f3"] ;
450 -> 452 ;
453 [label="entropy = 1.82\nsamples = 27\nvalue = [0, 10, 3, 0, 4, 10, 0, 0, 0, 0, 0]\nclass = CLASS_4", fillcolor="#ffffff"] ;
452 -> 453 ;
454 [label="entropy = 1.62\nsamples = 220\nvalue = [0, 10, 7, 49, 22, 132, 0, 0, 0, 0, 0]\nclass = CLASS_0", fillcolor="#9fe7f2"] ;
452 -> 454 ;
455 [label="entropy = 2.26\nsamples = 170\nvalue = [14, 9, 19, 18, 45, 65, 0, 0, 0, 0, 0]\nclass = CLASS_0", fillcolor="#dff7fb"] ;
449 -> 455 ;
456 [label="Mud_3 <= 2.5\nentropy = 2.08\nsamples = 477\nvalue = [15, 15, 52, 92, 86, 217, 0, 0, 0, 0, 0]\nclass = CLASS_0", fillcolor="#bfeff7"] ;
430 -> 456 ;
457 [label="entropy = 2.15\nsamples = 318\nvalue = [7, 14, 35, 74, 62, 126, 0, 0, 0, 0, 0]\nclass = CLASS_0", fillcolor="#d5f5f9"] ;
456 -> 457 ;
458 [label="entropy = 1.84\nsamples = 159\nvalue = [8, 1, 17, 18, 24, 91, 0, 0, 0, 0, 0]\nclass = CLASS_0", fillcolor="#9de7f2"] ;
456 -> 458 ;
459 [label="Move <= 2.5\nentropy = 2.71\nsamples = 10449\nvalue = [669, 2271, 1874, 1261, 1411, 2121, 813, 29, 0, 0\n0]\nclass = CLASS_4", fillcolor="#fffefb"] ;
1 -> 459 ;
460 [label="Speed_2 <= 0.5\nentropy = 2.62\nsamples = 7564\nvalue = [472, 1689, 1164, 1043, 817, 1993, 376, 10, 0, 0, 0]\nclass = CLASS_0", fillcolor="#f5fcfe"] ;
459 -> 460 ;
461 [label="Mud_1 <= 2.5\nentropy = 2.59\nsamples = 6170\nvalue = [292, 1430, 927, 862, 627, 1695, 330, 7, 0, 0, 0]\nclass = CLASS_0", fillcolor="#f4fcfe"] ;
460 -> 461 ;
462 [label="Mud_2 <= 3.5\nentropy = 2.56\nsamples = 4247\nvalue = [215, 1069, 665, 628, 376, 1115, 173, 6, 0, 0, 0]\nclass = CLASS_0", fillcolor="#fcfeff"] ;
461 -> 462 ;
463 [label="Speed_1 <= 0.5\nentropy = 2.54\nsamples = 3675\nvalue = [194, 946, 588, 572, 313, 943, 113, 6, 0, 0, 0]\nclass = CLASS_4", fillcolor="#ffffff"] ;
462 -> 463 ;
464 [label="Move <= 0.5\nentropy = 2.5\nsamples = 3008\nvalue = [110, 792, 488, 476, 259, 786, 94, 3, 0, 0, 0]\nclass = CLASS_4", fillcolor="#fffffe"] ;
463 -> 464 ;
465 [label="Y <= 0.5\nentropy = 2.55\nsamples = 1318\nvalue = [71, 377, 232, 172, 124, 294, 47, 1, 0, 0, 0]\nclass = CLASS_4", fillcolor="#fdfcef"] ;
464 -> 465 ;
466 [label="Mud_0 <= 1.5\nentropy = 2.59\nsamples = 307\nvalue = [23, 85, 68, 15, 44, 54, 17, 1, 0, 0, 0]\nclass = CLASS_4", fillcolor="#fdfdf1"] ;
465 -> 466 ;
467 [label="Speed_0 <= 0.5\nentropy = 2.48\nsamples = 129\nvalue = [15, 47, 26, 12, 16, 8, 5, 0, 0, 0, 0]\nclass = CLASS_4", fillcolor="#faf8d7"] ;
466 -> 467 ;
468 [label="entropy = 2.35\nsamples = 100\nvalue = [4, 40, 23, 6, 14, 8, 5, 0, 0, 0, 0]\nclass = CLASS_4", fillcolor="#f9f7d3"] ;
467 -> 468 ;
469 [label="entropy = 2.1\nsamples = 29\nvalue = [11, 7, 3, 6, 2, 0, 0, 0, 0, 0, 0]\nclass = CLASS_5", fillcolor="#fae8db"] ;
467 -> 469 ;
470 [label="Mud_0 <= 3.5\nentropy = 2.5\nsamples = 178\nvalue = [8, 38, 42, 3, 28, 46, 12, 1, 0, 0, 0]\nclass = CLASS_0", fillcolor="#f9fefe"] ;
466 -> 470 ;
471 [label="entropy = 2.43\nsamples = 135\nvalue = [7, 32, 38, 3, 20, 29, 6, 0, 0, 0, 0]\nclass = CLASS_3", fillcolor="#f8fdf3"] ;
470 -> 471 ;
472 [label="Mud_2 <= 2.5\nentropy = 2.34\nsamples = 43\nvalue = [1, 6, 4, 0, 8, 17, 6, 1, 0, 0, 0]\nclass = CLASS_0", fillcolor="#ccf2f8"] ;
470 -> 472 ;
473 [label="entropy = 2.07\nsamples = 30\nvalue = [1, 5, 0, 0, 3, 14, 6, 1, 0, 0, 0]\nclass = CLASS_0", fillcolor="#bdeff6"] ;
472 -> 473 ;
474 [label="entropy = 1.83\nsamples = 13\nvalue = [0, 1, 4, 0, 5, 3, 0, 0, 0, 0, 0]\nclass = CLASS_1", fillcolor="#e9fcf4"] ;
472 -> 474 ;
475 [label="Y <= 2.5\nentropy = 2.5\nsamples = 1011\nvalue = [48, 292, 164, 157, 80, 240, 30, 0, 0, 0, 0]\nclass = CLASS_4", fillcolor="#fdfdf2"] ;
465 -> 475 ;
476 [label="Mud_2 <= 0.5\nentropy = 2.42\nsamples = 725\nvalue = [20, 203, 108, 124, 53, 200, 17, 0, 0, 0, 0]\nclass = CLASS_4", fillcolor="#fffffe"] ;
475 -> 476 ;
477 [label="entropy = 2.54\nsamples = 94\nvalue = [7, 35, 9, 15, 9, 12, 7, 0, 0, 0, 0]\nclass = CLASS_4", fillcolor="#f8f6cd"] ;
476 -> 477 ;
478 [label="Mud_3 <= 2.5\nentropy = 2.36\nsamples = 631\nvalue = [13, 168, 99, 109, 44, 188, 10, 0, 0, 0, 0]\nclass = CLASS_0", fillcolor="#f6fdfe"] ;
476 -> 478 ;
479 [label="Mud_2 <= 2.5\nentropy = 2.36\nsamples = 418\nvalue = [9, 114, 56, 92, 31, 111, 5, 0, 0, 0, 0]\nclass = CLASS_4", fillcolor="#fffffd"] ;
478 -> 479 ;
480 [label="entropy = 2.29\nsamples = 317\nvalue = [8, 90, 44, 75, 11, 85, 4, 0, 0, 0, 0]\nclass = CLASS_4", fillcolor="#fefefb"] ;
479 -> 480 ;
481 [label="Boosts <= 1.5\nentropy = 2.39\nsamples = 101\nvalue = [1, 24, 12, 17, 20, 26, 1, 0, 0, 0, 0]\nclass = CLASS_0", fillcolor="#fafefe"] ;
479 -> 481 ;
482 [label="entropy = 2.24\nsamples = 77\nvalue = [1, 18, 5, 16, 12, 25, 0, 0, 0, 0, 0]\nclass = CLASS_0", fillcolor="#e8f9fc"] ;
481 -> 482 ;
483 [label="entropy = 2.12\nsamples = 24\nvalue = [0, 6, 7, 1, 8, 1, 1, 0, 0, 0, 0]\nclass = CLASS_1", fillcolor="#f3fdf9"] ;
481 -> 483 ;
484 [label="entropy = 2.27\nsamples = 213\nvalue = [4, 54, 43, 17, 13, 77, 5, 0, 0, 0, 0]\nclass = CLASS_0", fillcolor="#e2f8fb"] ;
478 -> 484 ;
485 [label="Speed_3 <= 0.5\nentropy = 2.59\nsamples = 286\nvalue = [28, 89, 56, 33, 27, 40, 13, 0, 0, 0, 0]\nclass = CLASS_4", fillcolor="#fbfae3"] ;
475 -> 485 ;
486 [label="Mud_3 <= 3.5\nentropy = 2.54\nsamples = 240\nvalue = [13, 80, 48, 27, 25, 35, 12, 0, 0, 0, 0]\nclass = CLASS_4", fillcolor="#fbf9de"] ;
485 -> 486 ;
487 [label="entropy = 2.45\nsamples = 209\nvalue = [13, 78, 42, 22, 19, 28, 7, 0, 0, 0, 0]\nclass = CLASS_4", fillcolor="#f9f7d4"] ;
486 -> 487 ;
488 [label="entropy = 2.51\nsamples = 31\nvalue = [0, 2, 6, 5, 6, 7, 5, 0, 0, 0, 0]\nclass = CLASS_0", fillcolor="#f7fdfe"] ;
486 -> 488 ;
489 [label="entropy = 2.47\nsamples = 46\nvalue = [15, 9, 8, 6, 2, 5, 1, 0, 0, 0, 0]\nclass = CLASS_5", fillcolor="#fbebdf"] ;
485 -> 489 ;
490 [label="Mud_2 <= 1.5\nentropy = 2.45\nsamples = 1690\nvalue = [39, 415, 256, 304, 135, 492, 47, 2, 0, 0, 0]\nclass = CLASS_0", fillcolor="#f3fcfd"] ;
464 -> 490 ;
491 [label="Speed_3 <= 0.5\nentropy = 2.38\nsamples = 796\nvalue = [16, 232, 120, 155, 58, 202, 13, 0, 0, 0, 0]\nclass = CLASS_4", fillcolor="#fefdf5"] ;
490 -> 491 ;
492 [label="Mud_0 <= 0.5\nentropy = 2.36\nsamples = 663\nvalue = [8, 197, 94, 136, 54, 163, 11, 0, 0, 0, 0]\nclass = CLASS_4", fillcolor="#fdfdf2"] ;
491 -> 492 ;
493 [label="Mud_3 <= 0.5\nentropy = 2.48\nsamples = 89\nvalue = [3, 24, 6, 21, 16, 16, 3, 0, 0, 0, 0]\nclass = CLASS_4", fillcolor="#fefdf6"] ;
492 -> 493 ;
494 [label="entropy = 1.55\nsamples = 13\nvalue = [0, 2, 1, 0, 8, 2, 0, 0, 0, 0, 0]\nclass = CLASS_1", fillcolor="#93f1ca"] ;
493 -> 494 ;
495 [label="entropy = 2.45\nsamples = 76\nvalue = [3, 22, 5, 21, 8, 14, 3, 0, 0, 0, 0]\nclass = CLASS_4", fillcolor="#fffefb"] ;
493 -> 495 ;
496 [label="entropy = 2.31\nsamples = 574\nvalue = [5, 173, 88, 115, 38, 147, 8, 0, 0, 0, 0]\nclass = CLASS_4", fillcolor="#fdfdf3"] ;
492 -> 496 ;
497 [label="entropy = 2.37\nsamples = 133\nvalue = [8, 35, 26, 19, 4, 39, 2, 0, 0, 0, 0]\nclass = CLASS_0", fillcolor="#f7fdfe"] ;
491 -> 497 ;
498 [label="Boosts <= 2.5\nentropy = 2.48\nsamples = 894\nvalue = [23, 183, 136, 149, 77, 290, 34, 2, 0, 0, 0]\nclass = CLASS_0", fillcolor="#e1f8fb"] ;
490 -> 498 ;
499 [label="Mud_3 <= 1.5\nentropy = 2.47\nsamples = 865\nvalue = [23, 182, 130, 147, 72, 279, 31, 1, 0, 0, 0]\nclass = CLASS_0", fillcolor="#e3f8fb"] ;
498 -> 499 ;
500 [label="entropy = 2.48\nsamples = 305\nvalue = [12, 73, 47, 63, 22, 81, 6, 1, 0, 0, 0]\nclass = CLASS_0", fillcolor="#f8fdfe"] ;
499 -> 500 ;
501 [label="entropy = 2.43\nsamples = 560\nvalue = [11, 109, 83, 84, 50, 198, 25, 0, 0, 0, 0]\nclass = CLASS_0", fillcolor="#d8f5fa"] ;
499 -> 501 ;
502 [label="entropy = 2.38\nsamples = 29\nvalue = [0, 1, 6, 2, 5, 11, 3, 1, 0, 0, 0]\nclass = CLASS_0", fillcolor="#d4f4f9"] ;
498 -> 502 ;
503 [label="Boosts <= 1.5\nentropy = 2.64\nsamples = 667\nvalue = [84, 154, 100, 96, 54, 157, 19, 3, 0, 0, 0]\nclass = CLASS_0", fillcolor="#feffff"] ;
463 -> 503 ;
504 [label="Mud_3 <= 4.5\nentropy = 2.57\nsamples = 549\nvalue = [66, 131, 89, 74, 43, 135, 11, 0, 0, 0, 0]\nclass = CLASS_0", fillcolor="#fdffff"] ;
503 -> 504 ;
505 [label="entropy = 2.55\nsamples = 525\nvalue = [63, 131, 84, 69, 42, 128, 8, 0, 0, 0, 0]\nclass = CLASS_4", fillcolor="#fffffe"] ;
504 -> 505 ;
506 [label="entropy = 2.4\nsamples = 24\nvalue = [3, 0, 5, 5, 1, 7, 3, 0, 0, 0, 0]\nclass = CLASS_0", fillcolor="#eafafc"] ;
504 -> 506 ;
507 [label="Mud_1 <= 0.5\nentropy = 2.81\nsamples = 118\nvalue = [18, 23, 11, 22, 11, 22, 8, 3, 0, 0, 0]\nclass = CLASS_4", fillcolor="#fffffd"] ;
503 -> 507 ;
508 [label="entropy = 2.5\nsamples = 27\nvalue = [4, 3, 5, 9, 1, 0, 4, 1, 0, 0, 0]\nclass = CLASS_2", fillcolor="#dbfadc"] ;
507 -> 508 ;
509 [label="entropy = 2.72\nsamples = 91\nvalue = [14, 20, 6, 13, 10, 22, 4, 2, 0, 0, 0]\nclass = CLASS_0", fillcolor="#f9fefe"] ;
507 -> 509 ;
510 [label="Move <= 0.5\nentropy = 2.58\nsamples = 572\nvalue = [21, 123, 77, 56, 63, 172, 60, 0, 0, 0, 0]\nclass = CLASS_0", fillcolor="#e9fafc"] ;
462 -> 510 ;
511 [label="Y <= 1.5\nentropy = 2.63\nsamples = 254\nvalue = [12, 67, 41, 23, 27, 56, 28, 0, 0, 0, 0]\nclass = CLASS_4", fillcolor="#fefdf4"] ;
510 -> 511 ;
512 [label="entropy = 2.49\nsamples = 111\nvalue = [7, 40, 22, 9, 7, 18, 8, 0, 0, 0, 0]\nclass = CLASS_4", fillcolor="#faf8d7"] ;
511 -> 512 ;
513 [label="Y <= 2.5\nentropy = 2.64\nsamples = 143\nvalue = [5, 27, 19, 14, 20, 38, 20, 0, 0, 0, 0]\nclass = CLASS_0", fillcolor="#ecfafd"] ;
511 -> 513 ;
514 [label="entropy = 2.6\nsamples = 90\nvalue = [2, 13, 12, 10, 10, 23, 20, 0, 0, 0, 0]\nclass = CLASS_0", fillcolor="#f7fdfe"] ;
513 -> 514 ;
515 [label="entropy = 2.38\nsamples = 53\nvalue = [3, 14, 7, 4, 10, 15, 0, 0, 0, 0, 0]\nclass = CLASS_0", fillcolor="#fafefe"] ;
513 -> 515 ;
516 [label="Mud_1 <= 1.5\nentropy = 2.5\nsamples = 318\nvalue = [9, 56, 36, 33, 36, 116, 32, 0, 0, 0, 0]\nclass = CLASS_0", fillcolor="#d2f4f9"] ;
510 -> 516 ;
517 [label="entropy = 2.45\nsamples = 173\nvalue = [5, 40, 9, 20, 20, 61, 18, 0, 0, 0, 0]\nclass = CLASS_0", fillcolor="#e0f7fb"] ;
516 -> 517 ;
518 [label="entropy = 2.46\nsamples = 145\nvalue = [4, 16, 27, 13, 16, 55, 14, 0, 0, 0, 0]\nclass = CLASS_0", fillcolor="#d0f3f9"] ;
516 -> 518 ;
519 [label="Speed_3 <= 0.5\nentropy = 2.61\nsamples = 1923\nvalue = [77, 361, 262, 234, 251, 580, 157, 1, 0, 0, 0]\nclass = CLASS_0", fillcolor="#e3f8fb"] ;
461 -> 519 ;
520 [label="Mud_3 <= 2.5\nentropy = 2.56\nsamples = 1530\nvalue = [42, 300, 211, 180, 206, 474, 116, 1, 0, 0, 0]\nclass = CLASS_0", fillcolor="#e3f8fb"] ;
519 -> 520 ;
521 [label="Mud_2 <= 1.5\nentropy = 2.55\nsamples = 1029\nvalue = [30, 226, 152, 129, 116, 311, 64, 1, 0, 0, 0]\nclass = CLASS_0", fillcolor="#eafafc"] ;
520 -> 521 ;
522 [label="Mud_1 <= 5.5\nentropy = 2.59\nsamples = 424\nvalue = [19, 112, 63, 62, 47, 99, 22, 0, 0, 0, 0]\nclass = CLASS_4", fillcolor="#fefef7"] ;
521 -> 522 ;
523 [label="entropy = 2.57\nsamples = 412\nvalue = [18, 112, 63, 62, 44, 93, 20, 0, 0, 0, 0]\nclass = CLASS_4", fillcolor="#fdfdf3"] ;
522 -> 523 ;
524 [label="entropy = 1.73\nsamples = 12\nvalue = [1, 0, 0, 0, 3, 6, 2, 0, 0, 0, 0]\nclass = CLASS_0", fillcolor="#bdeff6"] ;
522 -> 524 ;
525 [label="entropy = 2.49\nsamples = 605\nvalue = [11, 114, 89, 67, 69, 212, 42, 1, 0, 0, 0]\nclass = CLASS_0", fillcolor="#d7f5fa"] ;
521 -> 525 ;
526 [label="entropy = 2.55\nsamples = 501\nvalue = [12, 74, 59, 51, 90, 163, 52, 0, 0, 0, 0]\nclass = CLASS_0", fillcolor="#dcf6fa"] ;
520 -> 526 ;
527 [label="entropy = 2.71\nsamples = 393\nvalue = [35, 61, 51, 54, 45, 106, 41, 0, 0, 0, 0]\nclass = CLASS_0", fillcolor="#e4f8fb"] ;
519 -> 527 ;
528 [label="Speed_3 <= 0.5\nentropy = 2.7\nsamples = 1394\nvalue = [180, 259, 237, 181, 190, 298, 46, 3, 0, 0, 0]\nclass = CLASS_0", fillcolor="#f8fdfe"] ;
460 -> 528 ;
529 [label="Move <= 0.5\nentropy = 2.68\nsamples = 1145\nvalue = [127, 210, 201, 152, 151, 261, 42, 1, 0, 0, 0]\nclass = CLASS_0", fillcolor="#f4fcfe"] ;
528 -> 529 ;
530 [label="entropy = 2.7\nsamples = 514\nvalue = [60, 105, 102, 53, 77, 94, 22, 1, 0, 0, 0]\nclass = CLASS_4", fillcolor="#fffffe"] ;
529 -> 530 ;
531 [label="Mud_1 <= 1.5\nentropy = 2.64\nsamples = 631\nvalue = [67, 105, 99, 99, 74, 167, 20, 0, 0, 0, 0]\nclass = CLASS_0", fillcolor="#e8f9fc"] ;
529 -> 531 ;
532 [label="Speed_1 <= 0.5\nentropy = 2.5\nsamples = 253\nvalue = [30, 47, 30, 48, 23, 74, 1, 0, 0, 0, 0]\nclass = CLASS_0", fillcolor="#e6f9fc"] ;
531 -> 532 ;
533 [label="entropy = 2.48\nsamples = 214\nvalue = [17, 45, 26, 41, 22, 62, 1, 0, 0, 0, 0]\nclass = CLASS_0", fillcolor="#ebfafc"] ;
532 -> 533 ;
534 [label="entropy = 2.19\nsamples = 39\nvalue = [13, 2, 4, 7, 1, 12, 0, 0, 0, 0, 0]\nclass = CLASS_5", fillcolor="#fefaf8"] ;
532 -> 534 ;
535 [label="Y <= 2.5\nentropy = 2.69\nsamples = 378\nvalue = [37, 58, 69, 51, 51, 93, 19, 0, 0, 0, 0]\nclass = CLASS_0", fillcolor="#f0fbfd"] ;
531 -> 535 ;
536 [label="Mud_3 <= 4.5\nentropy = 2.68\nsamples = 326\nvalue = [26, 49, 63, 51, 45, 75, 17, 0, 0, 0, 0]\nclass = CLASS_0", fillcolor="#f6fdfe"] ;
535 -> 536 ;
537 [label="Mud_0 <= 3.5\nentropy = 2.64\nsamples = 310\nvalue = [23, 49, 62, 50, 42, 73, 11, 0, 0, 0, 0]\nclass = CLASS_0", fillcolor="#f6fdfe"] ;
536 -> 537 ;
538 [label="entropy = 2.63\nsamples = 264\nvalue = [23, 45, 48, 44, 39, 59, 6, 0, 0, 0, 0]\nclass = CLASS_0", fillcolor="#f5fdfe"] ;
537 -> 538 ;
539 [label="entropy = 2.34\nsamples = 46\nvalue = [0, 4, 14, 6, 3, 14, 5, 0, 0, 0, 0]\nclass = CLASS_3", fillcolor="#ffffff"] ;
537 -> 539 ;
540 [label="entropy = 2.31\nsamples = 16\nvalue = [3, 0, 1, 1, 3, 2, 6, 0, 0, 0, 0]\nclass = CLASS_MINUS_1", fillcolor="#d1def9"] ;
536 -> 540 ;
541 [label="entropy = 2.34\nsamples = 52\nvalue = [11, 9, 6, 0, 6, 18, 2, 0, 0, 0, 0]\nclass = CLASS_0", fillcolor="#ddf7fb"] ;
535 -> 541 ;
542 [label="Mud_0 <= 1.5\nentropy = 2.68\nsamples = 249\nvalue = [53, 49, 36, 29, 39, 37, 4, 2, 0, 0, 0]\nclass = CLASS_5", fillcolor="#fefcfb"] ;
528 -> 542 ;
543 [label="entropy = 2.48\nsamples = 89\nvalue = [21, 28, 9, 8, 15, 6, 0, 2, 0, 0, 0]\nclass = CLASS_4", fillcolor="#fcfbeb"] ;
542 -> 543 ;
544 [label="Mud_2 <= 0.5\nentropy = 2.67\nsamples = 160\nvalue = [32, 21, 27, 21, 24, 31, 4, 0, 0, 0, 0]\nclass = CLASS_5", fillcolor="#fffefd"] ;
542 -> 544 ;
545 [label="entropy = 1.78\nsamples = 16\nvalue = [8, 2, 0, 3, 3, 0, 0, 0, 0, 0, 0]\nclass = CLASS_5", fillcolor="#f5cfb3"] ;
544 -> 545 ;
546 [label="entropy = 2.67\nsamples = 144\nvalue = [24, 19, 27, 18, 21, 31, 4, 0, 0, 0, 0]\nclass = CLASS_0", fillcolor="#f8fdfe"] ;
544 -> 546 ;
547 [label="Boosts <= 1.5\nentropy = 2.64\nsamples = 2885\nvalue = [197, 582, 710, 218, 594, 128, 437, 19, 0, 0, 0]\nclass = CLASS_3", fillcolor="#f9fef5"] ;
459 -> 547 ;
548 [label="Mud_1 <= 2.5\nentropy = 2.56\nsamples = 2341\nvalue = [162, 488, 550, 141, 531, 85, 384, 0, 0, 0, 0]\nclass = CLASS_3", fillcolor="#fefffd"] ;
547 -> 548 ;
549 [label="Speed_1 <= 0.5\nentropy = 2.53\nsamples = 1565\nvalue = [118, 364, 392, 91, 345, 44, 211, 0, 0, 0, 0]\nclass = CLASS_3", fillcolor="#fcfefa"] ;
548 -> 549 ;
550 [label="Mud_2 <= 2.5\nentropy = 2.47\nsamples = 1269\nvalue = [77, 292, 332, 71, 293, 26, 178, 0, 0, 0, 0]\nclass = CLASS_3", fillcolor="#fbfef7"] ;
549 -> 550 ;
551 [label="Speed_0 <= 0.5\nentropy = 2.46\nsamples = 856\nvalue = [62, 217, 231, 52, 185, 14, 95, 0, 0, 0, 0]\nclass = CLASS_3", fillcolor="#fdfefb"] ;
550 -> 551 ;
552 [label="Y <= 0.5\nentropy = 2.42\nsamples = 683\nvalue = [42, 172, 185, 33, 156, 10, 85, 0, 0, 0, 0]\nclass = CLASS_3", fillcolor="#fcfefa"] ;
551 -> 552 ;
553 [label="Mud_0 <= 3.5\nentropy = 2.34\nsamples = 141\nvalue = [3, 22, 42, 5, 39, 4, 26, 0, 0, 0, 0]\nclass = CLASS_3", fillcolor="#fcfef9"] ;
552 -> 553 ;
554 [label="entropy = 2.32\nsamples = 121\nvalue = [3, 22, 40, 4, 33, 4, 15, 0, 0, 0, 0]\nclass = CLASS_3", fillcolor="#f6fdef"] ;
553 -> 554 ;
555 [label="entropy = 1.54\nsamples = 20\nvalue = [0, 0, 2, 1, 6, 0, 11, 0, 0, 0, 0]\nclass = CLASS_MINUS_1", fillcolor="#b8ccf6"] ;
553 -> 555 ;
556 [label="entropy = 2.41\nsamples = 542\nvalue = [39, 150, 143, 28, 117, 6, 59, 0, 0, 0, 0]\nclass = CLASS_4", fillcolor="#fffefc"] ;
552 -> 556 ;
557 [label="entropy = 2.52\nsamples = 173\nvalue = [20, 45, 46, 19, 29, 4, 10, 0, 0, 0, 0]\nclass = CLASS_3", fillcolor="#fefffd"] ;
551 -> 557 ;
558 [label="Speed_2 <= 0.5\nentropy = 2.44\nsamples = 413\nvalue = [15, 75, 101, 19, 108, 12, 83, 0, 0, 0, 0]\nclass = CLASS_1", fillcolor="#fbfefd"] ;
550 -> 558 ;
559 [label="Mud_3 <= 2.5\nentropy = 2.34\nsamples = 356\nvalue = [11, 65, 90, 10, 101, 7, 72, 0, 0, 0, 0]\nclass = CLASS_1", fillcolor="#f7fefb"] ;
558 -> 559 ;
560 [label="entropy = 2.3\nsamples = 254\nvalue = [10, 54, 72, 5, 69, 3, 41, 0, 0, 0, 0]\nclass = CLASS_3", fillcolor="#fdfffc"] ;
559 -> 560 ;
561 [label="entropy = 2.3\nsamples = 102\nvalue = [1, 11, 18, 5, 32, 4, 31, 0, 0, 0, 0]\nclass = CLASS_1", fillcolor="#fcfffe"] ;
559 -> 561 ;
562 [label="entropy = 2.73\nsamples = 57\nvalue = [4, 10, 11, 9, 7, 5, 11, 0, 0, 0, 0]\nclass = CLASS_3", fillcolor="#ffffff"] ;
558 -> 562 ;
563 [label="Speed_1 <= 1.5\nentropy = 2.66\nsamples = 296\nvalue = [41, 72, 60, 20, 52, 18, 33, 0, 0, 0, 0]\nclass = CLASS_4", fillcolor="#fefdf5"] ;
549 -> 563 ;
564 [label="entropy = 2.65\nsamples = 269\nvalue = [29, 68, 55, 18, 50, 18, 31, 0, 0, 0, 0]\nclass = CLASS_4", fillcolor="#fdfdf3"] ;
563 -> 564 ;
565 [label="Mud_0 <= 2.5\nentropy = 2.21\nsamples = 27\nvalue = [12, 4, 5, 2, 2, 0, 2, 0, 0, 0, 0]\nclass = CLASS_5", fillcolor="#f7d7c0"] ;
563 -> 565 ;
566 [label="entropy = 1.26\nsamples = 17\nvalue = [11, 0, 4, 2, 0, 0, 0, 0, 0, 0, 0]\nclass = CLASS_5", fillcolor="#f1bb94"] ;
565 -> 566 ;
567 [label="entropy = 2.12\nsamples = 10\nvalue = [1, 4, 1, 0, 2, 0, 2, 0, 0, 0, 0]\nclass = CLASS_4", fillcolor="#f8f6ce"] ;
565 -> 567 ;
568 [label="Y <= 1.5\nentropy = 2.58\nsamples = 776\nvalue = [44, 124, 158, 50, 186, 41, 173, 0, 0, 0, 0]\nclass = CLASS_1", fillcolor="#fbfefd"] ;
548 -> 568 ;
569 [label="Speed_1 <= 0.5\nentropy = 2.47\nsamples = 401\nvalue = [17, 44, 71, 22, 108, 21, 118, 0, 0, 0, 0]\nclass = CLASS_MINUS_1", fillcolor="#f8fafe"] ;
568 -> 569 ;
570 [label="Y <= 0.5\nentropy = 2.3\nsamples = 331\nvalue = [8, 32, 61, 9, 98, 15, 108, 0, 0, 0, 0]\nclass = CLASS_MINUS_1", fillcolor="#f7f9fe"] ;
569 -> 570 ;
571 [label="Speed_0 <= 0.5\nentropy = 2.33\nsamples = 155\nvalue = [7, 19, 39, 3, 46, 4, 37, 0, 0, 0, 0]\nclass = CLASS_1", fillcolor="#f3fdf9"] ;
570 -> 571 ;
572 [label="entropy = 2.05\nsamples = 132\nvalue = [2, 15, 36, 1, 44, 0, 34, 0, 0, 0, 0]\nclass = CLASS_1", fillcolor="#eefdf7"] ;
571 -> 572 ;
573 [label="entropy = 2.74\nsamples = 23\nvalue = [5, 4, 3, 2, 2, 4, 3, 0, 0, 0, 0]\nclass = CLASS_5", fillcolor="#fef8f5"] ;
571 -> 573 ;
574 [label="Speed_2 <= 1.5\nentropy = 2.16\nsamples = 176\nvalue = [1, 13, 22, 6, 52, 11, 71, 0, 0, 0, 0]\nclass = CLASS_MINUS_1", fillcolor="#e1e9fb"] ;
570 -> 574 ;
575 [label="entropy = 2.09\nsamples = 170\nvalue = [1, 11, 22, 6, 52, 7, 71, 0, 0, 0, 0]\nclass = CLASS_MINUS_1", fillcolor="#dfe8fb"] ;
574 -> 575 ;
576 [label="entropy = 0.92\nsamples = 6\nvalue = [0, 2, 0, 0, 0, 4, 0, 0, 0, 0, 0]\nclass = CLASS_0", fillcolor="#9ce6f2"] ;
574 -> 576 ;
577 [label="entropy = 2.77\nsamples = 70\nvalue = [9, 12, 10, 13, 10, 6, 10, 0, 0, 0, 0]\nclass = CLASS_2", fillcolor="#fcfffc"] ;
569 -> 577 ;
578 [label="Speed_2 <= 0.5\nentropy = 2.62\nsamples = 375\nvalue = [27, 80, 87, 28, 78, 20, 55, 0, 0, 0, 0]\nclass = CLASS_3", fillcolor="#fcfefa"] ;
568 -> 578 ;
579 [label="Speed_3 <= 0.5\nentropy = 2.54\nsamples = 299\nvalue = [16, 55, 78, 18, 70, 13, 49, 0, 0, 0, 0]\nclass = CLASS_3", fillcolor="#fbfef8"] ;
578 -> 579 ;
580 [label="entropy = 2.38\nsamples = 239\nvalue = [10, 45, 66, 6, 63, 6, 43, 0, 0, 0, 0]\nclass = CLASS_3", fillcolor="#fdfffc"] ;
579 -> 580 ;
581 [label="entropy = 2.75\nsamples = 60\nvalue = [6, 10, 12, 12, 7, 7, 6, 0, 0, 0, 0]\nclass = CLASS_3", fillcolor="#ffffff"] ;
579 -> 581 ;
582 [label="Mud_2 <= 0.5\nentropy = 2.63\nsamples = 76\nvalue = [11, 25, 9, 10, 8, 7, 6, 0, 0, 0, 0]\nclass = CLASS_4", fillcolor="#f9f7d4"] ;
578 -> 582 ;
583 [label="entropy = 1.55\nsamples = 12\nvalue = [5, 0, 3, 0, 4, 0, 0, 0, 0, 0, 0]\nclass = CLASS_5", fillcolor="#fcefe6"] ;
582 -> 583 ;
584 [label="entropy = 2.51\nsamples = 64\nvalue = [6, 25, 6, 10, 4, 7, 6, 0, 0, 0, 0]\nclass = CLASS_4", fillcolor="#f8f5c8"] ;
582 -> 584 ;
585 [label="Speed_2 <= 0.5\nentropy = 2.76\nsamples = 544\nvalue = [35, 94, 160, 77, 63, 43, 53, 19, 0, 0, 0]\nclass = CLASS_3", fillcolor="#effbe2"] ;
547 -> 585 ;
586 [label="entropy = 2.71\nsamples = 446\nvalue = [20, 75, 139, 59, 52, 38, 50, 13, 0, 0, 0]\nclass = CLASS_3", fillcolor="#ecfbdd"] ;
585 -> 586 ;
587 [label="entropy = 2.77\nsamples = 98\nvalue = [15, 19, 21, 18, 11, 5, 3, 6, 0, 0, 0]\nclass = CLASS_3", fillcolor="#fcfefa"] ;
585 -> 587 ;
588 [label="Speed <= 7.0\nentropy = 2.84\nsamples = 82420\nvalue = [617, 684, 630, 3532, 12154, 19259, 5185, 1827, 8024\n19039, 11469]\nclass = CLASS_0", fillcolor="#feffff"] ;
0 -> 588 [labeldistance=2.5, labelangle=-45, headlabel="False"] ;
589 [label="Boosts <= 0.5\nentropy = 2.43\nsamples = 43370\nvalue = [313, 378, 512, 2969, 8685, 12292, 1336, 199, 1631\n14319, 736]\nclass = CLASS_MINUS_4", fillcolor="#fdf2fa"] ;
588 -> 589 ;
590 [label="Speed <= 5.5\nentropy = 2.15\nsamples = 33654\nvalue = [182, 40, 386, 2410, 6516, 9777, 133, 84, 1393, 12733\n0]\nclass = CLASS_MINUS_4", fillcolor="#fce6f5"] ;
589 -> 590 ;
591 [label="Mud_0 <= 0.5\nentropy = 0.53\nsamples = 592\nvalue = [0, 0, 0, 5, 529, 0, 0, 0, 58, 0, 0]\nclass = CLASS_1", fillcolor="#50e8a9"] ;
590 -> 591 ;
592 [label="entropy = 0.07\nsamples = 110\nvalue = [0, 0, 0, 1, 109, 0, 0, 0, 0, 0, 0]\nclass = CLASS_1", fillcolor="#3be59e"] ;
591 -> 592 ;
593 [label="entropy = 0.6\nsamples = 482\nvalue = [0, 0, 0, 4, 420, 0, 0, 0, 58, 0, 0]\nclass = CLASS_1", fillcolor="#56e9ab"] ;
591 -> 593 ;
594 [label="Mud_1 <= 1.5\nentropy = 2.14\nsamples = 33062\nvalue = [182, 40, 386, 2405, 5987, 9777, 133, 84, 1335, 12733\n0]\nclass = CLASS_MINUS_4", fillcolor="#fce6f5"] ;
590 -> 594 ;
595 [label="Speed_2 <= 0.5\nentropy = 2.23\nsamples = 12992\nvalue = [76, 20, 209, 1243, 3100, 4001, 52, 32, 415, 3844\n0]\nclass = CLASS_0", fillcolor="#fcfeff"] ;
594 -> 595 ;
596 [label="Move <= 0.5\nentropy = 2.13\nsamples = 10656\nvalue = [45, 10, 132, 908, 2514, 3456, 41, 5, 241, 3304, 0]\nclass = CLASS_0", fillcolor="#fbfefe"] ;
595 -> 596 ;
597 [label="Mud_2 <= 2.5\nentropy = 2.22\nsamples = 4809\nvalue = [28, 6, 94, 582, 1257, 1555, 27, 4, 88, 1168, 0]\nclass = CLASS_0", fillcolor="#eefbfd"] ;
596 -> 597 ;
598 [label="Mud_3 <= 1.5\nentropy = 2.23\nsamples = 3214\nvalue = [22, 3, 70, 445, 945, 1035, 21, 2, 56, 615, 0]\nclass = CLASS_0", fillcolor="#f7fdfe"] ;
597 -> 598 ;
599 [label="Mud_0 <= 2.5\nentropy = 2.21\nsamples = 1324\nvalue = [11, 3, 38, 224, 418, 446, 8, 1, 15, 160, 0]\nclass = CLASS_0", fillcolor="#f9fdfe"] ;
598 -> 599 ;
600 [label="Mud_2 <= 0.5\nentropy = 2.16\nsamples = 894\nvalue = [6, 3, 29, 174, 295, 297, 6, 0, 6, 78, 0]\nclass = CLASS_0", fillcolor="#feffff"] ;
599 -> 600 ;
601 [label="entropy = 1.98\nsamples = 151\nvalue = [3, 0, 4, 47, 51, 41, 0, 0, 0, 5, 0]\nclass = CLASS_1", fillcolor="#f7fefb"] ;
600 -> 601 ;
602 [label="Speed_1 <= 0.5\nentropy = 2.16\nsamples = 743\nvalue = [3, 3, 25, 127, 244, 256, 6, 0, 6, 73, 0]\nclass = CLASS_0", fillcolor="#fafefe"] ;
600 -> 602 ;
603 [label="Mud_0 <= 1.5\nentropy = 2.06\nsamples = 615\nvalue = [0, 2, 14, 101, 210, 218, 5, 0, 2, 63, 0]\nclass = CLASS_0", fillcolor="#fbfefe"] ;
602 -> 603 ;
604 [label="entropy = 2.05\nsamples = 386\nvalue = [0, 2, 14, 67, 139, 132, 4, 0, 0, 28, 0]\nclass = CLASS_1", fillcolor="#fafefc"] ;
603 -> 604 ;
605 [label="entropy = 1.97\nsamples = 229\nvalue = [0, 0, 0, 34, 71, 86, 1, 0, 2, 35, 0]\nclass = CLASS_0", fillcolor="#ecfafd"] ;
603 -> 605 ;
606 [label="Y <= 1.5\nentropy = 2.48\nsamples = 128\nvalue = [3, 1, 11, 26, 34, 38, 1, 0, 4, 10, 0]\nclass = CLASS_0", fillcolor="#f7fdfe"] ;
602 -> 606 ;
607 [label="entropy = 2.24\nsamples = 50\nvalue = [3, 0, 6, 12, 16, 12, 0, 0, 0, 1, 0]\nclass = CLASS_1", fillcolor="#eafcf5"] ;
606 -> 607 ;
608 [label="entropy = 2.46\nsamples = 78\nvalue = [0, 1, 5, 14, 18, 26, 1, 0, 4, 9, 0]\nclass = CLASS_0", fillcolor="#e5f8fc"] ;
606 -> 608 ;
609 [label="Y <= 0.5\nentropy = 2.23\nsamples = 430\nvalue = [5, 0, 9, 50, 123, 149, 2, 1, 9, 82, 0]\nclass = CLASS_0", fillcolor="#eefbfd"] ;
599 -> 609 ;
610 [label="Speed_0 <= 0.5\nentropy = 1.9\nsamples = 83\nvalue = [2, 0, 0, 2, 9, 23, 0, 0, 6, 41, 0]\nclass = CLASS_MINUS_4", fillcolor="#f7c4e7"] ;
609 -> 610 ;
611 [label="entropy = 1.34\nsamples = 62\nvalue = [0, 0, 0, 1, 4, 21, 0, 0, 0, 36, 0]\nclass = CLASS_MINUS_4", fillcolor="#f5b7e1"] ;
610 -> 611 ;
612 [label="entropy = 2.36\nsamples = 21\nvalue = [2, 0, 0, 1, 5, 2, 0, 0, 6, 5, 0]\nclass = CLASS_MINUS_3", fillcolor="#fbf3fd"] ;
610 -> 612 ;
613 [label="Speed_3 <= 1.5\nentropy = 2.14\nsamples = 347\nvalue = [3, 0, 9, 48, 114, 126, 2, 1, 3, 41, 0]\nclass = CLASS_0", fillcolor="#f5fcfe"] ;
609 -> 613 ;
614 [label="Speed_3 <= 0.5\nentropy = 2.08\nsamples = 342\nvalue = [3, 0, 6, 48, 114, 126, 2, 0, 3, 40, 0]\nclass = CLASS_0", fillcolor="#f5fcfe"] ;
613 -> 614 ;
615 [label="entropy = 1.99\nsamples = 275\nvalue = [0, 0, 6, 38, 87, 109, 0, 0, 2, 33, 0]\nclass = CLASS_0", fillcolor="#e8f9fc"] ;
614 -> 615 ;
616 [label="entropy = 2.22\nsamples = 67\nvalue = [3, 0, 0, 10, 27, 17, 2, 0, 1, 7, 0]\nclass = CLASS_1", fillcolor="#d7faeb"] ;
614 -> 616 ;
617 [label="entropy = 1.37\nsamples = 5\nvalue = [0, 0, 3, 0, 0, 0, 0, 1, 0, 1, 0]\nclass = CLASS_3", fillcolor="#c7f29c"] ;
613 -> 617 ;
618 [label="Y <= 2.5\nentropy = 2.21\nsamples = 1890\nvalue = [11, 0, 32, 221, 527, 589, 13, 1, 41, 455, 0]\nclass = CLASS_0", fillcolor="#f6fdfe"] ;
598 -> 618 ;
619 [label="Mud_0 <= 2.5\nentropy = 2.21\nsamples = 1401\nvalue = [8, 0, 30, 199, 447, 420, 6, 1, 26, 264, 0]\nclass = CLASS_1", fillcolor="#fafefc"] ;
618 -> 619 ;
620 [label="Speed_1 <= 0.5\nentropy = 2.17\nsamples = 951\nvalue = [4, 0, 23, 158, 331, 280, 4, 0, 14, 137, 0]\nclass = CLASS_1", fillcolor="#f0fdf8"] ;
619 -> 620 ;
621 [label="Mud_2 <= 0.5\nentropy = 2.06\nsamples = 759\nvalue = [1, 0, 11, 119, 268, 234, 1, 0, 6, 119, 0]\nclass = CLASS_1", fillcolor="#f2fdf9"] ;
620 -> 621 ;
622 [label="entropy = 1.99\nsamples = 138\nvalue = [1, 0, 2, 36, 56, 28, 0, 0, 0, 15, 0]\nclass = CLASS_1", fillcolor="#d8faec"] ;
621 -> 622 ;
623 [label="entropy = 2.05\nsamples = 621\nvalue = [0, 0, 9, 83, 212, 206, 1, 0, 6, 104, 0]\nclass = CLASS_1", fillcolor="#fcfffe"] ;
621 -> 623 ;
624 [label="entropy = 2.44\nsamples = 192\nvalue = [3, 0, 12, 39, 63, 46, 3, 0, 8, 18, 0]\nclass = CLASS_1", fillcolor="#e8fcf4"] ;
620 -> 624 ;
625 [label="Y <= 0.5\nentropy = 2.21\nsamples = 450\nvalue = [4, 0, 7, 41, 116, 140, 2, 1, 12, 127, 0]\nclass = CLASS_0", fillcolor="#f7fdfe"] ;
619 -> 625 ;
626 [label="Speed_0 <= 0.5\nentropy = 1.9\nsamples = 126\nvalue = [0, 0, 1, 3, 21, 40, 1, 0, 5, 55, 0]\nclass = CLASS_MINUS_4", fillcolor="#fadcf1"] ;
625 -> 626 ;
627 [label="entropy = 1.67\nsamples = 104\nvalue = [0, 0, 1, 2, 12, 35, 0, 0, 2, 52, 0]\nclass = CLASS_MINUS_4", fillcolor="#f9ceeb"] ;
626 -> 627 ;
628 [label="entropy = 2.2\nsamples = 22\nvalue = [0, 0, 0, 1, 9, 5, 1, 0, 3, 3, 0]\nclass = CLASS_1", fillcolor="#d0f9e8"] ;
626 -> 628 ;
629 [label="Speed_1 <= 0.5\nentropy = 2.24\nsamples = 324\nvalue = [4, 0, 6, 38, 95, 100, 1, 1, 7, 72, 0]\nclass = CLASS_0", fillcolor="#fbfefe"] ;
625 -> 629 ;
630 [label="Y <= 1.5\nentropy = 2.11\nsamples = 261\nvalue = [1, 0, 5, 26, 78, 88, 1, 0, 3, 59, 0]\nclass = CLASS_0", fillcolor="#f4fcfe"] ;
629 -> 630 ;
631 [label="entropy = 2.13\nsamples = 147\nvalue = [0, 0, 4, 13, 38, 43, 1, 0, 2, 46, 0]\nclass = CLASS_MINUS_4", fillcolor="#fef9fd"] ;
630 -> 631 ;
632 [label="entropy = 1.95\nsamples = 114\nvalue = [1, 0, 1, 13, 40, 45, 0, 0, 1, 13, 0]\nclass = CLASS_0", fillcolor="#f2fcfd"] ;
630 -> 632 ;
633 [label="entropy = 2.54\nsamples = 63\nvalue = [3, 0, 1, 12, 17, 12, 0, 1, 4, 13, 0]\nclass = CLASS_1", fillcolor="#effdf7"] ;
629 -> 633 ;
634 [label="Speed_3 <= 0.5\nentropy = 2.01\nsamples = 489\nvalue = [3, 0, 2, 22, 80, 169, 7, 0, 15, 191, 0]\nclass = CLASS_MINUS_4", fillcolor="#fdf1f9"] ;
618 -> 634 ;
635 [label="Mud_3 <= 2.5\nentropy = 1.69\nsamples = 408\nvalue = [0, 0, 1, 4, 66, 157, 6, 0, 2, 172, 0]\nclass = CLASS_MINUS_4", fillcolor="#fdf3fa"] ;
634 -> 635 ;
636 [label="entropy = 1.81\nsamples = 187\nvalue = [0, 0, 1, 2, 55, 72, 3, 0, 1, 53, 0]\nclass = CLASS_0", fillcolor="#e6f9fc"] ;
635 -> 636 ;
637 [label="entropy = 1.41\nsamples = 221\nvalue = [0, 0, 0, 2, 11, 85, 3, 0, 1, 119, 0]\nclass = CLASS_MINUS_4", fillcolor="#f8ceeb"] ;
635 -> 637 ;
638 [label="entropy = 2.58\nsamples = 81\nvalue = [3, 0, 1, 18, 14, 12, 1, 0, 13, 19, 0]\nclass = CLASS_MINUS_4", fillcolor="#fffcfe"] ;
634 -> 638 ;
639 [label="Y <= 1.5\nentropy = 2.12\nsamples = 1595\nvalue = [6, 3, 24, 137, 312, 520, 6, 2, 32, 553, 0]\nclass = CLASS_MINUS_4", fillcolor="#fef9fd"] ;
597 -> 639 ;
640 [label="Speed_1 <= 0.5\nentropy = 2.22\nsamples = 810\nvalue = [2, 3, 17, 90, 203, 252, 4, 2, 14, 223, 0]\nclass = CLASS_0", fillcolor="#f5fdfe"] ;
639 -> 640 ;
641 [label="Mud_0 <= 2.5\nentropy = 2.06\nsamples = 657\nvalue = [1, 1, 5, 74, 152, 228, 3, 0, 5, 188, 0]\nclass = CLASS_0", fillcolor="#eefbfd"] ;
640 -> 641 ;
642 [label="entropy = 2.09\nsamples = 447\nvalue = [1, 0, 4, 61, 120, 151, 3, 0, 2, 105, 0]\nclass = CLASS_0", fillcolor="#ecfafd"] ;
641 -> 642 ;
643 [label="Speed_0 <= 0.5\nentropy = 1.88\nsamples = 210\nvalue = [0, 1, 1, 13, 32, 77, 0, 0, 3, 83, 0]\nclass = CLASS_MINUS_4", fillcolor="#fef6fb"] ;
641 -> 643 ;
644 [label="Y <= 0.5\nentropy = 1.73\nsamples = 172\nvalue = [0, 0, 1, 9, 25, 71, 0, 0, 0, 66, 0]\nclass = CLASS_0", fillcolor="#f6fdfe"] ;
643 -> 644 ;
645 [label="entropy = 1.22\nsamples = 57\nvalue = [0, 0, 0, 0, 3, 22, 0, 0, 0, 32, 0]\nclass = CLASS_MINUS_4", fillcolor="#f8c6e8"] ;
644 -> 645 ;
646 [label="entropy = 1.85\nsamples = 115\nvalue = [0, 0, 1, 9, 22, 49, 0, 0, 0, 34, 0]\nclass = CLASS_0", fillcolor="#daf6fa"] ;
644 -> 646 ;
647 [label="entropy = 2.16\nsamples = 38\nvalue = [0, 1, 0, 4, 7, 6, 0, 0, 3, 17, 0]\nclass = CLASS_MINUS_4", fillcolor="#f7bfe5"] ;
643 -> 647 ;
648 [label="Y <= 0.5\nentropy = 2.56\nsamples = 153\nvalue = [1, 2, 12, 16, 51, 24, 1, 2, 9, 35, 0]\nclass = CLASS_1", fillcolor="#e4fbf2"] ;
640 -> 648 ;
649 [label="entropy = 2.21\nsamples = 57\nvalue = [0, 1, 0, 5, 25, 12, 0, 1, 5, 8, 0]\nclass = CLASS_1", fillcolor="#c6f7e3"] ;
648 -> 649 ;
650 [label="entropy = 2.6\nsamples = 96\nvalue = [1, 1, 12, 11, 26, 12, 1, 1, 4, 27, 0]\nclass = CLASS_MINUS_4", fillcolor="#fffcfe"] ;
648 -> 650 ;
651 [label="Mud_3 <= 1.5\nentropy = 1.94\nsamples = 785\nvalue = [4, 0, 7, 47, 109, 268, 2, 0, 18, 330, 0]\nclass = CLASS_MINUS_4", fillcolor="#fce7f5"] ;
639 -> 651 ;
652 [label="Y <= 2.5\nentropy = 2.13\nsamples = 321\nvalue = [3, 0, 6, 39, 50, 125, 0, 0, 8, 90, 0]\nclass = CLASS_0", fillcolor="#e1f8fb"] ;
651 -> 652 ;
653 [label="entropy = 1.75\nsamples = 153\nvalue = [1, 0, 1, 7, 15, 74, 0, 0, 2, 53, 0]\nclass = CLASS_0", fillcolor="#d5f5fa"] ;
652 -> 653 ;
654 [label="Speed_3 <= 0.5\nentropy = 2.33\nsamples = 168\nvalue = [2, 0, 5, 32, 35, 51, 0, 0, 6, 37, 0]\nclass = CLASS_0", fillcolor="#eafafc"] ;
652 -> 654 ;
