digraph Tree {
node [shape=box, style="filled, rounded", color="black", fontname=helvetica] ;
edge [fontname=helvetica] ;
0 [label="Speed <= 12.0\nentropy = 2.01\nsamples = 104639\nvalue = [6127, 12142, 47954, 20234, 18182]\nclass = OK", fillcolor="#bef6ec"] ;
1 [label="Move <= 2.5\nentropy = 1.83\nsamples = 88500\nvalue = [6127, 12142, 46249, 20234, 3748]\nclass = OK", fillcolor="#b4f5e9"] ;
0 -> 1 [labeldistance=2.5, labelangle=45, headlabel="True"] ;
2 [label="Speed <= 7.0\nentropy = 1.4\nsamples = 65859\nvalue = [93, 4618, 42426, 15464, 3258]\nclass = OK", fillcolor="#95f1e0"] ;
1 -> 2 ;
3 [label="Speed <= 4.0\nentropy = 1.61\nsamples = 11714\nvalue = [92, 1642, 4985, 4771, 224]\nclass = OK", fillcolor="#f9fefd"] ;
2 -> 3 ;
4 [label="Move <= 0.5\nentropy = 1.68\nsamples = 1100\nvalue = [92, 563, 131, 314, 0]\nclass = GOOD", fillcolor="#d5f7c0"] ;
3 -> 4 ;
5 [label="Boosts <= 0.5\nentropy = 1.52\nsamples = 954\nvalue = [47, 547, 95, 265, 0]\nclass = GOOD", fillcolor="#c9f4ae"] ;
4 -> 5 ;
6 [label="Mud_1 <= 0.5\nentropy = 1.4\nsamples = 827\nvalue = [46, 529, 58, 194, 0]\nclass = GOOD", fillcolor="#b9f196"] ;
5 -> 6 ;
7 [label="Speed_1 <= 0.5\nentropy = 1.58\nsamples = 118\nvalue = [18, 72, 13, 15, 0]\nclass = GOOD", fillcolor="#b8f194"] ;
6 -> 7 ;
8 [label="Y <= 1.5\nentropy = 1.42\nsamples = 90\nvalue = [6, 60, 13, 11, 0]\nclass = GOOD", fillcolor="#aeef86"] ;
7 -> 8 ;
9 [label="entropy = 0.87\nsamples = 43\nvalue = [2, 36, 1, 4, 0]\nclass = GOOD", fillcolor="#93ea5d"] ;
8 -> 9 ;
10 [label="entropy = 1.71\nsamples = 47\nvalue = [4, 24, 12, 7, 0]\nclass = GOOD", fillcolor="#d2f6bb"] ;
8 -> 10 ;
11 [label="entropy = 1.45\nsamples = 28\nvalue = [12, 12, 0, 4, 0]\nclass = GREAT", fillcolor="#ffffff"] ;
7 -> 11 ;
12 [label="Mud_2 <= 2.5\nentropy = 1.35\nsamples = 709\nvalue = [28, 457, 45, 179, 0]\nclass = GOOD", fillcolor="#baf197"] ;
6 -> 12 ;
13 [label="entropy = 1.33\nsamples = 472\nvalue = [27, 318, 28, 99, 0]\nclass = GOOD", fillcolor="#b1f08b"] ;
12 -> 13 ;
14 [label="Speed_2 <= 0.5\nentropy = 1.29\nsamples = 237\nvalue = [1, 139, 17, 80, 0]\nclass = GOOD", fillcolor="#cdf5b5"] ;
12 -> 14 ;
15 [label="Mud_1 <= 2.5\nentropy = 1.2\nsamples = 198\nvalue = [1, 130, 12, 55, 0]\nclass = GOOD", fillcolor="#baf197"] ;
14 -> 15 ;
16 [label="entropy = 0.92\nsamples = 121\nvalue = [0, 93, 4, 24, 0]\nclass = GOOD", fillcolor="#a1ed72"] ;
15 -> 16 ;
17 [label="entropy = 1.46\nsamples = 77\nvalue = [1, 37, 8, 31, 0]\nclass = GOOD", fillcolor="#eefce5"] ;
15 -> 17 ;
18 [label="entropy = 1.28\nsamples = 39\nvalue = [0, 9, 5, 25, 0]\nclass = BAD", fillcolor="#9795f1"] ;
14 -> 18 ;
19 [label="Boosts <= 1.5\nentropy = 1.44\nsamples = 127\nvalue = [1, 18, 37, 71, 0]\nclass = BAD", fillcolor="#b5b4f5"] ;
5 -> 19 ;
20 [label="entropy = 1.09\nsamples = 92\nvalue = [1, 2, 27, 62, 0]\nclass = BAD", fillcolor="#9694f1"] ;
19 -> 20 ;
21 [label="Mud_0 <= 1.5\nentropy = 1.54\nsamples = 35\nvalue = [0, 16, 10, 9, 0]\nclass = GOOD", fillcolor="#dff9cf"] ;
19 -> 21 ;
22 [label="entropy = 0.57\nsamples = 15\nvalue = [0, 13, 0, 2, 0]\nclass = GOOD", fillcolor="#8fe957"] ;
21 -> 22 ;
23 [label="entropy = 1.44\nsamples = 20\nvalue = [0, 3, 10, 7, 0]\nclass = OK", fillcolor="#d1f9f2"] ;
21 -> 23 ;
24 [label="Boosts <= 0.5\nentropy = 1.9\nsamples = 146\nvalue = [45, 16, 36, 49, 0]\nclass = BAD", fillcolor="#f7f7fe"] ;
4 -> 24 ;
25 [label="Mud_3 <= 0.5\nentropy = 1.7\nsamples = 74\nvalue = [13, 6, 16, 39, 0]\nclass = BAD", fillcolor="#b2b0f5"] ;
24 -> 25 ;
26 [label="entropy = 1.75\nsamples = 8\nvalue = [2, 4, 1, 1, 0]\nclass = GOOD", fillcolor="#d3f6bd"] ;
25 -> 26 ;
27 [label="entropy = 1.53\nsamples = 66\nvalue = [11, 2, 15, 38, 0]\nclass = BAD", fillcolor="#a7a6f3"] ;
25 -> 27 ;
28 [label="Mud_2 <= 2.5\nentropy = 1.82\nsamples = 72\nvalue = [32, 10, 20, 10, 0]\nclass = GREAT", fillcolor="#f9e2d1"] ;
24 -> 28 ;
29 [label="entropy = 1.35\nsamples = 42\nvalue = [22, 2, 17, 1, 0]\nclass = GREAT", fillcolor="#fae6d7"] ;
28 -> 29 ;
30 [label="Mud_3 <= 1.5\nentropy = 1.89\nsamples = 30\nvalue = [10, 8, 3, 9, 0]\nclass = GREAT", fillcolor="#fef9f6"] ;
28 -> 30 ;
31 [label="entropy = 1.71\nsamples = 18\nvalue = [8, 6, 3, 1, 0]\nclass = GREAT", fillcolor="#fbeade"] ;
30 -> 31 ;
32 [label="entropy = 1.25\nsamples = 12\nvalue = [2, 2, 0, 8, 0]\nclass = BAD", fillcolor="#8a88ef"] ;
30 -> 32 ;
33 [label="Boosts <= 0.5\nentropy = 1.49\nsamples = 10614\nvalue = [0, 1079, 4854, 4457, 224]\nclass = OK", fillcolor="#f2fdfb"] ;
3 -> 33 ;
34 [label="Speed <= 5.5\nentropy = 1.35\nsamples = 8438\nvalue = [0, 405, 4097, 3773, 163]\nclass = OK", fillcolor="#f1fdfb"] ;
33 -> 34 ;
35 [label="Y <= 0.5\nentropy = 0.65\nsamples = 861\nvalue = [0, 11, 738, 112, 0]\nclass = OK", fillcolor="#5ae9cf"] ;
34 -> 35 ;
36 [label="Mud_0 <= 0.5\nentropy = 0.47\nsamples = 756\nvalue = [0, 0, 680, 76, 0]\nclass = OK", fillcolor="#4fe8cb"] ;
35 -> 36 ;
37 [label="entropy = 0.0\nsamples = 143\nvalue = [0, 0, 143, 0, 0]\nclass = OK", fillcolor="#39e5c5"] ;
36 -> 37 ;
38 [label="Move <= 1.0\nentropy = 0.54\nsamples = 613\nvalue = [0, 0, 537, 76, 0]\nclass = OK", fillcolor="#55e9cd"] ;
36 -> 38 ;
39 [label="Mud_0 <= 1.5\nentropy = 0.59\nsamples = 530\nvalue = [0, 0, 454, 76, 0]\nclass = OK", fillcolor="#5ae9cf"] ;
38 -> 39 ;
40 [label="entropy = 0.36\nsamples = 216\nvalue = [0, 0, 201, 15, 0]\nclass = OK", fillcolor="#48e7c9"] ;
39 -> 40 ;
41 [label="Speed_2 <= 0.5\nentropy = 0.71\nsamples = 314\nvalue = [0, 0, 253, 61, 0]\nclass = OK", fillcolor="#69ebd3"] ;
39 -> 41 ;
42 [label="entropy = 0.76\nsamples = 280\nvalue = [0, 0, 219, 61, 0]\nclass = OK", fillcolor="#70ecd5"] ;
41 -> 42 ;
43 [label="entropy = 0.0\nsamples = 34\nvalue = [0, 0, 34, 0, 0]\nclass = OK", fillcolor="#39e5c5"] ;
41 -> 43 ;
44 [label="entropy = 0.0\nsamples = 83\nvalue = [0, 0, 83, 0, 0]\nclass = OK", fillcolor="#39e5c5"] ;
38 -> 44 ;
45 [label="entropy = 1.34\nsamples = 105\nvalue = [0, 11, 58, 36, 0]\nclass = OK", fillcolor="#c0f7ed"] ;
35 -> 45 ;
46 [label="Move <= 0.5\nentropy = 1.37\nsamples = 7577\nvalue = [0, 394, 3359, 3661, 163]\nclass = BAD", fillcolor="#f1f1fd"] ;
34 -> 46 ;
47 [label="Mud_0 <= 1.5\nentropy = 1.31\nsamples = 6350\nvalue = [0, 263, 2619, 3357, 111]\nclass = BAD", fillcolor="#d8d8fa"] ;
46 -> 47 ;
48 [label="Y <= 0.5\nentropy = 1.24\nsamples = 2534\nvalue = [0, 130, 851, 1532, 21]\nclass = BAD", fillcolor="#b0aff4"] ;
47 -> 48 ;
49 [label="Speed_0 <= 0.5\nentropy = 1.11\nsamples = 932\nvalue = [0, 60, 219, 653, 0]\nclass = BAD", fillcolor="#8886ef"] ;
48 -> 49 ;
50 [label="Mud_0 <= 0.5\nentropy = 0.82\nsamples = 686\nvalue = [0, 0, 177, 509, 0]\nclass = BAD", fillcolor="#807eee"] ;
49 -> 50 ;
51 [label="entropy = 0.29\nsamples = 215\nvalue = [0, 0, 11, 204, 0]\nclass = BAD", fillcolor="#4744e6"] ;
50 -> 51 ;
52 [label="entropy = 0.94\nsamples = 471\nvalue = [0, 0, 166, 305, 0]\nclass = BAD", fillcolor="#a6a5f3"] ;
50 -> 52 ;
53 [label="Mud_0 <= 0.5\nentropy = 1.38\nsamples = 246\nvalue = [0, 60, 42, 144, 0]\nclass = BAD", fillcolor="#a7a6f3"] ;
49 -> 53 ;
54 [label="entropy = 1.08\nsamples = 79\nvalue = [0, 41, 1, 37, 0]\nclass = GOOD", fillcolor="#f2fdec"] ;
53 -> 54 ;
55 [label="entropy = 1.27\nsamples = 167\nvalue = [0, 19, 41, 107, 0]\nclass = BAD", fillcolor="#9997f1"] ;
53 -> 55 ;
56 [label="Mud_1 <= 1.5\nentropy = 1.28\nsamples = 1602\nvalue = [0, 70, 632, 879, 21]\nclass = BAD", fillcolor="#cdcdf8"] ;
48 -> 56 ;
57 [label="Y <= 1.5\nentropy = 1.24\nsamples = 644\nvalue = [0, 41, 185, 413, 5]\nclass = BAD", fillcolor="#9e9df2"] ;
56 -> 57 ;
58 [label="Speed_1 <= 0.5\nentropy = 1.05\nsamples = 253\nvalue = [0, 22, 42, 189, 0]\nclass = BAD", fillcolor="#7775ed"] ;
57 -> 58 ;
59 [label="Mud_1 <= 0.5\nentropy = 0.71\nsamples = 169\nvalue = [0, 0, 33, 136, 0]\nclass = BAD", fillcolor="#6b69eb"] ;
58 -> 59 ;
60 [label="entropy = 0.27\nsamples = 66\nvalue = [0, 0, 3, 63, 0]\nclass = BAD", fillcolor="#4542e6"] ;
59 -> 60 ;
61 [label="entropy = 0.87\nsamples = 103\nvalue = [0, 0, 30, 73, 0]\nclass = BAD", fillcolor="#8c8af0"] ;
59 -> 61 ;
62 [label="entropy = 1.27\nsamples = 84\nvalue = [0, 22, 9, 53, 0]\nclass = BAD", fillcolor="#9e9cf2"] ;
58 -> 62 ;
63 [label="Mud_2 <= 1.5\nentropy = 1.28\nsamples = 391\nvalue = [0, 19, 143, 224, 5]\nclass = BAD", fillcolor="#bfbef7"] ;
57 -> 63 ;
64 [label="Speed_2 <= 0.5\nentropy = 1.18\nsamples = 162\nvalue = [0, 14, 38, 110, 0]\nclass = BAD", fillcolor="#8e8cf0"] ;
63 -> 64 ;
65 [label="entropy = 0.79\nsamples = 114\nvalue = [0, 0, 27, 87, 0]\nclass = BAD", fillcolor="#7976ed"] ;
64 -> 65 ;
66 [label="entropy = 1.51\nsamples = 48\nvalue = [0, 14, 11, 23, 0]\nclass = BAD", fillcolor="#cbcbf8"] ;
64 -> 66 ;
67 [label="Mud_3 <= 1.5\nentropy = 1.26\nsamples = 229\nvalue = [0, 5, 105, 114, 5]\nclass = BAD", fillcolor="#f1f1fd"] ;
63 -> 67 ;
68 [label="Speed_3 <= 0.5\nentropy = 1.14\nsamples = 102\nvalue = [0, 5, 31, 66, 0]\nclass = BAD", fillcolor="#9f9df2"] ;
67 -> 68 ;
69 [label="entropy = 0.94\nsamples = 80\nvalue = [0, 0, 29, 51, 0]\nclass = BAD", fillcolor="#abaaf4"] ;
68 -> 69 ;
70 [label="entropy = 1.18\nsamples = 22\nvalue = [0, 5, 2, 15, 0]\nclass = BAD", fillcolor="#8c8bf0"] ;
68 -> 70 ;
71 [label="entropy = 1.17\nsamples = 127\nvalue = [0, 0, 74, 48, 5]\nclass = OK", fillcolor="#bef6ec"] ;
67 -> 71 ;
72 [label="Mud_2 <= 1.5\nentropy = 1.27\nsamples = 958\nvalue = [0, 29, 447, 466, 16]\nclass = BAD", fillcolor="#f8f8fe"] ;
56 -> 72 ;
73 [label="Speed_2 <= 0.5\nentropy = 1.22\nsamples = 402\nvalue = [0, 15, 145, 238, 4]\nclass = BAD", fillcolor="#b8b7f6"] ;
72 -> 73 ;
74 [label="Mud_3 <= 1.5\nentropy = 1.14\nsamples = 314\nvalue = [0, 4, 120, 186, 4]\nclass = BAD", fillcolor="#bdbcf6"] ;
73 -> 74 ;
75 [label="entropy = 1.06\nsamples = 127\nvalue = [0, 4, 37, 86, 0]\nclass = BAD", fillcolor="#9593f1"] ;
74 -> 75 ;
76 [label="Y <= 2.5\nentropy = 1.12\nsamples = 187\nvalue = [0, 0, 83, 100, 4]\nclass = BAD", fillcolor="#dfdffb"] ;
74 -> 76 ;
77 [label="Y <= 1.5\nentropy = 1.0\nsamples = 136\nvalue = [0, 0, 49, 86, 1]\nclass = BAD", fillcolor="#acabf4"] ;
76 -> 77 ;
78 [label="entropy = 1.11\nsamples = 44\nvalue = [0, 0, 25, 18, 1]\nclass = OK", fillcolor="#caf8ef"] ;
77 -> 78 ;
79 [label="entropy = 0.83\nsamples = 92\nvalue = [0, 0, 24, 68, 0]\nclass = BAD", fillcolor="#817fee"] ;
77 -> 79 ;
80 [label="entropy = 1.14\nsamples = 51\nvalue = [0, 0, 34, 14, 3]\nclass = OK", fillcolor="#94f1e0"] ;
76 -> 80 ;
81 [label="entropy = 1.34\nsamples = 88\nvalue = [0, 11, 25, 52, 0]\nclass = BAD", fillcolor="#abaaf4"] ;
73 -> 81 ;
82 [label="Y <= 2.5\nentropy = 1.26\nsamples = 556\nvalue = [0, 14, 302, 228, 12]\nclass = OK", fillcolor="#d2f9f2"] ;
72 -> 82 ;
83 [label="entropy = 1.14\nsamples = 317\nvalue = [0, 7, 203, 103, 4]\nclass = OK", fillcolor="#a2f3e4"] ;
82 -> 83 ;
84 [label="Mud_3 <= 0.5\nentropy = 1.33\nsamples = 239\nvalue = [0, 7, 99, 125, 8]\nclass = BAD", fillcolor="#dbdafa"] ;
82 -> 84 ;
85 [label="entropy = 0.83\nsamples = 34\nvalue = [0, 4, 2, 28, 0]\nclass = BAD", fillcolor="#6361ea"] ;
84 -> 85 ;
86 [label="entropy = 1.29\nsamples = 205\nvalue = [0, 3, 97, 97, 8]\nclass = OK", fillcolor="#ffffff"] ;
84 -> 86 ;
87 [label="Y <= 0.5\nentropy = 1.32\nsamples = 3816\nvalue = [0, 133, 1768, 1825, 90]\nclass = BAD", fillcolor="#faf9fe"] ;
47 -> 87 ;
88 [label="Mud_0 <= 2.5\nentropy = 1.25\nsamples = 1055\nvalue = [0, 11, 636, 358, 50]\nclass = OK", fillcolor="#b0f5e8"] ;
87 -> 88 ;
89 [label="Speed_0 <= 0.5\nentropy = 1.04\nsamples = 615\nvalue = [0, 9, 403, 201, 2]\nclass = OK", fillcolor="#9ef2e3"] ;
88 -> 89 ;
90 [label="entropy = 0.92\nsamples = 443\nvalue = [0, 0, 308, 133, 2]\nclass = OK", fillcolor="#8ff0de"] ;
89 -> 90 ;
91 [label="entropy = 1.23\nsamples = 172\nvalue = [0, 9, 95, 68, 0]\nclass = OK", fillcolor="#ccf8f0"] ;
89 -> 91 ;
92 [label="Mud_0 <= 3.5\nentropy = 1.4\nsamples = 440\nvalue = [0, 2, 233, 157, 48]\nclass = OK", fillcolor="#caf8ef"] ;
88 -> 92 ;
93 [label="entropy = 1.31\nsamples = 310\nvalue = [0, 2, 181, 104, 23]\nclass = OK", fillcolor="#b5f5e9"] ;
92 -> 93 ;
94 [label="entropy = 1.51\nsamples = 130\nvalue = [0, 0, 52, 53, 25]\nclass = BAD", fillcolor="#fdfcff"] ;
92 -> 94 ;
95 [label="Mud_1 <= 0.5\nentropy = 1.3\nsamples = 2761\nvalue = [0, 122, 1132, 1467, 40]\nclass = BAD", fillcolor="#d7d6fa"] ;
87 -> 95 ;
96 [label="Y <= 1.5\nentropy = 1.28\nsamples = 423\nvalue = [0, 42, 97, 280, 4]\nclass = BAD", fillcolor="#9290f0"] ;
95 -> 96 ;
97 [label="Speed_1 <= 0.5\nentropy = 0.88\nsamples = 200\nvalue = [0, 24, 14, 162, 0]\nclass = BAD", fillcolor="#6664eb"] ;
96 -> 97 ;
98 [label="entropy = 0.41\nsamples = 133\nvalue = [0, 0, 11, 122, 0]\nclass = BAD", fillcolor="#4e4be7"] ;
97 -> 98 ;
99 [label="entropy = 1.18\nsamples = 67\nvalue = [0, 24, 3, 40, 0]\nclass = BAD", fillcolor="#b6b5f5"] ;
97 -> 99 ;
100 [label="Mud_2 <= 0.5\nentropy = 1.41\nsamples = 223\nvalue = [0, 18, 83, 118, 4]\nclass = BAD", fillcolor="#cecef8"] ;
96 -> 100 ;
101 [label="entropy = 1.33\nsamples = 33\nvalue = [0, 7, 3, 22, 1]\nclass = BAD", fillcolor="#8e8df0"] ;
100 -> 101 ;
102 [label="entropy = 1.36\nsamples = 190\nvalue = [0, 11, 80, 96, 3]\nclass = BAD", fillcolor="#e3e2fb"] ;
100 -> 102 ;
103 [label="Mud_3 <= 1.5\nentropy = 1.28\nsamples = 2338\nvalue = [0, 80, 1035, 1187, 36]\nclass = BAD", fillcolor="#e8e8fc"] ;
95 -> 103 ;
104 [label="Y <= 1.5\nentropy = 1.2\nsamples = 937\nvalue = [0, 42, 333, 559, 3]\nclass = BAD", fillcolor="#b6b5f5"] ;
103 -> 104 ;
105 [label="Mud_1 <= 1.5\nentropy = 1.23\nsamples = 304\nvalue = [0, 9, 160, 132, 3]\nclass = OK", fillcolor="#dffbf6"] ;
104 -> 105 ;
106 [label="Speed_1 <= 0.5\nentropy = 1.23\nsamples = 99\nvalue = [0, 7, 31, 61, 0]\nclass = BAD", fillcolor="#a9a8f4"] ;
105 -> 106 ;
107 [label="entropy = 0.89\nsamples = 68\nvalue = [0, 0, 21, 47, 0]\nclass = BAD", fillcolor="#9391f1"] ;
106 -> 107 ;
108 [label="entropy = 1.53\nsamples = 31\nvalue = [0, 7, 10, 14, 0]\nclass = BAD", fillcolor="#dad9fa"] ;
106 -> 108 ;
109 [label="entropy = 1.1\nsamples = 205\nvalue = [0, 2, 129, 71, 3]\nclass = OK", fillcolor="#a9f4e6"] ;
105 -> 109 ;
110 [label="Speed_3 <= 0.5\nentropy = 1.12\nsamples = 633\nvalue = [0, 33, 173, 427, 0]\nclass = BAD", fillcolor="#9392f1"] ;
104 -> 110 ;
111 [label="Mud_2 <= 0.5\nentropy = 1.0\nsamples = 490\nvalue = [0, 8, 148, 334, 0]\nclass = BAD", fillcolor="#9593f1"] ;
110 -> 111 ;
112 [label="Speed_2 <= 0.5\nentropy = 0.87\nsamples = 65\nvalue = [0, 6, 6, 53, 0]\nclass = BAD", fillcolor="#6461ea"] ;
111 -> 112 ;
113 [label="entropy = 0.48\nsamples = 49\nvalue = [0, 0, 5, 44, 0]\nclass = BAD", fillcolor="#5250e8"] ;
112 -> 113 ;
114 [label="entropy = 1.25\nsamples = 16\nvalue = [0, 6, 1, 9, 0]\nclass = BAD", fillcolor="#c4c4f7"] ;
112 -> 114 ;
115 [label="Y <= 2.5\nentropy = 0.96\nsamples = 425\nvalue = [0, 2, 142, 281, 0]\nclass = BAD", fillcolor="#9f9ef2"] ;
111 -> 115 ;
116 [label="entropy = 1.07\nsamples = 163\nvalue = [0, 2, 71, 90, 0]\nclass = BAD", fillcolor="#d7d6fa"] ;
115 -> 116 ;
117 [label="Mud_3 <= 0.5\nentropy = 0.84\nsamples = 262\nvalue = [0, 0, 71, 191, 0]\nclass = BAD", fillcolor="#8483ef"] ;
115 -> 117 ;
118 [label="Speed_2 <= 0.5\nentropy = 0.35\nsamples = 92\nvalue = [0, 0, 6, 86, 0]\nclass = BAD", fillcolor="#4a47e7"] ;
117 -> 118 ;
119 [label="entropy = 0.1\nsamples = 77\nvalue = [0, 0, 1, 76, 0]\nclass = BAD", fillcolor="#3f3ce5"] ;
118 -> 119 ;
120 [label="entropy = 0.92\nsamples = 15\nvalue = [0, 0, 5, 10, 0]\nclass = BAD", fillcolor="#9e9cf2"] ;
118 -> 120 ;
121 [label="entropy = 0.96\nsamples = 170\nvalue = [0, 0, 65, 105, 0]\nclass = BAD", fillcolor="#b5b4f5"] ;
117 -> 121 ;
122 [label="Mud_3 <= 0.5\nentropy = 1.28\nsamples = 143\nvalue = [0, 25, 25, 93, 0]\nclass = BAD", fillcolor="#8f8df0"] ;
110 -> 122 ;
123 [label="entropy = 1.16\nsamples = 44\nvalue = [0, 15, 2, 27, 0]\nclass = BAD", fillcolor="#aeadf4"] ;
122 -> 123 ;
124 [label="entropy = 1.21\nsamples = 99\nvalue = [0, 10, 23, 66, 0]\nclass = BAD", fillcolor="#918ff0"] ;
122 -> 124 ;
125 [label="Mud_2 <= 1.5\nentropy = 1.29\nsamples = 1401\nvalue = [0, 38, 702, 628, 33]\nclass = OK", fillcolor="#ecfdf9"] ;
103 -> 125 ;
126 [label="Speed_2 <= 0.5\nentropy = 1.27\nsamples = 549\nvalue = [0, 24, 216, 303, 6]\nclass = BAD", fillcolor="#cccbf8"] ;
125 -> 126 ;
127 [label="Y <= 2.5\nentropy = 1.09\nsamples = 427\nvalue = [0, 3, 181, 240, 3]\nclass = BAD", fillcolor="#d0d0f9"] ;
126 -> 127 ;
128 [label="Speed_1 <= 0.5\nentropy = 1.03\nsamples = 332\nvalue = [0, 2, 126, 203, 1]\nclass = BAD", fillcolor="#b6b5f5"] ;
127 -> 128 ;
129 [label="Y <= 1.5\nentropy = 0.96\nsamples = 257\nvalue = [0, 0, 87, 169, 1]\nclass = BAD", fillcolor="#a19ff2"] ;
128 -> 129 ;
130 [label="entropy = 1.07\nsamples = 99\nvalue = [0, 0, 47, 51, 1]\nclass = BAD", fillcolor="#f0f0fd"] ;
129 -> 130 ;
131 [label="entropy = 0.82\nsamples = 158\nvalue = [0, 0, 40, 118, 0]\nclass = BAD", fillcolor="#7e7cee"] ;
129 -> 131 ;
132 [label="entropy = 1.15\nsamples = 75\nvalue = [0, 2, 39, 34, 0]\nclass = OK", fillcolor="#e7fcf8"] ;
128 -> 132 ;
133 [label="Mud_3 <= 4.5\nentropy = 1.17\nsamples = 95\nvalue = [0, 1, 55, 37, 2]\nclass = OK", fillcolor="#c2f7ed"] ;
127 -> 133 ;
134 [label="entropy = 1.05\nsamples = 92\nvalue = [0, 1, 54, 37, 0]\nclass = OK", fillcolor="#c2f7ed"] ;
133 -> 134 ;
135 [label="entropy = 0.92\nsamples = 3\nvalue = [0, 0, 1, 0, 2]\nclass = TERRIBLE", fillcolor="#f29ce0"] ;
133 -> 135 ;
136 [label="Y <= 2.5\nentropy = 1.58\nsamples = 122\nvalue = [0, 21, 35, 63, 3]\nclass = BAD", fillcolor="#c0bff7"] ;
126 -> 136 ;
137 [label="Y <= 1.5\nentropy = 1.5\nsamples = 102\nvalue = [0, 21, 24, 56, 1]\nclass = BAD", fillcolor="#afaef4"] ;
136 -> 137 ;
138 [label="entropy = 1.2\nsamples = 25\nvalue = [0, 0, 12, 12, 1]\nclass = OK", fillcolor="#ffffff"] ;
137 -> 138 ;
139 [label="entropy = 1.39\nsamples = 77\nvalue = [0, 21, 12, 44, 0]\nclass = BAD", fillcolor="#afaef4"] ;
137 -> 139 ;
140 [label="entropy = 1.34\nsamples = 20\nvalue = [0, 0, 11, 7, 2]\nclass = OK", fillcolor="#c2f7ed"] ;
136 -> 140 ;
141 [label="Y <= 1.5\nentropy = 1.25\nsamples = 852\nvalue = [0, 14, 486, 325, 27]\nclass = OK", fillcolor="#c3f7ed"] ;
125 -> 141 ;
142 [label="Speed_1 <= 0.5\nentropy = 1.2\nsamples = 334\nvalue = [0, 10, 176, 146, 2]\nclass = OK", fillcolor="#dffbf6"] ;
141 -> 142 ;
143 [label="Mud_1 <= 1.5\nentropy = 1.06\nsamples = 228\nvalue = [0, 0, 123, 103, 2]\nclass = OK", fillcolor="#dffbf6"] ;
142 -> 143 ;
144 [label="entropy = 0.97\nsamples = 97\nvalue = [0, 0, 39, 58, 0]\nclass = BAD", fillcolor="#bfbef6"] ;
143 -> 144 ;
145 [label="entropy = 1.03\nsamples = 131\nvalue = [0, 0, 84, 45, 2]\nclass = OK", fillcolor="#a5f3e5"] ;
143 -> 145 ;
146 [label="entropy = 1.35\nsamples = 106\nvalue = [0, 10, 53, 43, 0]\nclass = OK", fillcolor="#e0fbf6"] ;
142 -> 146 ;
147 [label="Mud_2 <= 5.5\nentropy = 1.24\nsamples = 518\nvalue = [0, 4, 310, 179, 25]\nclass = OK", fillcolor="#b2f5e9"] ;
141 -> 147 ;
148 [label="Mud_3 <= 2.5\nentropy = 1.21\nsamples = 504\nvalue = [0, 4, 306, 174, 20]\nclass = OK", fillcolor="#b0f5e8"] ;
147 -> 148 ;
149 [label="entropy = 1.04\nsamples = 229\nvalue = [0, 3, 150, 75, 1]\nclass = OK", fillcolor="#9ff2e3"] ;
148 -> 149 ;
150 [label="entropy = 1.29\nsamples = 275\nvalue = [0, 1, 156, 99, 19]\nclass = OK", fillcolor="#bff7ec"] ;
148 -> 150 ;
151 [label="entropy = 1.58\nsamples = 14\nvalue = [0, 0, 4, 5, 5]\nclass = BAD", fillcolor="#ffffff"] ;
147 -> 151 ;
152 [label="Mud_1 <= 0.5\nentropy = 1.48\nsamples = 1227\nvalue = [0, 131, 740, 304, 52]\nclass = OK", fillcolor="#a1f3e4"] ;
46 -> 152 ;
153 [label="Speed_1 <= 0.5\nentropy = 1.44\nsamples = 203\nvalue = [0, 44, 125, 29, 5]\nclass = OK", fillcolor="#9af2e1"] ;
152 -> 153 ;
154 [label="Y <= 0.5\nentropy = 1.34\nsamples = 128\nvalue = [0, 11, 84, 29, 4]\nclass = OK", fillcolor="#91f1df"] ;
153 -> 154 ;
155 [label="entropy = 0.21\nsamples = 31\nvalue = [0, 0, 30, 1, 0]\nclass = OK", fillcolor="#40e6c7"] ;
154 -> 155 ;
156 [label="entropy = 1.53\nsamples = 97\nvalue = [0, 11, 54, 28, 4]\nclass = OK", fillcolor="#b4f5e9"] ;
154 -> 156 ;
157 [label="entropy = 1.08\nsamples = 75\nvalue = [0, 33, 41, 0, 1]\nclass = OK", fillcolor="#d9faf4"] ;
153 -> 157 ;
158 [label="Mud_0 <= 0.5\nentropy = 1.46\nsamples = 1024\nvalue = [0, 87, 615, 275, 47]\nclass = OK", fillcolor="#a5f3e5"] ;
152 -> 158 ;
159 [label="Y <= 1.5\nentropy = 1.48\nsamples = 124\nvalue = [0, 29, 72, 21, 2]\nclass = OK", fillcolor="#a5f3e5"] ;
158 -> 159 ;
160 [label="Speed_0 <= 0.5\nentropy = 1.38\nsamples = 69\nvalue = [0, 25, 36, 8, 0]\nclass = OK", fillcolor="#cef8f0"] ;
159 -> 160 ;
161 [label="entropy = 1.28\nsamples = 40\nvalue = [0, 6, 26, 8, 0]\nclass = OK", fillcolor="#90f0de"] ;
160 -> 161 ;
162 [label="entropy = 0.93\nsamples = 29\nvalue = [0, 19, 10, 0, 0]\nclass = GOOD", fillcolor="#c0f3a1"] ;
160 -> 162 ;
163 [label="entropy = 1.34\nsamples = 55\nvalue = [0, 4, 36, 13, 2]\nclass = OK", fillcolor="#93f1df"] ;
159 -> 163 ;
164 [label="Mud_2 <= 0.5\nentropy = 1.43\nsamples = 900\nvalue = [0, 58, 543, 254, 45]\nclass = OK", fillcolor="#a6f3e5"] ;
158 -> 164 ;
165 [label="Speed_2 <= 0.5\nentropy = 1.43\nsamples = 127\nvalue = [0, 26, 75, 25, 1]\nclass = OK", fillcolor="#9ff2e3"] ;
164 -> 165 ;
166 [label="entropy = 1.1\nsamples = 77\nvalue = [0, 2, 53, 21, 1]\nclass = OK", fillcolor="#8ef0de"] ;
165 -> 166 ;
167 [label="Y <= 0.5\nentropy = 1.32\nsamples = 50\nvalue = [0, 24, 22, 4, 0]\nclass = GOOD", fillcolor="#f6fdf1"] ;
165 -> 167 ;
168 [label="entropy = 1.0\nsamples = 8\nvalue = [0, 0, 4, 4, 0]\nclass = OK", fillcolor="#ffffff"] ;
167 -> 168 ;
169 [label="entropy = 0.99\nsamples = 42\nvalue = [0, 24, 18, 0, 0]\nclass = GOOD", fillcolor="#def8ce"] ;
167 -> 169 ;
170 [label="Speed_3 <= 0.5\nentropy = 1.38\nsamples = 773\nvalue = [0, 32, 468, 229, 44]\nclass = OK", fillcolor="#a8f4e6"] ;
164 -> 170 ;
171 [label="Y <= 2.5\nentropy = 1.33\nsamples = 600\nvalue = [0, 13, 365, 183, 39]\nclass = OK", fillcolor="#a9f4e6"] ;
170 -> 171 ;
172 [label="Mud_1 <= 1.5\nentropy = 1.28\nsamples = 506\nvalue = [0, 9, 308, 164, 25]\nclass = OK", fillcolor="#acf4e7"] ;
171 -> 172 ;
173 [label="entropy = 1.17\nsamples = 177\nvalue = [0, 7, 104, 66, 0]\nclass = OK", fillcolor="#bbf6eb"] ;
172 -> 173 ;
174 [label="entropy = 1.28\nsamples = 329\nvalue = [0, 2, 204, 98, 25]\nclass = OK", fillcolor="#a4f3e4"] ;
172 -> 174 ;
175 [label="entropy = 1.51\nsamples = 94\nvalue = [0, 4, 57, 19, 14]\nclass = OK", fillcolor="#9bf2e2"] ;
171 -> 175 ;
176 [label="Mud_3 <= 0.5\nentropy = 1.45\nsamples = 173\nvalue = [0, 19, 103, 46, 5]\nclass = OK", fillcolor="#a6f3e5"] ;
170 -> 176 ;
177 [label="Y <= 1.5\nentropy = 1.34\nsamples = 29\nvalue = [0, 11, 16, 1, 1]\nclass = OK", fillcolor="#c8f8ef"] ;
176 -> 177 ;
178 [label="entropy = 0.82\nsamples = 12\nvalue = [0, 0, 10, 1, 1]\nclass = OK", fillcolor="#5dead0"] ;
177 -> 178 ;
179 [label="entropy = 0.94\nsamples = 17\nvalue = [0, 11, 6, 0, 0]\nclass = GOOD", fillcolor="#c3f3a5"] ;
177 -> 179 ;
180 [label="entropy = 1.34\nsamples = 144\nvalue = [0, 8, 87, 45, 4]\nclass = OK", fillcolor="#abf4e6"] ;
176 -> 180 ;
181 [label="Mud_0 <= 3.5\nentropy = 1.72\nsamples = 2176\nvalue = [0, 674, 757, 684, 61]\nclass = OK", fillcolor="#f5fefc"] ;
33 -> 181 ;
182 [label="Mud_2 <= 1.5\nentropy = 1.69\nsamples = 1777\nvalue = [0, 613, 599, 530, 35]\nclass = GOOD", fillcolor="#fdfffd"] ;
181 -> 182 ;
183 [label="Boosts <= 2.5\nentropy = 1.63\nsamples = 638\nvalue = [0, 291, 166, 170, 11]\nclass = GOOD", fillcolor="#ddf8cc"] ;
182 -> 183 ;
184 [label="Mud_1 <= 3.5\nentropy = 1.61\nsamples = 612\nvalue = [0, 291, 156, 155, 10]\nclass = GOOD", fillcolor="#d8f7c4"] ;
183 -> 184 ;
185 [label="Y <= 2.5\nentropy = 1.52\nsamples = 484\nvalue = [0, 253, 112, 116, 3]\nclass = GOOD", fillcolor="#cef5b5"] ;
184 -> 185 ;
186 [label="Y <= 1.5\nentropy = 1.42\nsamples = 359\nvalue = [0, 201, 66, 92, 0]\nclass = GOOD", fillcolor="#c9f4ae"] ;
185 -> 186 ;
187 [label="entropy = 1.5\nsamples = 204\nvalue = [0, 101, 58, 45, 0]\nclass = GOOD", fillcolor="#d8f7c5"] ;
186 -> 187 ;
188 [label="Speed_2 <= 1.5\nentropy = 1.15\nsamples = 155\nvalue = [0, 100, 8, 47, 0]\nclass = GOOD", fillcolor="#bef29e"] ;
186 -> 188 ;
189 [label="entropy = 1.05\nsamples = 129\nvalue = [0, 92, 6, 31, 0]\nclass = GOOD", fillcolor="#adef84"] ;
188 -> 189 ;
190 [label="entropy = 1.24\nsamples = 26\nvalue = [0, 8, 2, 16, 0]\nclass = BAD", fillcolor="#a8a7f3"] ;
188 -> 190 ;
191 [label="Mud_3 <= 2.5\nentropy = 1.64\nsamples = 125\nvalue = [0, 52, 46, 24, 3]\nclass = GOOD", fillcolor="#f5fdf0"] ;
185 -> 191 ;
192 [label="entropy = 1.04\nsamples = 64\nvalue = [0, 48, 5, 11, 0]\nclass = GOOD", fillcolor="#a3ed75"] ;
191 -> 192 ;
193 [label="entropy = 1.33\nsamples = 61\nvalue = [0, 4, 41, 13, 3]\nclass = OK", fillcolor="#8cf0dd"] ;
191 -> 193 ;
194 [label="Y <= 1.5\nentropy = 1.8\nsamples = 128\nvalue = [0, 38, 44, 39, 7]\nclass = OK", fillcolor="#f4fefc"] ;
184 -> 194 ;
195 [label="Y <= 0.5\nentropy = 1.72\nsamples = 86\nvalue = [0, 11, 39, 29, 7]\nclass = OK", fillcolor="#dcfaf5"] ;
194 -> 195 ;
196 [label="entropy = 1.45\nsamples = 21\nvalue = [0, 9, 3, 9, 0]\nclass = GOOD", fillcolor="#ffffff"] ;
195 -> 196 ;
197 [label="Mud_1 <= 4.5\nentropy = 1.5\nsamples = 65\nvalue = [0, 2, 36, 20, 7]\nclass = OK", fillcolor="#b9f6ea"] ;
195 -> 197 ;
198 [label="entropy = 1.08\nsamples = 42\nvalue = [0, 2, 29, 11, 0]\nclass = OK", fillcolor="#8cf0dd"] ;
197 -> 198 ;
199 [label="entropy = 1.57\nsamples = 23\nvalue = [0, 0, 7, 9, 7]\nclass = BAD", fillcolor="#e7e6fc"] ;
197 -> 199 ;
200 [label="Y <= 2.5\nentropy = 1.27\nsamples = 42\nvalue = [0, 27, 5, 10, 0]\nclass = GOOD", fillcolor="#b9f196"] ;
194 -> 200 ;
201 [label="entropy = 0.74\nsamples = 29\nvalue = [0, 23, 0, 6, 0]\nclass = GOOD", fillcolor="#9dec6d"] ;
200 -> 201 ;
202 [label="entropy = 1.58\nsamples = 13\nvalue = [0, 4, 5, 4, 0]\nclass = OK", fillcolor="#e9fcf9"] ;
200 -> 202 ;
203 [label="entropy = 1.17\nsamples = 26\nvalue = [0, 0, 10, 15, 1]\nclass = BAD", fillcolor="#c2c1f7"] ;
183 -> 203 ;
204 [label="Y <= 0.5\nentropy = 1.69\nsamples = 1139\nvalue = [0, 322, 433, 360, 24]\nclass = OK", fillcolor="#ecfdfa"] ;
182 -> 204 ;
205 [label="Mud_0 <= 2.5\nentropy = 1.57\nsamples = 237\nvalue = [0, 107, 60, 69, 1]\nclass = GOOD", fillcolor="#e1f9d2"] ;
204 -> 205 ;
206 [label="Boosts <= 1.5\nentropy = 1.32\nsamples = 175\nvalue = [0, 103, 19, 53, 0]\nclass = GOOD", fillcolor="#c9f4ae"] ;
205 -> 206 ;
207 [label="Speed_0 <= 1.5\nentropy = 1.15\nsamples = 151\nvalue = [0, 103, 11, 37, 0]\nclass = GOOD", fillcolor="#b3f08c"] ;
206 -> 207 ;
208 [label="entropy = 0.92\nsamples = 126\nvalue = [0, 100, 8, 18, 0]\nclass = GOOD", fillcolor="#9beb69"] ;
207 -> 208 ;
209 [label="entropy = 1.04\nsamples = 25\nvalue = [0, 3, 3, 19, 0]\nclass = BAD", fillcolor="#716fec"] ;
207 -> 209 ;
210 [label="entropy = 0.92\nsamples = 24\nvalue = [0, 0, 8, 16, 0]\nclass = BAD", fillcolor="#9e9cf2"] ;
206 -> 210 ;
211 [label="entropy = 1.25\nsamples = 62\nvalue = [0, 4, 41, 16, 1]\nclass = OK", fillcolor="#93f1df"] ;
205 -> 211 ;
212 [label="Mud_3 <= 2.5\nentropy = 1.68\nsamples = 902\nvalue = [0, 215, 373, 291, 23]\nclass = OK", fillcolor="#e4fcf7"] ;
204 -> 212 ;
213 [label="Y <= 2.5\nentropy = 1.69\nsamples = 538\nvalue = [0, 164, 195, 168, 11]\nclass = OK", fillcolor="#f1fdfb"] ;
212 -> 213 ;
214 [label="Mud_1 <= 2.5\nentropy = 1.66\nsamples = 416\nvalue = [0, 88, 183, 134, 11]\nclass = OK", fillcolor="#ddfaf5"] ;
213 -> 214 ;
215 [label="Mud_2 <= 4.5\nentropy = 1.71\nsamples = 226\nvalue = [0, 73, 86, 61, 6]\nclass = OK", fillcolor="#eefdfa"] ;
214 -> 215 ;
216 [label="Y <= 1.5\nentropy = 1.56\nsamples = 201\nvalue = [0, 72, 78, 51, 0]\nclass = OK", fillcolor="#f6fefc"] ;
215 -> 216 ;
217 [label="entropy = 1.45\nsamples = 89\nvalue = [0, 48, 22, 19, 0]\nclass = GOOD", fillcolor="#ccf5b2"] ;
216 -> 217 ;
218 [label="Mud_2 <= 2.5\nentropy = 1.49\nsamples = 112\nvalue = [0, 24, 56, 32, 0]\nclass = OK", fillcolor="#c4f7ee"] ;
216 -> 218 ;
219 [label="Speed_2 <= 1.0\nentropy = 1.45\nsamples = 38\nvalue = [0, 20, 11, 7, 0]\nclass = GOOD", fillcolor="#d3f6bd"] ;
218 -> 219 ;
220 [label="entropy = 1.07\nsamples = 28\nvalue = [0, 19, 8, 1, 0]\nclass = GOOD", fillcolor="#b6f192"] ;
219 -> 220 ;
221 [label="entropy = 1.3\nsamples = 10\nvalue = [0, 1, 3, 6, 0]\nclass = BAD", fillcolor="#abaaf4"] ;
219 -> 221 ;
222 [label="entropy = 1.19\nsamples = 74\nvalue = [0, 4, 45, 25, 0]\nclass = OK", fillcolor="#aef4e7"] ;
218 -> 222 ;
223 [label="entropy = 1.73\nsamples = 25\nvalue = [0, 1, 8, 10, 6]\nclass = BAD", fillcolor="#e8e8fc"] ;
215 -> 223 ;
224 [label="Mud_1 <= 4.5\nentropy = 1.45\nsamples = 190\nvalue = [0, 15, 97, 73, 5]\nclass = OK", fillcolor="#d6faf3"] ;
214 -> 224 ;
225 [label="entropy = 1.34\nsamples = 157\nvalue = [0, 13, 89, 54, 1]\nclass = OK", fillcolor="#bcf6eb"] ;
224 -> 225 ;
226 [label="Y <= 1.5\nentropy = 1.57\nsamples = 33\nvalue = [0, 2, 8, 19, 4]\nclass = BAD", fillcolor="#a9a8f4"] ;
224 -> 226 ;
227 [label="entropy = 1.13\nsamples = 21\nvalue = [0, 0, 2, 15, 4]\nclass = BAD", fillcolor="#817fee"] ;
226 -> 227 ;
228 [label="entropy = 1.46\nsamples = 12\nvalue = [0, 2, 6, 4, 0]\nclass = OK", fillcolor="#cef8f0"] ;
226 -> 228 ;
229 [label="Speed_3 <= 1.5\nentropy = 1.27\nsamples = 122\nvalue = [0, 76, 12, 34, 0]\nclass = GOOD", fillcolor="#c0f3a0"] ;
213 -> 229 ;
230 [label="entropy = 1.12\nsamples = 100\nvalue = [0, 71, 8, 21, 0]\nclass = GOOD", fillcolor="#abef82"] ;
229 -> 230 ;
231 [label="entropy = 1.38\nsamples = 22\nvalue = [0, 5, 4, 13, 0]\nclass = BAD", fillcolor="#a3a2f3"] ;
229 -> 231 ;
232 [label="Y <= 2.5\nentropy = 1.59\nsamples = 364\nvalue = [0, 51, 178, 123, 12]\nclass = OK", fillcolor="#d2f9f2"] ;
212 -> 232 ;
233 [label="Mud_1 <= 1.5\nentropy = 1.62\nsamples = 208\nvalue = [0, 47, 91, 67, 3]\nclass = OK", fillcolor="#ddfbf5"] ;
232 -> 233 ;
234 [label="Y <= 1.5\nentropy = 1.57\nsamples = 71\nvalue = [0, 28, 19, 24, 0]\nclass = GOOD", fillcolor="#f4fdee"] ;
233 -> 234 ;
235 [label="entropy = 1.11\nsamples = 38\nvalue = [0, 23, 1, 14, 0]\nclass = GOOD", fillcolor="#cef5b5"] ;
234 -> 235 ;
236 [label="entropy = 1.41\nsamples = 33\nvalue = [0, 5, 18, 10, 0]\nclass = OK", fillcolor="#baf6eb"] ;
234 -> 236 ;
237 [label="Mud_2 <= 2.5\nentropy = 1.53\nsamples = 137\nvalue = [0, 19, 72, 43, 3]\nclass = OK", fillcolor="#c2f7ed"] ;
233 -> 237 ;
238 [label="entropy = 1.59\nsamples = 48\nvalue = [0, 13, 26, 7, 2]\nclass = OK", fillcolor="#b5f5e9"] ;
237 -> 238 ;
239 [label="entropy = 1.36\nsamples = 89\nvalue = [0, 6, 46, 36, 1]\nclass = OK", fillcolor="#dafaf4"] ;
237 -> 239 ;
240 [label="Mud_3 <= 4.5\nentropy = 1.37\nsamples = 156\nvalue = [0, 4, 87, 56, 9]\nclass = OK", fillcolor="#c2f7ed"] ;
232 -> 240 ;
241 [label="entropy = 1.12\nsamples = 128\nvalue = [0, 4, 85, 38, 1]\nclass = OK", fillcolor="#98f1e1"] ;
240 -> 241 ;
242 [label="entropy = 1.2\nsamples = 28\nvalue = [0, 0, 2, 18, 8]\nclass = BAD", fillcolor="#9d9cf2"] ;
240 -> 242 ;
243 [label="Y <= 0.5\nentropy = 1.73\nsamples = 399\nvalue = [0, 61, 158, 154, 26]\nclass = OK", fillcolor="#fcfffe"] ;
181 -> 243 ;
244 [label="Mud_0 <= 4.5\nentropy = 1.38\nsamples = 172\nvalue = [0, 0, 72, 82, 18]\nclass = BAD", fillcolor="#ecebfc"] ;
243 -> 244 ;
245 [label="entropy = 1.14\nsamples = 113\nvalue = [0, 0, 63, 47, 3]\nclass = OK", fillcolor="#cff9f1"] ;
244 -> 245 ;
246 [label="entropy = 1.36\nsamples = 59\nvalue = [0, 0, 9, 35, 15]\nclass = BAD", fillcolor="#a6a5f3"] ;
244 -> 246 ;
247 [label="Mud_1 <= 2.5\nentropy = 1.74\nsamples = 227\nvalue = [0, 61, 86, 72, 8]\nclass = OK", fillcolor="#edfdfa"] ;
243 -> 247 ;
248 [label="Mud_2 <= 4.5\nentropy = 1.72\nsamples = 147\nvalue = [0, 53, 48, 42, 4]\nclass = GOOD", fillcolor="#f8fef5"] ;
247 -> 248 ;
249 [label="Mud_3 <= 3.5\nentropy = 1.62\nsamples = 138\nvalue = [0, 51, 48, 38, 1]\nclass = GOOD", fillcolor="#fbfef8"] ;
248 -> 249 ;
250 [label="Speed_1 <= 1.5\nentropy = 1.54\nsamples = 105\nvalue = [0, 47, 30, 28, 0]\nclass = GOOD", fillcolor="#e1f9d2"] ;
249 -> 250 ;
251 [label="Mud_2 <= 3.5\nentropy = 1.49\nsamples = 94\nvalue = [0, 47, 27, 20, 0]\nclass = GOOD", fillcolor="#d8f7c4"] ;
250 -> 251 ;
252 [label="entropy = 1.43\nsamples = 82\nvalue = [0, 46, 18, 18, 0]\nclass = GOOD", fillcolor="#c5f4a8"] ;
251 -> 252 ;
253 [label="entropy = 1.04\nsamples = 12\nvalue = [0, 1, 9, 2, 0]\nclass = OK", fillcolor="#74edd6"] ;
251 -> 253 ;
254 [label="entropy = 0.85\nsamples = 11\nvalue = [0, 0, 3, 8, 0]\nclass = BAD", fillcolor="#8583ef"] ;
250 -> 254 ;
255 [label="entropy = 1.52\nsamples = 33\nvalue = [0, 4, 18, 10, 1]\nclass = OK", fillcolor="#baf6eb"] ;
249 -> 255 ;
256 [label="entropy = 1.53\nsamples = 9\nvalue = [0, 2, 0, 4, 3]\nclass = BAD", fillcolor="#dedefb"] ;
248 -> 256 ;
257 [label="entropy = 1.59\nsamples = 80\nvalue = [0, 8, 38, 30, 4]\nclass = OK", fillcolor="#dffbf6"] ;
247 -> 257 ;
258 [label="Boosts <= 0.5\nentropy = 1.29\nsamples = 54145\nvalue = [1, 2976, 37441, 10693, 3034]\nclass = OK", fillcolor="#85efdb"] ;
2 -> 258 ;
259 [label="Speed <= 8.5\nentropy = 1.07\nsamples = 38699\nvalue = [0, 978, 29814, 5737, 2170]\nclass = OK", fillcolor="#6eecd5"] ;
258 -> 259 ;
260 [label="Move <= 0.5\nentropy = 0.87\nsamples = 20947\nvalue = [0, 613, 17479, 2112, 743]\nclass = OK", fillcolor="#5dead0"] ;
259 -> 260 ;
261 [label="Mud_2 <= 2.5\nentropy = 0.7\nsamples = 16157\nvalue = [0, 353, 14195, 1213, 396]\nclass = OK", fillcolor="#53e8cd"] ;
260 -> 261 ;
262 [label="Speed_2 <= 0.5\nentropy = 0.6\nsamples = 10941\nvalue = [0, 267, 9873, 592, 209]\nclass = OK", fillcolor="#4de8cb"] ;
261 -> 262 ;
263 [label="Speed_1 <= 0.5\nentropy = 0.54\nsamples = 9251\nvalue = [0, 138, 8467, 456, 190]\nclass = OK", fillcolor="#4be7ca"] ;
262 -> 263 ;
264 [label="Speed_3 <= 0.5\nentropy = 0.45\nsamples = 7881\nvalue = [0, 71, 7340, 325, 145]\nclass = OK", fillcolor="#47e7c9"] ;
263 -> 264 ;
265 [label="Y <= 0.5\nentropy = 0.37\nsamples = 6679\nvalue = [0, 24, 6321, 221, 113]\nclass = OK", fillcolor="#44e6c8"] ;
264 -> 265 ;
266 [label="Mud_0 <= 2.5\nentropy = 0.67\nsamples = 1467\nvalue = [0, 24, 1297, 101, 45]\nclass = OK", fillcolor="#52e8cc"] ;
265 -> 266 ;
267 [label="Speed_0 <= 0.5\nentropy = 0.32\nsamples = 1077\nvalue = [0, 24, 1030, 11, 12]\nclass = OK", fillcolor="#42e6c8"] ;
266 -> 267 ;
268 [label="entropy = 0.11\nsamples = 838\nvalue = [0, 0, 827, 2, 9]\nclass = OK", fillcolor="#3ce5c6"] ;
267 -> 268 ;
269 [label="Mud_0 <= 1.5\nentropy = 0.79\nsamples = 239\nvalue = [0, 24, 203, 9, 3]\nclass = OK", fillcolor="#5ae9cf"] ;
267 -> 269 ;
270 [label="Mud_3 <= 2.5\nentropy = 0.82\nsamples = 141\nvalue = [0, 24, 114, 1, 2]\nclass = OK", fillcolor="#67ebd2"] ;
269 -> 270 ;
271 [label="entropy = 1.02\nsamples = 94\nvalue = [0, 23, 68, 1, 2]\nclass = OK", fillcolor="#82efda"] ;
270 -> 271 ;
272 [label="entropy = 0.15\nsamples = 47\nvalue = [0, 1, 46, 0, 0]\nclass = OK", fillcolor="#3de6c6"] ;
270 -> 272 ;
273 [label="entropy = 0.49\nsamples = 98\nvalue = [0, 0, 89, 8, 1]\nclass = OK", fillcolor="#4de8cb"] ;
269 -> 273 ;
274 [label="Mud_0 <= 3.5\nentropy = 1.16\nsamples = 390\nvalue = [0, 0, 267, 90, 33]\nclass = OK", fillcolor="#8af0dd"] ;
266 -> 274 ;
275 [label="entropy = 0.92\nsamples = 290\nvalue = [0, 0, 221, 60, 9]\nclass = OK", fillcolor="#74edd6"] ;
274 -> 275 ;
276 [label="Speed_0 <= 0.5\nentropy = 1.53\nsamples = 100\nvalue = [0, 0, 46, 30, 24]\nclass = OK", fillcolor="#d2f9f2"] ;
274 -> 276 ;
277 [label="Mud_1 <= 2.5\nentropy = 1.38\nsamples = 71\nvalue = [0, 0, 40, 21, 10]\nclass = OK", fillcolor="#b4f5e9"] ;
276 -> 277 ;
278 [label="entropy = 0.83\nsamples = 31\nvalue = [0, 0, 25, 5, 1]\nclass = OK", fillcolor="#67ebd2"] ;
277 -> 278 ;
279 [label="entropy = 1.54\nsamples = 40\nvalue = [0, 0, 15, 16, 9]\nclass = BAD", fillcolor="#f7f7fe"] ;
277 -> 279 ;
280 [label="Mud_0 <= 4.5\nentropy = 1.5\nsamples = 29\nvalue = [0, 0, 6, 9, 14]\nclass = TERRIBLE", fillcolor="#f8ceef"] ;
276 -> 280 ;
281 [label="entropy = 1.56\nsamples = 21\nvalue = [0, 0, 6, 9, 6]\nclass = BAD", fillcolor="#d8d7fa"] ;
280 -> 281 ;
282 [label="entropy = 0.0\nsamples = 8\nvalue = [0, 0, 0, 0, 8]\nclass = TERRIBLE", fillcolor="#e539c0"] ;
280 -> 282 ;
283 [label="Mud_3 <= 2.5\nentropy = 0.26\nsamples = 5212\nvalue = [0, 0, 5024, 120, 68]\nclass = OK", fillcolor="#40e6c7"] ;
265 -> 283 ;
284 [label="Y <= 1.5\nentropy = 0.2\nsamples = 3656\nvalue = [0, 0, 3561, 43, 52]\nclass = OK", fillcolor="#3ee6c7"] ;
283 -> 284 ;
285 [label="Mud_1 <= 2.5\nentropy = 0.34\nsamples = 1007\nvalue = [0, 0, 955, 39, 13]\nclass = OK", fillcolor="#44e6c8"] ;
284 -> 285 ;
286 [label="entropy = 0.15\nsamples = 787\nvalue = [0, 0, 772, 6, 9]\nclass = OK", fillcolor="#3de6c6"] ;
285 -> 286 ;
287 [label="entropy = 0.74\nsamples = 220\nvalue = [0, 0, 183, 33, 4]\nclass = OK", fillcolor="#60ead0"] ;
285 -> 287 ;
288 [label="Mud_1 <= 1.5\nentropy = 0.13\nsamples = 2649\nvalue = [0, 0, 2606, 4, 39]\nclass = OK", fillcolor="#3ce5c6"] ;
284 -> 288 ;
289 [label="entropy = 0.2\nsamples = 978\nvalue = [0, 0, 949, 1, 28]\nclass = OK", fillcolor="#3fe6c7"] ;
288 -> 289 ;
290 [label="entropy = 0.08\nsamples = 1671\nvalue = [0, 0, 1657, 3, 11]\nclass = OK", fillcolor="#3be5c5"] ;
288 -> 290 ;
291 [label="Y <= 2.5\nentropy = 0.37\nsamples = 1556\nvalue = [0, 0, 1463, 77, 16]\nclass = OK", fillcolor="#45e7c9"] ;
283 -> 291 ;
292 [label="Y <= 1.5\nentropy = 0.19\nsamples = 1222\nvalue = [0, 0, 1190, 26, 6]\nclass = OK", fillcolor="#3ee6c7"] ;
291 -> 292 ;
293 [label="Mud_1 <= 2.5\nentropy = 0.32\nsamples = 503\nvalue = [0, 0, 478, 21, 4]\nclass = OK", fillcolor="#43e6c8"] ;
292 -> 293 ;
294 [label="Speed_0 <= 0.5\nentropy = 0.13\nsamples = 385\nvalue = [0, 0, 379, 4, 2]\nclass = OK", fillcolor="#3ce5c6"] ;
293 -> 294 ;
295 [label="entropy = 0.03\nsamples = 331\nvalue = [0, 0, 330, 0, 1]\nclass = OK", fillcolor="#3ae5c5"] ;
294 -> 295 ;
296 [label="entropy = 0.51\nsamples = 54\nvalue = [0, 0, 49, 4, 1]\nclass = OK", fillcolor="#4de8cb"] ;
294 -> 296 ;
297 [label="Speed_0 <= 0.5\nentropy = 0.71\nsamples = 118\nvalue = [0, 0, 99, 17, 2]\nclass = OK", fillcolor="#5eead0"] ;
293 -> 297 ;
298 [label="entropy = 0.55\nsamples = 108\nvalue = [0, 0, 96, 11, 1]\nclass = OK", fillcolor="#51e8cc"] ;
297 -> 298 ;
299 [label="entropy = 1.3\nsamples = 10\nvalue = [0, 0, 3, 6, 1]\nclass = BAD", fillcolor="#abaaf4"] ;
297 -> 299 ;
300 [label="entropy = 0.09\nsamples = 719\nvalue = [0, 0, 712, 5, 2]\nclass = OK", fillcolor="#3be5c6"] ;
292 -> 300 ;
301 [label="Mud_2 <= 0.5\nentropy = 0.8\nsamples = 334\nvalue = [0, 0, 273, 51, 10]\nclass = OK", fillcolor="#64ebd2"] ;
291 -> 301 ;
302 [label="entropy = 0.0\nsamples = 43\nvalue = [0, 0, 43, 0, 0]\nclass = OK", fillcolor="#39e5c5"] ;
301 -> 302 ;
303 [label="entropy = 0.88\nsamples = 291\nvalue = [0, 0, 230, 51, 10]\nclass = OK", fillcolor="#6becd4"] ;
301 -> 303 ;
304 [label="Mud_3 <= 1.5\nentropy = 0.83\nsamples = 1202\nvalue = [0, 47, 1019, 104, 32]\nclass = OK", fillcolor="#5ae9cf"] ;
264 -> 304 ;
305 [label="Y <= 2.5\nentropy = 0.8\nsamples = 481\nvalue = [0, 46, 408, 21, 6]\nclass = OK", fillcolor="#5ae9cf"] ;
304 -> 305 ;
306 [label="Speed_0 <= 0.5\nentropy = 0.57\nsamples = 289\nvalue = [0, 4, 261, 20, 4]\nclass = OK", fillcolor="#4ee8cb"] ;
305 -> 306 ;
307 [label="Mud_0 <= 2.5\nentropy = 0.38\nsamples = 226\nvalue = [0, 0, 212, 11, 3]\nclass = OK", fillcolor="#46e7c9"] ;
306 -> 307 ;
308 [label="entropy = 0.14\nsamples = 151\nvalue = [0, 0, 148, 3, 0]\nclass = OK", fillcolor="#3de6c6"] ;
307 -> 308 ;
309 [label="entropy = 0.73\nsamples = 75\nvalue = [0, 0, 64, 8, 3]\nclass = OK", fillcolor="#5ae9cf"] ;
307 -> 309 ;
310 [label="entropy = 1.03\nsamples = 63\nvalue = [0, 4, 49, 9, 1]\nclass = OK", fillcolor="#6cecd4"] ;
306 -> 310 ;
311 [label="entropy = 0.88\nsamples = 192\nvalue = [0, 42, 147, 1, 2]\nclass = OK", fillcolor="#74edd6"] ;
305 -> 311 ;
312 [label="Y <= 2.5\nentropy = 0.75\nsamples = 721\nvalue = [0, 1, 611, 83, 26]\nclass = OK", fillcolor="#5be9cf"] ;
304 -> 312 ;
313 [label="Mud_0 <= 2.5\nentropy = 0.53\nsamples = 464\nvalue = [0, 1, 418, 40, 5]\nclass = OK", fillcolor="#4ee8cb"] ;
312 -> 313 ;
314 [label="entropy = 0.35\nsamples = 316\nvalue = [0, 1, 298, 16, 1]\nclass = OK", fillcolor="#45e7c8"] ;
313 -> 314 ;
315 [label="Y <= 0.5\nentropy = 0.81\nsamples = 148\nvalue = [0, 0, 120, 24, 4]\nclass = OK", fillcolor="#66ebd2"] ;
313 -> 315 ;
316 [label="entropy = 1.28\nsamples = 45\nvalue = [0, 0, 27, 14, 4]\nclass = OK", fillcolor="#acf4e7"] ;
315 -> 316 ;
317 [label="entropy = 0.46\nsamples = 103\nvalue = [0, 0, 93, 10, 0]\nclass = OK", fillcolor="#4ee8cb"] ;
315 -> 317 ;
318 [label="Mud_3 <= 3.5\nentropy = 1.04\nsamples = 257\nvalue = [0, 0, 193, 43, 21]\nclass = OK", fillcolor="#74edd6"] ;
312 -> 318 ;
319 [label="Mud_3 <= 2.5\nentropy = 0.7\nsamples = 214\nvalue = [0, 0, 182, 27, 5]\nclass = OK", fillcolor="#5be9cf"] ;
318 -> 319 ;
320 [label="entropy = 0.48\nsamples = 145\nvalue = [0, 0, 133, 9, 3]\nclass = OK", fillcolor="#4ae7ca"] ;
319 -> 320 ;
321 [label="entropy = 1.0\nsamples = 69\nvalue = [0, 0, 49, 18, 2]\nclass = OK", fillcolor="#87efdc"] ;
319 -> 321 ;
322 [label="entropy = 1.56\nsamples = 43\nvalue = [0, 0, 11, 16, 16]\nclass = BAD", fillcolor="#ffffff"] ;
318 -> 322 ;
323 [label="Mud_1 <= 1.5\nentropy = 0.93\nsamples = 1370\nvalue = [0, 67, 1127, 131, 45]\nclass = OK", fillcolor="#60ead0"] ;
263 -> 323 ;
324 [label="Y <= 1.5\nentropy = 0.84\nsamples = 570\nvalue = [0, 60, 477, 24, 9]\nclass = OK", fillcolor="#5dead0"] ;
323 -> 324 ;
325 [label="Y <= 0.5\nentropy = 0.98\nsamples = 332\nvalue = [0, 54, 260, 12, 6]\nclass = OK", fillcolor="#6cecd4"] ;
324 -> 325 ;
326 [label="entropy = 0.75\nsamples = 92\nvalue = [0, 3, 79, 9, 1]\nclass = OK", fillcolor="#58e9ce"] ;
325 -> 326 ;
327 [label="Mud_1 <= 0.5\nentropy = 0.98\nsamples = 240\nvalue = [0, 51, 181, 3, 5]\nclass = OK", fillcolor="#77edd7"] ;
325 -> 327 ;
328 [label="entropy = 1.22\nsamples = 75\nvalue = [0, 29, 42, 0, 4]\nclass = OK", fillcolor="#c7f8ef"] ;
327 -> 328 ;
329 [label="entropy = 0.75\nsamples = 165\nvalue = [0, 22, 139, 3, 1]\nclass = OK", fillcolor="#5dead0"] ;
327 -> 329 ;
330 [label="Speed_3 <= 0.5\nentropy = 0.55\nsamples = 238\nvalue = [0, 6, 217, 12, 3]\nclass = OK", fillcolor="#4be7ca"] ;
324 -> 330 ;
331 [label="entropy = 0.23\nsamples = 163\nvalue = [0, 0, 157, 6, 0]\nclass = OK", fillcolor="#41e6c7"] ;
330 -> 331 ;
332 [label="Mud_3 <= 1.5\nentropy = 1.03\nsamples = 75\nvalue = [0, 6, 60, 6, 3]\nclass = OK", fillcolor="#64ebd2"] ;
330 -> 332 ;
333 [label="entropy = 0.67\nsamples = 34\nvalue = [0, 6, 28, 0, 0]\nclass = OK", fillcolor="#63ebd1"] ;
332 -> 333 ;
334 [label="entropy = 0.96\nsamples = 41\nvalue = [0, 0, 32, 6, 3]\nclass = OK", fillcolor="#6cecd4"] ;
332 -> 334 ;
335 [label="Mud_1 <= 3.5\nentropy = 0.89\nsamples = 800\nvalue = [0, 7, 650, 107, 36]\nclass = OK", fillcolor="#64ebd2"] ;
323 -> 335 ;
336 [label="entropy = 0.71\nsamples = 641\nvalue = [0, 5, 552, 71, 13]\nclass = OK", fillcolor="#58e9ce"] ;
335 -> 336 ;
337 [label="Y <= 1.5\nentropy = 1.4\nsamples = 159\nvalue = [0, 2, 98, 36, 23]\nclass = OK", fillcolor="#9bf2e2"] ;
335 -> 337 ;
338 [label="Y <= 0.5\nentropy = 1.61\nsamples = 88\nvalue = [0, 1, 40, 24, 23]\nclass = OK", fillcolor="#cef8f0"] ;
337 -> 338 ;
339 [label="entropy = 1.04\nsamples = 29\nvalue = [0, 1, 23, 3, 2]\nclass = OK", fillcolor="#67ebd2"] ;
338 -> 339 ;
340 [label="entropy = 1.58\nsamples = 59\nvalue = [0, 0, 17, 21, 21]\nclass = BAD", fillcolor="#ffffff"] ;
338 -> 340 ;
341 [label="entropy = 0.76\nsamples = 71\nvalue = [0, 1, 58, 12, 0]\nclass = OK", fillcolor="#65ebd2"] ;
337 -> 341 ;
342 [label="Mud_2 <= 1.5\nentropy = 0.87\nsamples = 1690\nvalue = [0, 129, 1406, 136, 19]\nclass = OK", fillcolor="#5dead0"] ;
262 -> 342 ;
343 [label="Y <= 1.5\nentropy = 0.97\nsamples = 987\nvalue = [0, 119, 788, 67, 13]\nclass = OK", fillcolor="#66ebd2"] ;
342 -> 343 ;
344 [label="Mud_1 <= 2.5\nentropy = 0.85\nsamples = 354\nvalue = [0, 12, 296, 38, 8]\nclass = OK", fillcolor="#5dead0"] ;
343 -> 344 ;
345 [label="Mud_0 <= 1.5\nentropy = 0.71\nsamples = 246\nvalue = [0, 12, 214, 19, 1]\nclass = OK", fillcolor="#55e9cd"] ;
344 -> 345 ;
346 [label="Speed_0 <= 0.5\nentropy = 0.7\nsamples = 91\nvalue = [0, 9, 79, 2, 1]\nclass = OK", fillcolor="#56e9cd"] ;
345 -> 346 ;
347 [label="entropy = 0.4\nsamples = 65\nvalue = [0, 2, 61, 2, 0]\nclass = OK", fillcolor="#46e7c9"] ;
346 -> 347 ;
348 [label="entropy = 1.06\nsamples = 26\nvalue = [0, 7, 18, 0, 1]\nclass = OK", fillcolor="#8cf0dd"] ;
346 -> 348 ;
349 [label="entropy = 0.63\nsamples = 155\nvalue = [0, 3, 135, 17, 0]\nclass = OK", fillcolor="#56e9cd"] ;
345 -> 349 ;
350 [label="entropy = 1.0\nsamples = 108\nvalue = [0, 0, 82, 19, 7]\nclass = OK", fillcolor="#73edd6"] ;
344 -> 350 ;
351 [label="Y <= 2.5\nentropy = 0.98\nsamples = 633\nvalue = [0, 107, 492, 29, 5]\nclass = OK", fillcolor="#6eecd5"] ;
343 -> 351 ;
352 [label="Mud_2 <= 0.5\nentropy = 0.97\nsamples = 461\nvalue = [0, 98, 348, 10, 5]\nclass = OK", fillcolor="#77edd7"] ;
351 -> 352 ;
353 [label="entropy = 1.03\nsamples = 160\nvalue = [0, 52, 105, 0, 3]\nclass = OK", fillcolor="#9ef2e3"] ;
352 -> 353 ;
354 [label="entropy = 0.87\nsamples = 301\nvalue = [0, 46, 243, 10, 2]\nclass = OK", fillcolor="#66ebd2"] ;
352 -> 354 ;
355 [label="Mud_3 <= 1.5\nentropy = 0.79\nsamples = 172\nvalue = [0, 9, 144, 19, 0]\nclass = OK", fillcolor="#5dead0"] ;
351 -> 355 ;
356 [label="Speed_3 <= 0.5\nentropy = 0.63\nsamples = 75\nvalue = [0, 9, 65, 1, 0]\nclass = OK", fillcolor="#57e9ce"] ;
355 -> 356 ;
357 [label="entropy = 0.15\nsamples = 48\nvalue = [0, 0, 47, 1, 0]\nclass = OK", fillcolor="#3de6c6"] ;
356 -> 357 ;
358 [label="entropy = 0.92\nsamples = 27\nvalue = [0, 9, 18, 0, 0]\nclass = OK", fillcolor="#9cf2e2"] ;
356 -> 358 ;
359 [label="entropy = 0.69\nsamples = 97\nvalue = [0, 0, 79, 18, 0]\nclass = OK", fillcolor="#66ebd2"] ;
355 -> 359 ;
360 [label="entropy = 0.64\nsamples = 703\nvalue = [0, 10, 618, 69, 6]\nclass = OK", fillcolor="#54e8cd"] ;
342 -> 360 ;
361 [label="Speed_2 <= 0.5\nentropy = 0.86\nsamples = 5216\nvalue = [0, 86, 4322, 621, 187]\nclass = OK", fillcolor="#60ead0"] ;
261 -> 361 ;
362 [label="Mud_3 <= 2.5\nentropy = 0.77\nsamples = 4490\nvalue = [0, 77, 3834, 458, 121]\nclass = OK", fillcolor="#59e9ce"] ;
361 -> 362 ;
363 [label="Y <= 2.5\nentropy = 0.64\nsamples = 3073\nvalue = [0, 61, 2731, 229, 52]\nclass = OK", fillcolor="#51e8cc"] ;
362 -> 363 ;
364 [label="Mud_1 <= 2.5\nentropy = 0.74\nsamples = 2074\nvalue = [0, 31, 1782, 216, 45]\nclass = OK", fillcolor="#58e9ce"] ;
363 -> 364 ;
365 [label="Y <= 1.5\nentropy = 0.61\nsamples = 1450\nvalue = [0, 30, 1294, 113, 13]\nclass = OK", fillcolor="#50e8cc"] ;
364 -> 365 ;
366 [label="Mud_0 <= 2.5\nentropy = 0.54\nsamples = 1096\nvalue = [0, 30, 1003, 50, 13]\nclass = OK", fillcolor="#4be7ca"] ;
365 -> 366 ;
367 [label="Speed_1 <= 0.5\nentropy = 0.39\nsamples = 770\nvalue = [0, 26, 726, 11, 7]\nclass = OK", fillcolor="#45e7c8"] ;
366 -> 367 ;
368 [label="Speed_0 <= 0.5\nentropy = 0.26\nsamples = 633\nvalue = [0, 11, 612, 4, 6]\nclass = OK", fillcolor="#40e6c7"] ;
367 -> 368 ;
369 [label="entropy = 0.11\nsamples = 523\nvalue = [0, 0, 516, 2, 5]\nclass = OK", fillcolor="#3ce5c6"] ;
368 -> 369 ;
370 [label="Mud_0 <= 1.5\nentropy = 0.67\nsamples = 110\nvalue = [0, 11, 96, 2, 1]\nclass = OK", fillcolor="#55e9cd"] ;
368 -> 370 ;
371 [label="entropy = 0.8\nsamples = 60\nvalue = [0, 11, 48, 1, 0]\nclass = OK", fillcolor="#69ebd3"] ;
370 -> 371 ;
372 [label="entropy = 0.28\nsamples = 50\nvalue = [0, 0, 48, 1, 1]\nclass = OK", fillcolor="#41e6c7"] ;
370 -> 372 ;
373 [label="Y <= 0.5\nentropy = 0.84\nsamples = 137\nvalue = [0, 15, 114, 7, 1]\nclass = OK", fillcolor="#5eead0"] ;
367 -> 373 ;
374 [label="entropy = 0.62\nsamples = 39\nvalue = [0, 0, 33, 6, 0]\nclass = OK", fillcolor="#5dead0"] ;
373 -> 374 ;
375 [label="Mud_1 <= 1.5\nentropy = 0.78\nsamples = 98\nvalue = [0, 15, 81, 1, 1]\nclass = OK", fillcolor="#62ead1"] ;
373 -> 375 ;
376 [label="entropy = 0.89\nsamples = 65\nvalue = [0, 15, 49, 0, 1]\nclass = OK", fillcolor="#78edd8"] ;
375 -> 376 ;
377 [label="entropy = 0.2\nsamples = 33\nvalue = [0, 0, 32, 1, 0]\nclass = OK", fillcolor="#3fe6c7"] ;
375 -> 377 ;
378 [label="Y <= 0.5\nentropy = 0.75\nsamples = 326\nvalue = [0, 4, 277, 39, 6]\nclass = OK", fillcolor="#5be9cf"] ;
366 -> 378 ;
379 [label="Mud_0 <= 4.5\nentropy = 1.08\nsamples = 122\nvalue = [0, 0, 83, 34, 5]\nclass = OK", fillcolor="#91f1df"] ;
378 -> 379 ;
380 [label="entropy = 0.93\nsamples = 113\nvalue = [0, 0, 80, 32, 1]\nclass = OK", fillcolor="#8af0dd"] ;
379 -> 380 ;
381 [label="entropy = 1.53\nsamples = 9\nvalue = [0, 0, 3, 2, 4]\nclass = TERRIBLE", fillcolor="#fbdef4"] ;
379 -> 381 ;
382 [label="entropy = 0.35\nsamples = 204\nvalue = [0, 4, 194, 5, 1]\nclass = OK", fillcolor="#43e6c8"] ;
378 -> 382 ;
383 [label="entropy = 0.68\nsamples = 354\nvalue = [0, 0, 291, 63, 0]\nclass = OK", fillcolor="#64ebd2"] ;
365 -> 383 ;
384 [label="Mud_0 <= 2.5\nentropy = 0.94\nsamples = 624\nvalue = [0, 1, 488, 103, 32]\nclass = OK", fillcolor="#6decd4"] ;
364 -> 384 ;
385 [label="Y <= 0.5\nentropy = 0.77\nsamples = 420\nvalue = [0, 1, 352, 54, 13]\nclass = OK", fillcolor="#5eead0"] ;
384 -> 385 ;
386 [label="entropy = 0.29\nsamples = 175\nvalue = [0, 1, 168, 5, 1]\nclass = OK", fillcolor="#41e6c7"] ;
385 -> 386 ;
387 [label="entropy = 0.99\nsamples = 245\nvalue = [0, 0, 184, 49, 12]\nclass = OK", fillcolor="#77edd7"] ;
385 -> 387 ;
388 [label="Y <= 1.5\nentropy = 1.2\nsamples = 204\nvalue = [0, 0, 136, 49, 19]\nclass = OK", fillcolor="#90f0de"] ;
384 -> 388 ;
389 [label="entropy = 1.33\nsamples = 148\nvalue = [0, 0, 89, 40, 19]\nclass = OK", fillcolor="#a5f3e5"] ;
388 -> 389 ;
390 [label="entropy = 0.64\nsamples = 56\nvalue = [0, 0, 47, 9, 0]\nclass = OK", fillcolor="#5fead0"] ;
388 -> 390 ;
391 [label="Speed_3 <= 0.5\nentropy = 0.35\nsamples = 999\nvalue = [0, 30, 949, 13, 7]\nclass = OK", fillcolor="#43e6c8"] ;
363 -> 391 ;
392 [label="entropy = 0.09\nsamples = 769\nvalue = [0, 0, 761, 2, 6]\nclass = OK", fillcolor="#3be5c6"] ;
391 -> 392 ;
393 [label="Mud_3 <= 1.5\nentropy = 0.86\nsamples = 230\nvalue = [0, 30, 188, 11, 1]\nclass = OK", fillcolor="#63ead1"] ;
391 -> 393 ;
394 [label="entropy = 0.97\nsamples = 144\nvalue = [0, 30, 109, 4, 1]\nclass = OK", fillcolor="#76edd7"] ;
393 -> 394 ;
395 [label="entropy = 0.41\nsamples = 86\nvalue = [0, 0, 79, 7, 0]\nclass = OK", fillcolor="#4be7ca"] ;
393 -> 395 ;
396 [label="Y <= 1.5\nentropy = 0.99\nsamples = 1417\nvalue = [0, 16, 1103, 229, 69]\nclass = OK", fillcolor="#6decd4"] ;
362 -> 396 ;
397 [label="Mud_1 <= 2.5\nentropy = 0.65\nsamples = 752\nvalue = [0, 16, 667, 56, 13]\nclass = OK", fillcolor="#51e8cc"] ;
396 -> 397 ;
398 [label="Speed_0 <= 0.5\nentropy = 0.4\nsamples = 527\nvalue = [0, 13, 496, 16, 2]\nclass = OK", fillcolor="#45e7c9"] ;
397 -> 398 ;
399 [label="Speed_1 <= 0.5\nentropy = 0.26\nsamples = 434\nvalue = [0, 5, 419, 9, 1]\nclass = OK", fillcolor="#40e6c7"] ;
398 -> 399 ;
400 [label="entropy = 0.18\nsamples = 358\nvalue = [0, 0, 349, 8, 1]\nclass = OK", fillcolor="#3ee6c6"] ;
399 -> 400 ;
401 [label="entropy = 0.45\nsamples = 76\nvalue = [0, 5, 70, 1, 0]\nclass = OK", fillcolor="#4ae7ca"] ;
399 -> 401 ;
402 [label="Mud_0 <= 1.5\nentropy = 0.88\nsamples = 93\nvalue = [0, 8, 77, 7, 1]\nclass = OK", fillcolor="#5eead0"] ;
398 -> 402 ;
403 [label="entropy = 0.76\nsamples = 36\nvalue = [0, 8, 28, 0, 0]\nclass = OK", fillcolor="#72ecd6"] ;
402 -> 403 ;
404 [label="entropy = 0.66\nsamples = 57\nvalue = [0, 0, 49, 7, 1]\nclass = OK", fillcolor="#59e9ce"] ;
402 -> 404 ;
405 [label="Y <= 0.5\nentropy = 1.04\nsamples = 225\nvalue = [0, 3, 171, 40, 11]\nclass = OK", fillcolor="#73edd6"] ;
397 -> 405 ;
406 [label="Mud_0 <= 2.5\nentropy = 0.67\nsamples = 109\nvalue = [0, 3, 97, 5, 4]\nclass = OK", fillcolor="#50e8cc"] ;
405 -> 406 ;
407 [label="entropy = 0.33\nsamples = 80\nvalue = [0, 3, 76, 0, 1]\nclass = OK", fillcolor="#43e6c8"] ;
406 -> 407 ;
408 [label="entropy = 1.11\nsamples = 29\nvalue = [0, 0, 21, 5, 3]\nclass = OK", fillcolor="#7beed8"] ;
406 -> 408 ;
409 [label="entropy = 1.18\nsamples = 116\nvalue = [0, 0, 74, 35, 7]\nclass = OK", fillcolor="#a0f2e3"] ;
405 -> 409 ;
410 [label="Mud_3 <= 3.5\nentropy = 1.21\nsamples = 665\nvalue = [0, 0, 436, 173, 56]\nclass = OK", fillcolor="#95f1e0"] ;
396 -> 410 ;
411 [label="Mud_2 <= 3.5\nentropy = 1.03\nsamples = 405\nvalue = [0, 0, 288, 101, 16]\nclass = OK", fillcolor="#85efdb"] ;
410 -> 411 ;
412 [label="entropy = 0.87\nsamples = 241\nvalue = [0, 0, 180, 59, 2]\nclass = OK", fillcolor="#7beed8"] ;
411 -> 412 ;
413 [label="entropy = 1.2\nsamples = 164\nvalue = [0, 0, 108, 42, 14]\nclass = OK", fillcolor="#94f1e0"] ;
411 -> 413 ;
414 [label="Y <= 2.5\nentropy = 1.39\nsamples = 260\nvalue = [0, 0, 148, 72, 40]\nclass = OK", fillcolor="#aff4e8"] ;
410 -> 414 ;
415 [label="entropy = 1.12\nsamples = 139\nvalue = [0, 0, 95, 36, 8]\nclass = OK", fillcolor="#8ef0de"] ;
414 -> 415 ;
416 [label="entropy = 1.55\nsamples = 121\nvalue = [0, 0, 53, 36, 32]\nclass = OK", fillcolor="#d7faf3"] ;
414 -> 416 ;
417 [label="Y <= 1.5\nentropy = 1.26\nsamples = 726\nvalue = [0, 9, 488, 163, 66]\nclass = OK", fillcolor="#8df0de"] ;
361 -> 417 ;
418 [label="Mud_1 <= 2.5\nentropy = 0.89\nsamples = 279\nvalue = [0, 7, 230, 33, 9]\nclass = OK", fillcolor="#60ead1"] ;
417 -> 418 ;
419 [label="entropy = 0.59\nsamples = 183\nvalue = [0, 6, 163, 14, 0]\nclass = OK", fillcolor="#50e8cc"] ;
418 -> 419 ;
420 [label="Mud_0 <= 3.5\nentropy = 1.21\nsamples = 96\nvalue = [0, 1, 67, 19, 9]\nclass = OK", fillcolor="#84efdb"] ;
418 -> 420 ;
421 [label="Y <= 0.5\nentropy = 0.97\nsamples = 78\nvalue = [0, 1, 61, 13, 3]\nclass = OK", fillcolor="#6decd4"] ;
420 -> 421 ;
422 [label="entropy = 0.54\nsamples = 50\nvalue = [0, 1, 45, 4, 0]\nclass = OK", fillcolor="#4fe8cb"] ;
421 -> 422 ;
423 [label="entropy = 1.33\nsamples = 28\nvalue = [0, 0, 16, 9, 3]\nclass = OK", fillcolor="#b6f5ea"] ;
421 -> 423 ;
424 [label="entropy = 1.58\nsamples = 18\nvalue = [0, 0, 6, 6, 6]\nclass = OK", fillcolor="#ffffff"] ;
420 -> 424 ;
425 [label="Mud_2 <= 3.5\nentropy = 1.39\nsamples = 447\nvalue = [0, 2, 258, 130, 57]\nclass = OK", fillcolor="#aff5e8"] ;
417 -> 425 ;
426 [label="entropy = 1.15\nsamples = 281\nvalue = [0, 1, 194, 67, 19]\nclass = OK", fillcolor="#89f0dd"] ;
425 -> 426 ;
427 [label="Y <= 2.5\nentropy = 1.59\nsamples = 166\nvalue = [0, 1, 64, 63, 38]\nclass = OK", fillcolor="#fdfffe"] ;
425 -> 427 ;
428 [label="Mud_2 <= 4.5\nentropy = 1.53\nsamples = 122\nvalue = [0, 0, 29, 57, 36]\nclass = BAD", fillcolor="#cfcff9"] ;
427 -> 428 ;
429 [label="entropy = 1.52\nsamples = 84\nvalue = [0, 0, 28, 38, 18]\nclass = BAD", fillcolor="#dcdcfa"] ;
428 -> 429 ;
430 [label="entropy = 1.15\nsamples = 38\nvalue = [0, 0, 1, 19, 18]\nclass = BAD", fillcolor="#f5f5fe"] ;
428 -> 430 ;
431 [label="Mud_1 <= 2.5\nentropy = 0.98\nsamples = 44\nvalue = [0, 1, 35, 6, 2]\nclass = OK", fillcolor="#68ebd3"] ;
427 -> 431 ;
432 [label="entropy = 0.53\nsamples = 32\nvalue = [0, 1, 29, 0, 2]\nclass = OK", fillcolor="#4de8cb"] ;
431 -> 432 ;
433 [label="entropy = 1.0\nsamples = 12\nvalue = [0, 0, 6, 6, 0]\nclass = OK", fillcolor="#ffffff"] ;
431 -> 433 ;
434 [label="Mud_1 <= 0.5\nentropy = 1.33\nsamples = 4790\nvalue = [0, 260, 3284, 899, 347]\nclass = OK", fillcolor="#86efdb"] ;
260 -> 434 ;
435 [label="Speed_1 <= 0.5\nentropy = 1.45\nsamples = 615\nvalue = [0, 106, 396, 83, 30]\nclass = OK", fillcolor="#8ef0de"] ;
434 -> 435 ;
436 [label="Y <= 0.5\nentropy = 1.23\nsamples = 421\nvalue = [0, 20, 303, 73, 25]\nclass = OK", fillcolor="#7ceed9"] ;
435 -> 436 ;
437 [label="entropy = 0.41\nsamples = 74\nvalue = [0, 0, 69, 4, 1]\nclass = OK", fillcolor="#47e7c9"] ;
436 -> 437 ;
438 [label="Mud_0 <= 0.5\nentropy = 1.35\nsamples = 347\nvalue = [0, 20, 234, 69, 24]\nclass = OK", fillcolor="#89f0dd"] ;
436 -> 438 ;
439 [label="Y <= 1.5\nentropy = 1.64\nsamples = 29\nvalue = [0, 9, 14, 5, 1]\nclass = OK", fillcolor="#cef8f0"] ;
438 -> 439 ;
440 [label="entropy = 1.29\nsamples = 14\nvalue = [0, 9, 3, 2, 0]\nclass = GOOD", fillcolor="#b7f193"] ;
439 -> 440 ;
441 [label="entropy = 1.05\nsamples = 15\nvalue = [0, 0, 11, 3, 1]\nclass = OK", fillcolor="#7beed8"] ;
439 -> 441 ;
442 [label="Speed_3 <= 0.5\nentropy = 1.28\nsamples = 318\nvalue = [0, 11, 220, 64, 23]\nclass = OK", fillcolor="#85efdb"] ;
438 -> 442 ;
443 [label="Mud_2 <= 0.5\nentropy = 1.06\nsamples = 208\nvalue = [0, 6, 155, 42, 5]\nclass = OK", fillcolor="#78edd8"] ;
442 -> 443 ;
444 [label="Speed_2 <= 0.5\nentropy = 1.5\nsamples = 29\nvalue = [0, 6, 18, 3, 2]\nclass = OK", fillcolor="#98f1e1"] ;
443 -> 444 ;
445 [label="entropy = 0.94\nsamples = 18\nvalue = [0, 0, 14, 3, 1]\nclass = OK", fillcolor="#6eecd4"] ;
444 -> 445 ;
446 [label="entropy = 1.32\nsamples = 11\nvalue = [0, 6, 4, 0, 1]\nclass = GOOD", fillcolor="#d9f8c6"] ;
444 -> 446 ;
447 [label="entropy = 0.87\nsamples = 179\nvalue = [0, 0, 137, 39, 3]\nclass = OK", fillcolor="#74edd6"] ;
443 -> 447 ;
448 [label="Mud_3 <= 0.5\nentropy = 1.54\nsamples = 110\nvalue = [0, 5, 65, 22, 18]\nclass = OK", fillcolor="#9ef2e3"] ;
442 -> 448 ;
449 [label="entropy = 1.75\nsamples = 8\nvalue = [0, 4, 2, 1, 1]\nclass = GOOD", fillcolor="#d3f6bd"] ;
448 -> 449 ;
450 [label="entropy = 1.4\nsamples = 102\nvalue = [0, 1, 63, 21, 17]\nclass = OK", fillcolor="#98f2e1"] ;
448 -> 450 ;
451 [label="Y <= 2.5\nentropy = 1.39\nsamples = 194\nvalue = [0, 86, 93, 10, 5]\nclass = OK", fillcolor="#f2fdfb"] ;
435 -> 451 ;
452 [label="Speed_0 <= 0.5\nentropy = 1.22\nsamples = 158\nvalue = [0, 85, 67, 4, 2]\nclass = GOOD", fillcolor="#e5fad8"] ;
451 -> 452 ;
453 [label="entropy = 1.08\nsamples = 126\nvalue = [0, 72, 52, 0, 2]\nclass = GOOD", fillcolor="#dbf8c9"] ;
452 -> 453 ;
454 [label="entropy = 1.42\nsamples = 32\nvalue = [0, 13, 15, 4, 0]\nclass = OK", fillcolor="#eafcf9"] ;
452 -> 454 ;
455 [label="entropy = 1.21\nsamples = 36\nvalue = [0, 1, 26, 6, 3]\nclass = OK", fillcolor="#7beed8"] ;
451 -> 455 ;
456 [label="Mud_2 <= 0.5\nentropy = 1.29\nsamples = 4175\nvalue = [0, 154, 2888, 816, 317]\nclass = OK", fillcolor="#85efdb"] ;
434 -> 456 ;
457 [label="Speed_2 <= 0.5\nentropy = 1.34\nsamples = 512\nvalue = [0, 67, 356, 63, 26]\nclass = OK", fillcolor="#7eeed9"] ;
456 -> 457 ;
458 [label="Y <= 2.5\nentropy = 1.06\nsamples = 370\nvalue = [0, 10, 289, 46, 25]\nclass = OK", fillcolor="#6aecd4"] ;
457 -> 458 ;
459 [label="entropy = 1.19\nsamples = 305\nvalue = [0, 10, 225, 45, 25]\nclass = OK", fillcolor="#76edd7"] ;
458 -> 459 ;
460 [label="entropy = 0.11\nsamples = 65\nvalue = [0, 0, 64, 1, 0]\nclass = OK", fillcolor="#3ce5c6"] ;
458 -> 460 ;
461 [label="Y <= 0.5\nentropy = 1.46\nsamples = 142\nvalue = [0, 57, 67, 17, 1]\nclass = OK", fillcolor="#e8fcf8"] ;
457 -> 461 ;
462 [label="entropy = 1.18\nsamples = 29\nvalue = [0, 0, 15, 13, 1]\nclass = OK", fillcolor="#e6fcf8"] ;
461 -> 462 ;
463 [label="entropy = 1.18\nsamples = 113\nvalue = [0, 57, 52, 4, 0]\nclass = GOOD", fillcolor="#f4fdef"] ;
461 -> 463 ;
464 [label="Mud_3 <= 0.5\nentropy = 1.26\nsamples = 3663\nvalue = [0, 87, 2532, 753, 291]\nclass = OK", fillcolor="#86efdc"] ;
456 -> 464 ;
465 [label="Speed_3 <= 0.5\nentropy = 1.43\nsamples = 457\nvalue = [0, 55, 306, 61, 35]\nclass = OK", fillcolor="#84efdb"] ;
464 -> 465 ;
466 [label="Mud_0 <= 0.5\nentropy = 1.15\nsamples = 326\nvalue = [0, 7, 243, 45, 31]\nclass = OK", fillcolor="#73edd6"] ;
465 -> 466 ;
467 [label="Speed_0 <= 0.5\nentropy = 1.23\nsamples = 38\nvalue = [0, 7, 27, 3, 1]\nclass = OK", fillcolor="#7feeda"] ;
466 -> 467 ;
468 [label="entropy = 0.65\nsamples = 18\nvalue = [0, 0, 15, 3, 0]\nclass = OK", fillcolor="#61ead1"] ;
467 -> 468 ;
469 [label="entropy = 1.19\nsamples = 20\nvalue = [0, 7, 12, 0, 1]\nclass = OK", fillcolor="#b3f5e9"] ;
467 -> 469 ;
470 [label="Mud_0 <= 2.5\nentropy = 1.06\nsamples = 288\nvalue = [0, 0, 216, 42, 30]\nclass = OK", fillcolor="#73edd6"] ;
466 -> 470 ;
471 [label="entropy = 0.79\nsamples = 163\nvalue = [0, 0, 137, 16, 10]\nclass = OK", fillcolor="#5ceacf"] ;
470 -> 471 ;
472 [label="Move <= 1.5\nentropy = 1.31\nsamples = 125\nvalue = [0, 0, 79, 26, 20]\nclass = OK", fillcolor="#95f1e0"] ;
470 -> 472 ;
473 [label="entropy = 1.55\nsamples = 54\nvalue = [0, 0, 23, 17, 14]\nclass = OK", fillcolor="#dffbf6"] ;
472 -> 473 ;
474 [label="entropy = 0.95\nsamples = 71\nvalue = [0, 0, 56, 9, 6]\nclass = OK", fillcolor="#69ebd3"] ;
472 -> 474 ;
475 [label="Y <= 1.5\nentropy = 1.56\nsamples = 131\nvalue = [0, 48, 63, 16, 4]\nclass = OK", fillcolor="#dbfaf5"] ;
465 -> 475 ;
476 [label="entropy = 1.44\nsamples = 44\nvalue = [0, 2, 26, 13, 3]\nclass = OK", fillcolor="#acf4e7"] ;
475 -> 476 ;
477 [label="Move <= 1.5\nentropy = 1.25\nsamples = 87\nvalue = [0, 46, 37, 3, 1]\nclass = GOOD", fillcolor="#e7fadb"] ;
475 -> 477 ;
478 [label="entropy = 1.05\nsamples = 15\nvalue = [0, 0, 11, 3, 1]\nclass = OK", fillcolor="#7beed8"] ;
477 -> 478 ;
479 [label="entropy = 0.94\nsamples = 72\nvalue = [0, 46, 26, 0, 0]\nclass = GOOD", fillcolor="#c6f4a9"] ;
477 -> 479 ;
480 [label="Mud_0 <= 0.5\nentropy = 1.2\nsamples = 3206\nvalue = [0, 32, 2226, 692, 256]\nclass = OK", fillcolor="#86efdc"] ;
464 -> 480 ;
481 [label="Speed_0 <= 0.5\nentropy = 1.5\nsamples = 369\nvalue = [0, 32, 231, 75, 31]\nclass = OK", fillcolor="#96f1e0"] ;
480 -> 481 ;
482 [label="entropy = 1.21\nsamples = 263\nvalue = [0, 0, 176, 60, 27]\nclass = OK", fillcolor="#8ef0de"] ;
481 -> 482 ;
483 [label="Y <= 1.5\nentropy = 1.59\nsamples = 106\nvalue = [0, 32, 55, 15, 4]\nclass = OK", fillcolor="#c1f7ed"] ;
481 -> 483 ;
484 [label="Move <= 1.5\nentropy = 1.21\nsamples = 55\nvalue = [0, 32, 20, 3, 0]\nclass = GOOD", fillcolor="#d2f6bb"] ;
483 -> 484 ;
485 [label="entropy = 0.93\nsamples = 49\nvalue = [0, 32, 17, 0, 0]\nclass = GOOD", fillcolor="#c1f3a2"] ;
484 -> 485 ;
486 [label="entropy = 1.0\nsamples = 6\nvalue = [0, 0, 3, 3, 0]\nclass = OK", fillcolor="#ffffff"] ;
484 -> 486 ;
487 [label="entropy = 1.15\nsamples = 51\nvalue = [0, 0, 35, 12, 4]\nclass = OK", fillcolor="#8af0dd"] ;
483 -> 487 ;
488 [label="Mud_2 <= 2.5\nentropy = 1.13\nsamples = 2837\nvalue = [0, 0, 1995, 617, 225]\nclass = OK", fillcolor="#84efdb"] ;
480 -> 488 ;
489 [label="Speed_2 <= 0.5\nentropy = 1.01\nsamples = 1706\nvalue = [0, 0, 1279, 325, 102]\nclass = OK", fillcolor="#76edd7"] ;
488 -> 489 ;
490 [label="Y <= 2.5\nentropy = 1.06\nsamples = 1201\nvalue = [0, 0, 881, 230, 90]\nclass = OK", fillcolor="#7aeed8"] ;
489 -> 490 ;
491 [label="entropy = 1.12\nsamples = 1028\nvalue = [0, 0, 732, 211, 85]\nclass = OK", fillcolor="#81eeda"] ;
490 -> 491 ;
492 [label="entropy = 0.68\nsamples = 173\nvalue = [0, 0, 149, 19, 5]\nclass = OK", fillcolor="#58e9ce"] ;
490 -> 492 ;
493 [label="entropy = 0.85\nsamples = 505\nvalue = [0, 0, 398, 95, 12]\nclass = OK", fillcolor="#6decd4"] ;
489 -> 493 ;
494 [label="Speed_2 <= 0.5\nentropy = 1.27\nsamples = 1131\nvalue = [0, 0, 716, 292, 123]\nclass = OK", fillcolor="#9bf2e2"] ;
488 -> 494 ;
495 [label="Mud_1 <= 1.5\nentropy = 1.1\nsamples = 833\nvalue = [0, 0, 589, 190, 54]\nclass = OK", fillcolor="#84efdb"] ;
494 -> 495 ;
496 [label="entropy = 0.85\nsamples = 278\nvalue = [0, 0, 221, 49, 8]\nclass = OK", fillcolor="#6aebd3"] ;
495 -> 496 ;
497 [label="entropy = 1.19\nsamples = 555\nvalue = [0, 0, 368, 141, 46]\nclass = OK", fillcolor="#92f1df"] ;
495 -> 497 ;
498 [label="Y <= 0.5\nentropy = 1.54\nsamples = 298\nvalue = [0, 0, 127, 102, 69]\nclass = OK", fillcolor="#e6fcf8"] ;
494 -> 498 ;
499 [label="entropy = 1.05\nsamples = 57\nvalue = [0, 0, 42, 11, 4]\nclass = OK", fillcolor="#7aedd8"] ;
498 -> 499 ;
500 [label="Mud_2 <= 3.5\nentropy = 1.57\nsamples = 241\nvalue = [0, 0, 85, 91, 65]\nclass = BAD", fillcolor="#f8f7fe"] ;
498 -> 500 ;
501 [label="entropy = 1.49\nsamples = 140\nvalue = [0, 0, 65, 50, 25]\nclass = OK", fillcolor="#defbf5"] ;
500 -> 501 ;
502 [label="Mud_2 <= 4.5\nentropy = 1.52\nsamples = 101\nvalue = [0, 0, 20, 41, 40]\nclass = BAD", fillcolor="#fcfcff"] ;
500 -> 502 ;
503 [label="entropy = 1.43\nsamples = 71\nvalue = [0, 0, 11, 37, 23]\nclass = BAD", fillcolor="#c6c5f7"] ;
502 -> 503 ;
504 [label="entropy = 1.37\nsamples = 30\nvalue = [0, 0, 9, 4, 17]\nclass = TERRIBLE", fillcolor="#f5b4e7"] ;
502 -> 504 ;
505 [label="Speed_1 <= 0.5\nentropy = 1.24\nsamples = 17752\nvalue = [0, 365, 12335, 3625, 1427]\nclass = OK", fillcolor="#85efdb"] ;
259 -> 505 ;
506 [label="Speed_2 <= 0.5\nentropy = 1.15\nsamples = 14587\nvalue = [0, 225, 10565, 2807, 990]\nclass = OK", fillcolor="#7deed9"] ;
505 -> 506 ;
507 [label="Speed_3 <= 0.5\nentropy = 1.04\nsamples = 11981\nvalue = [0, 126, 9079, 2130, 646]\nclass = OK", fillcolor="#73edd6"] ;
506 -> 507 ;
508 [label="Speed_0 <= 0.5\nentropy = 0.92\nsamples = 9746\nvalue = [0, 51, 7701, 1609, 385]\nclass = OK", fillcolor="#6becd4"] ;
507 -> 508 ;
509 [label="Mud_2 <= 1.5\nentropy = 0.77\nsamples = 8008\nvalue = [0, 0, 6616, 1204, 188]\nclass = OK", fillcolor="#62ead1"] ;
508 -> 509 ;
510 [label="Y <= 1.5\nentropy = 0.58\nsamples = 2969\nvalue = [0, 0, 2632, 280, 57]\nclass = OK", fillcolor="#52e8cc"] ;
509 -> 510 ;
511 [label="Mud_1 <= 1.5\nentropy = 0.73\nsamples = 1307\nvalue = [0, 0, 1095, 186, 26]\nclass = OK", fillcolor="#5eead0"] ;
510 -> 511 ;
512 [label="Y <= 0.5\nentropy = 0.39\nsamples = 522\nvalue = [0, 0, 489, 24, 9]\nclass = OK", fillcolor="#46e7c9"] ;
511 -> 512 ;
513 [label="Mud_0 <= 1.5\nentropy = 0.65\nsamples = 206\nvalue = [0, 0, 179, 22, 5]\nclass = OK", fillcolor="#56e9ce"] ;
512 -> 513 ;
514 [label="entropy = 0.3\nsamples = 75\nvalue = [0, 0, 71, 0, 4]\nclass = OK", fillcolor="#44e6c8"] ;
513 -> 514 ;
515 [label="Move <= 1.0\nentropy = 0.72\nsamples = 131\nvalue = [0, 0, 108, 22, 1]\nclass = OK", fillcolor="#63ead1"] ;
513 -> 515 ;
516 [label="entropy = 0.98\nsamples = 73\nvalue = [0, 0, 50, 22, 1]\nclass = OK", fillcolor="#92f1df"] ;
515 -> 516 ;
517 [label="entropy = 0.0\nsamples = 58\nvalue = [0, 0, 58, 0, 0]\nclass = OK", fillcolor="#39e5c5"] ;
515 -> 517 ;
518 [label="entropy = 0.15\nsamples = 316\nvalue = [0, 0, 310, 2, 4]\nclass = OK", fillcolor="#3de6c6"] ;
512 -> 518 ;
519 [label="Move <= 0.5\nentropy = 0.88\nsamples = 785\nvalue = [0, 0, 606, 162, 17]\nclass = OK", fillcolor="#72ecd6"] ;
511 -> 519 ;
520 [label="Mud_0 <= 1.5\nentropy = 0.96\nsamples = 565\nvalue = [0, 0, 410, 143, 12]\nclass = OK", fillcolor="#82efda"] ;
519 -> 520 ;
521 [label="Y <= 0.5\nentropy = 0.65\nsamples = 245\nvalue = [0, 0, 209, 34, 2]\nclass = OK", fillcolor="#5be9cf"] ;
520 -> 521 ;
522 [label="entropy = 0.25\nsamples = 143\nvalue = [0, 0, 138, 3, 2]\nclass = OK", fillcolor="#40e6c7"] ;
521 -> 522 ;
523 [label="entropy = 0.89\nsamples = 102\nvalue = [0, 0, 71, 31, 0]\nclass = OK", fillcolor="#8ff0de"] ;
521 -> 523 ;
524 [label="Mud_1 <= 2.5\nentropy = 1.11\nsamples = 320\nvalue = [0, 0, 201, 109, 10]\nclass = OK", fillcolor="#a9f4e6"] ;
520 -> 524 ;
525 [label="entropy = 0.87\nsamples = 170\nvalue = [0, 0, 121, 49, 0]\nclass = OK", fillcolor="#89f0dc"] ;
524 -> 525 ;
526 [label="Y <= 0.5\nentropy = 1.27\nsamples = 150\nvalue = [0, 0, 80, 60, 10]\nclass = OK", fillcolor="#d3f9f2"] ;
524 -> 526 ;
527 [label="Mud_0 <= 2.5\nentropy = 1.39\nsamples = 90\nvalue = [0, 0, 39, 41, 10]\nclass = BAD", fillcolor="#f7f7fe"] ;
526 -> 527 ;
528 [label="entropy = 0.89\nsamples = 42\nvalue = [0, 0, 29, 13, 0]\nclass = OK", fillcolor="#92f1df"] ;
527 -> 528 ;
529 [label="entropy = 1.4\nsamples = 48\nvalue = [0, 0, 10, 28, 10]\nclass = BAD", fillcolor="#a3a1f3"] ;
527 -> 529 ;
530 [label="entropy = 0.9\nsamples = 60\nvalue = [0, 0, 41, 19, 0]\nclass = OK", fillcolor="#95f1e0"] ;
526 -> 530 ;
531 [label="Y <= 0.5\nentropy = 0.58\nsamples = 220\nvalue = [0, 0, 196, 19, 5]\nclass = OK", fillcolor="#51e8cc"] ;
519 -> 531 ;
532 [label="entropy = 1.02\nsamples = 59\nvalue = [0, 0, 42, 15, 2]\nclass = OK", fillcolor="#86efdb"] ;
531 -> 532 ;
533 [label="entropy = 0.3\nsamples = 161\nvalue = [0, 0, 154, 4, 3]\nclass = OK", fillcolor="#42e6c8"] ;
531 -> 533 ;
534 [label="Y <= 2.5\nentropy = 0.45\nsamples = 1662\nvalue = [0, 0, 1537, 94, 31]\nclass = OK", fillcolor="#49e7ca"] ;
510 -> 534 ;
535 [label="entropy = 0.26\nsamples = 933\nvalue = [0, 0, 900, 14, 19]\nclass = OK", fillcolor="#40e6c7"] ;
534 -> 535 ;
536 [label="Mud_3 <= 1.5\nentropy = 0.62\nsamples = 729\nvalue = [0, 0, 637, 80, 12]\nclass = OK", fillcolor="#55e9cd"] ;
534 -> 536 ;
537 [label="Mud_1 <= 0.5\nentropy = 0.19\nsamples = 284\nvalue = [0, 0, 277, 2, 5]\nclass = OK", fillcolor="#3ee6c6"] ;
536 -> 537 ;
538 [label="entropy = 0.73\nsamples = 38\nvalue = [0, 0, 32, 1, 5]\nclass = OK", fillcolor="#5dead0"] ;
537 -> 538 ;
539 [label="entropy = 0.04\nsamples = 246\nvalue = [0, 0, 245, 1, 0]\nclass = OK", fillcolor="#3ae5c5"] ;
537 -> 539 ;
540 [label="Move <= 0.5\nentropy = 0.78\nsamples = 445\nvalue = [0, 0, 360, 78, 7]\nclass = OK", fillcolor="#67ebd2"] ;
536 -> 540 ;
541 [label="entropy = 0.95\nsamples = 279\nvalue = [0, 0, 198, 77, 4]\nclass = OK", fillcolor="#88efdc"] ;
540 -> 541 ;
542 [label="entropy = 0.18\nsamples = 166\nvalue = [0, 0, 162, 1, 3]\nclass = OK", fillcolor="#3ee6c6"] ;
540 -> 542 ;
543 [label="Mud_3 <= 1.5\nentropy = 0.85\nsamples = 5039\nvalue = [0, 0, 3984, 924, 131]\nclass = OK", fillcolor="#6cecd4"] ;
509 -> 543 ;
544 [label="Y <= 2.5\nentropy = 0.67\nsamples = 1909\nvalue = [0, 0, 1629, 252, 28]\nclass = OK", fillcolor="#5ae9cf"] ;
543 -> 544 ;
545 [label="Mud_1 <= 1.5\nentropy = 0.8\nsamples = 1372\nvalue = [0, 0, 1104, 244, 24]\nclass = OK", fillcolor="#68ebd3"] ;
544 -> 545 ;
546 [label="Y <= 1.5\nentropy = 0.6\nsamples = 492\nvalue = [0, 0, 430, 56, 6]\nclass = OK", fillcolor="#55e9cd"] ;
545 -> 546 ;
547 [label="Y <= 0.5\nentropy = 0.37\nsamples = 320\nvalue = [0, 0, 301, 15, 4]\nclass = OK", fillcolor="#45e7c9"] ;
546 -> 547 ;
548 [label="Mud_0 <= 1.5\nentropy = 0.62\nsamples = 132\nvalue = [0, 0, 115, 15, 2]\nclass = OK", fillcolor="#56e9cd"] ;
547 -> 548 ;
549 [label="entropy = 0.13\nsamples = 55\nvalue = [0, 0, 54, 0, 1]\nclass = OK", fillcolor="#3de5c6"] ;
548 -> 549 ;
550 [label="Mud_0 <= 2.5\nentropy = 0.81\nsamples = 77\nvalue = [0, 0, 61, 15, 1]\nclass = OK", fillcolor="#6cecd4"] ;
548 -> 550 ;
551 [label="entropy = 0.94\nsamples = 39\nvalue = [0, 0, 25, 14, 0]\nclass = OK", fillcolor="#a8f4e5"] ;
550 -> 551 ;
552 [label="entropy = 0.35\nsamples = 38\nvalue = [0, 0, 36, 1, 1]\nclass = OK", fillcolor="#44e6c8"] ;
550 -> 552 ;
553 [label="entropy = 0.08\nsamples = 188\nvalue = [0, 0, 186, 0, 2]\nclass = OK", fillcolor="#3be5c6"] ;
547 -> 553 ;
554 [label="Move <= 1.5\nentropy = 0.88\nsamples = 172\nvalue = [0, 0, 129, 41, 2]\nclass = OK", fillcolor="#7aeed8"] ;
546 -> 554 ;
555 [label="entropy = 0.9\nsamples = 126\nvalue = [0, 0, 86, 40, 0]\nclass = OK", fillcolor="#95f1e0"] ;
554 -> 555 ;
556 [label="entropy = 0.41\nsamples = 46\nvalue = [0, 0, 43, 1, 2]\nclass = OK", fillcolor="#46e7c9"] ;
554 -> 556 ;
557 [label="Mud_0 <= 2.5\nentropy = 0.89\nsamples = 880\nvalue = [0, 0, 674, 188, 18]\nclass = OK", fillcolor="#74edd6"] ;
545 -> 557 ;
558 [label="Move <= 0.5\nentropy = 0.74\nsamples = 586\nvalue = [0, 0, 479, 101, 6]\nclass = OK", fillcolor="#65ebd2"] ;
557 -> 558 ;
559 [label="entropy = 0.82\nsamples = 431\nvalue = [0, 0, 332, 96, 3]\nclass = OK", fillcolor="#74edd6"] ;
558 -> 559 ;
560 [label="entropy = 0.34\nsamples = 155\nvalue = [0, 0, 147, 5, 3]\nclass = OK", fillcolor="#44e6c8"] ;
558 -> 560 ;
561 [label="Y <= 1.5\nentropy = 1.1\nsamples = 294\nvalue = [0, 0, 195, 87, 12]\nclass = OK", fillcolor="#98f1e1"] ;
557 -> 561 ;
562 [label="Mud_1 <= 2.5\nentropy = 1.25\nsamples = 180\nvalue = [0, 0, 99, 70, 11]\nclass = OK", fillcolor="#cbf8f0"] ;
561 -> 562 ;
563 [label="entropy = 0.98\nsamples = 93\nvalue = [0, 0, 55, 38, 0]\nclass = OK", fillcolor="#c2f7ed"] ;
562 -> 563 ;
564 [label="entropy = 1.41\nsamples = 87\nvalue = [0, 0, 44, 32, 11]\nclass = OK", fillcolor="#d4f9f2"] ;
562 -> 564 ;
565 [label="entropy = 0.68\nsamples = 114\nvalue = [0, 0, 96, 17, 1]\nclass = OK", fillcolor="#5eead0"] ;
561 -> 565 ;
566 [label="entropy = 0.17\nsamples = 537\nvalue = [0, 0, 525, 8, 4]\nclass = OK", fillcolor="#3de6c6"] ;
544 -> 566 ;
567 [label="Y <= 2.5\nentropy = 0.95\nsamples = 3130\nvalue = [0, 0, 2355, 672, 103]\nclass = OK", fillcolor="#77edd7"] ;
543 -> 567 ;
568 [label="Mud_1 <= 1.5\nentropy = 0.86\nsamples = 2389\nvalue = [0, 0, 1867, 472, 50]\nclass = OK", fillcolor="#6fecd5"] ;
567 -> 568 ;
569 [label="Y <= 1.5\nentropy = 0.59\nsamples = 903\nvalue = [0, 0, 783, 117, 3]\nclass = OK", fillcolor="#57e9ce"] ;
568 -> 569 ;
570 [label="Y <= 0.5\nentropy = 0.42\nsamples = 528\nvalue = [0, 0, 488, 37, 3]\nclass = OK", fillcolor="#49e7ca"] ;
569 -> 570 ;
571 [label="Mud_0 <= 1.5\nentropy = 0.67\nsamples = 219\nvalue = [0, 0, 183, 35, 1]\nclass = OK", fillcolor="#60ead0"] ;
570 -> 571 ;
572 [label="entropy = 0.1\nsamples = 77\nvalue = [0, 0, 76, 1, 0]\nclass = OK", fillcolor="#3ce5c6"] ;
571 -> 572 ;
573 [label="Move <= 1.0\nentropy = 0.85\nsamples = 142\nvalue = [0, 0, 107, 34, 1]\nclass = OK", fillcolor="#79edd8"] ;
571 -> 573 ;
574 [label="entropy = 0.98\nsamples = 102\nvalue = [0, 0, 68, 33, 1]\nclass = OK", fillcolor="#9bf2e2"] ;
573 -> 574 ;
575 [label="entropy = 0.17\nsamples = 40\nvalue = [0, 0, 39, 1, 0]\nclass = OK", fillcolor="#3ee6c6"] ;
573 -> 575 ;
576 [label="entropy = 0.11\nsamples = 309\nvalue = [0, 0, 305, 2, 2]\nclass = OK", fillcolor="#3ce5c6"] ;
570 -> 576 ;
577 [label="Move <= 0.5\nentropy = 0.75\nsamples = 375\nvalue = [0, 0, 295, 80, 0]\nclass = OK", fillcolor="#6fecd5"] ;
569 -> 577 ;
578 [label="entropy = 0.89\nsamples = 246\nvalue = [0, 0, 171, 75, 0]\nclass = OK", fillcolor="#90f0de"] ;
577 -> 578 ;
579 [label="entropy = 0.24\nsamples = 129\nvalue = [0, 0, 124, 5, 0]\nclass = OK", fillcolor="#41e6c7"] ;
577 -> 579 ;
580 [label="Mud_0 <= 2.5\nentropy = 0.98\nsamples = 1486\nvalue = [0, 0, 1084, 355, 47]\nclass = OK", fillcolor="#7feeda"] ;
568 -> 580 ;
581 [label="Y <= 0.5\nentropy = 0.86\nsamples = 953\nvalue = [0, 0, 732, 208, 13]\nclass = OK", fillcolor="#74edd6"] ;
580 -> 581 ;
582 [label="Mud_0 <= 1.5\nentropy = 0.48\nsamples = 239\nvalue = [0, 0, 216, 22, 1]\nclass = OK", fillcolor="#4ee8cb"] ;
581 -> 582 ;
583 [label="entropy = 0.17\nsamples = 139\nvalue = [0, 0, 136, 2, 1]\nclass = OK", fillcolor="#3de6c6"] ;
582 -> 583 ;
584 [label="entropy = 0.72\nsamples = 100\nvalue = [0, 0, 80, 20, 0]\nclass = OK", fillcolor="#6aecd4"] ;
582 -> 584 ;
585 [label="Move <= 0.5\nentropy = 0.94\nsamples = 714\nvalue = [0, 0, 516, 186, 12]\nclass = OK", fillcolor="#83efdb"] ;
581 -> 585 ;
586 [label="entropy = 1.04\nsamples = 497\nvalue = [0, 0, 331, 155, 11]\nclass = OK", fillcolor="#99f2e1"] ;
585 -> 586 ;
587 [label="entropy = 0.63\nsamples = 217\nvalue = [0, 0, 185, 31, 1]\nclass = OK", fillcolor="#5be9cf"] ;
585 -> 587 ;
588 [label="Mud_1 <= 2.5\nentropy = 1.16\nsamples = 533\nvalue = [0, 0, 352, 147, 34]\nclass = OK", fillcolor="#96f1e0"] ;
580 -> 588 ;
589 [label="entropy = 0.94\nsamples = 281\nvalue = [0, 0, 202, 75, 4]\nclass = OK", fillcolor="#85efdb"] ;
588 -> 589 ;
590 [label="Y <= 1.5\nentropy = 1.33\nsamples = 252\nvalue = [0, 0, 150, 72, 30]\nclass = OK", fillcolor="#a9f4e6"] ;
588 -> 590 ;
591 [label="entropy = 1.49\nsamples = 148\nvalue = [0, 0, 72, 48, 28]\nclass = OK", fillcolor="#cff9f1"] ;
590 -> 591 ;
592 [label="entropy = 0.91\nsamples = 104\nvalue = [0, 0, 78, 24, 2]\nclass = OK", fillcolor="#79edd8"] ;
590 -> 592 ;
593 [label="Mud_3 <= 2.5\nentropy = 1.18\nsamples = 741\nvalue = [0, 0, 488, 200, 53]\nclass = OK", fillcolor="#96f1e0"] ;
567 -> 593 ;
594 [label="entropy = 0.9\nsamples = 381\nvalue = [0, 0, 269, 111, 1]\nclass = OK", fillcolor="#8bf0dd"] ;
593 -> 594 ;
595 [label="Mud_2 <= 2.5\nentropy = 1.34\nsamples = 360\nvalue = [0, 0, 219, 89, 52]\nclass = OK", fillcolor="#a0f3e3"] ;
593 -> 595 ;
596 [label="entropy = 0.82\nsamples = 180\nvalue = [0, 0, 141, 37, 2]\nclass = OK", fillcolor="#6fecd5"] ;
595 -> 596 ;
597 [label="entropy = 1.55\nsamples = 180\nvalue = [0, 0, 78, 52, 50]\nclass = OK", fillcolor="#d7faf3"] ;
595 -> 597 ;
598 [label="Mud_0 <= 0.5\nentropy = 1.42\nsamples = 1738\nvalue = [0, 51, 1085, 405, 197]\nclass = OK", fillcolor="#9af2e1"] ;
508 -> 598 ;
599 [label="Y <= 1.5\nentropy = 1.4\nsamples = 241\nvalue = [0, 51, 157, 14, 19]\nclass = OK", fillcolor="#91f0df"] ;
598 -> 599 ;
600 [label="Move <= 0.5\nentropy = 1.3\nsamples = 114\nvalue = [0, 51, 57, 3, 3]\nclass = OK", fillcolor="#ecfdf9"] ;
599 -> 600 ;
601 [label="Y <= 0.5\nentropy = 1.27\nsamples = 62\nvalue = [0, 16, 41, 2, 3]\nclass = OK", fillcolor="#93f1df"] ;
600 -> 601 ;
602 [label="entropy = 0.97\nsamples = 40\nvalue = [0, 16, 24, 0, 0]\nclass = OK", fillcolor="#bdf6ec"] ;
601 -> 602 ;
603 [label="entropy = 0.99\nsamples = 22\nvalue = [0, 0, 17, 2, 3]\nclass = OK", fillcolor="#6decd4"] ;
601 -> 603 ;
604 [label="Speed_0 <= 1.5\nentropy = 1.02\nsamples = 52\nvalue = [0, 35, 16, 1, 0]\nclass = GOOD", fillcolor="#b9f196"] ;
600 -> 604 ;
605 [label="entropy = 0.82\nsamples = 41\nvalue = [0, 33, 7, 1, 0]\nclass = GOOD", fillcolor="#9aeb68"] ;
604 -> 605 ;
606 [label="entropy = 0.68\nsamples = 11\nvalue = [0, 2, 9, 0, 0]\nclass = OK", fillcolor="#65ebd2"] ;
604 -> 606 ;
607 [label="entropy = 0.95\nsamples = 127\nvalue = [0, 0, 100, 11, 16]\nclass = OK", fillcolor="#69ebd3"] ;
599 -> 607 ;
608 [label="Y <= 1.5\nentropy = 1.3\nsamples = 1497\nvalue = [0, 0, 928, 391, 178]\nclass = OK", fillcolor="#9ff2e3"] ;
598 -> 608 ;
609 [label="Mud_0 <= 2.5\nentropy = 1.48\nsamples = 776\nvalue = [0, 0, 376, 264, 136]\nclass = OK", fillcolor="#d4f9f2"] ;
608 -> 609 ;
610 [label="entropy = 1.18\nsamples = 501\nvalue = [0, 0, 321, 149, 31]\nclass = OK", fillcolor="#9ef2e3"] ;
609 -> 610 ;
611 [label="Mud_0 <= 3.5\nentropy = 1.52\nsamples = 275\nvalue = [0, 0, 55, 115, 105]\nclass = BAD", fillcolor="#f4f3fd"] ;
609 -> 611 ;
612 [label="entropy = 1.48\nsamples = 168\nvalue = [0, 0, 40, 87, 41]\nclass = BAD", fillcolor="#b8b7f6"] ;
611 -> 612 ;
613 [label="Mud_1 <= 3.5\nentropy = 1.35\nsamples = 107\nvalue = [0, 0, 15, 28, 64]\nclass = TERRIBLE", fillcolor="#f3a5e2"] ;
611 -> 613 ;
614 [label="entropy = 1.45\nsamples = 88\nvalue = [0, 0, 15, 27, 46]\nclass = TERRIBLE", fillcolor="#f7c1eb"] ;
613 -> 614 ;
615 [label="entropy = 0.3\nsamples = 19\nvalue = [0, 0, 0, 1, 18]\nclass = TERRIBLE", fillcolor="#e644c4"] ;
613 -> 615 ;
616 [label="Mud_2 <= 3.5\nentropy = 0.98\nsamples = 721\nvalue = [0, 0, 552, 127, 42]\nclass = OK", fillcolor="#71ecd6"] ;
608 -> 616 ;
617 [label="entropy = 0.89\nsamples = 620\nvalue = [0, 0, 492, 101, 27]\nclass = OK", fillcolor="#6aebd3"] ;
616 -> 617 ;
618 [label="Mud_3 <= 2.5\nentropy = 1.36\nsamples = 101\nvalue = [0, 0, 60, 26, 15]\nclass = OK", fillcolor="#a5f3e5"] ;
616 -> 618 ;
619 [label="entropy = 1.01\nsamples = 67\nvalue = [0, 0, 49, 15, 3]\nclass = OK", fillcolor="#7eeed9"] ;
618 -> 619 ;
620 [label="entropy = 1.58\nsamples = 34\nvalue = [0, 0, 11, 11, 12]\nclass = TERRIBLE", fillcolor="#fef6fc"] ;
618 -> 620 ;
621 [label="Mud_3 <= 0.5\nentropy = 1.45\nsamples = 2235\nvalue = [0, 75, 1378, 521, 261]\nclass = OK", fillcolor="#9cf2e2"] ;
507 -> 621 ;
622 [label="Y <= 1.5\nentropy = 1.31\nsamples = 296\nvalue = [0, 71, 196, 13, 16]\nclass = OK", fillcolor="#91f1df"] ;
621 -> 622 ;
623 [label="Speed_0 <= 0.5\nentropy = 0.96\nsamples = 106\nvalue = [0, 1, 85, 12, 8]\nclass = OK", fillcolor="#65ebd2"] ;
622 -> 623 ;
624 [label="entropy = 0.59\nsamples = 86\nvalue = [0, 0, 77, 5, 4]\nclass = OK", fillcolor="#4fe8cb"] ;
623 -> 624 ;
625 [label="Mud_0 <= 1.5\nentropy = 1.74\nsamples = 20\nvalue = [0, 1, 8, 7, 4]\nclass = OK", fillcolor="#f0fdfb"] ;
623 -> 625 ;
626 [label="entropy = 0.99\nsamples = 9\nvalue = [0, 1, 7, 1, 0]\nclass = OK", fillcolor="#6aecd4"] ;
625 -> 626 ;
627 [label="entropy = 1.32\nsamples = 11\nvalue = [0, 0, 1, 6, 4]\nclass = BAD", fillcolor="#c7c6f8"] ;
625 -> 627 ;
628 [label="Move <= 1.5\nentropy = 1.22\nsamples = 190\nvalue = [0, 70, 111, 1, 8]\nclass = OK", fillcolor="#bbf6eb"] ;
622 -> 628 ;
629 [label="Y <= 2.5\nentropy = 1.11\nsamples = 125\nvalue = [0, 27, 90, 1, 7]\nclass = OK", fillcolor="#80eeda"] ;
628 -> 629 ;
630 [label="entropy = 0.59\nsamples = 49\nvalue = [0, 0, 42, 0, 7]\nclass = OK", fillcolor="#5ae9cf"] ;
629 -> 630 ;
631 [label="entropy = 1.03\nsamples = 76\nvalue = [0, 27, 48, 1, 0]\nclass = OK", fillcolor="#aaf4e6"] ;
629 -> 631 ;
632 [label="entropy = 1.01\nsamples = 65\nvalue = [0, 43, 21, 0, 1]\nclass = GOOD", fillcolor="#bdf29c"] ;
628 -> 632 ;
633 [label="Mud_3 <= 2.5\nentropy = 1.34\nsamples = 1939\nvalue = [0, 4, 1182, 508, 245]\nclass = OK", fillcolor="#a2f3e4"] ;
621 -> 633 ;
634 [label="Y <= 1.5\nentropy = 1.07\nsamples = 1254\nvalue = [0, 3, 902, 285, 64]\nclass = OK", fillcolor="#81eeda"] ;
633 -> 634 ;
635 [label="Mud_0 <= 2.5\nentropy = 1.05\nsamples = 467\nvalue = [0, 3, 355, 74, 35]\nclass = OK", fillcolor="#71ecd6"] ;
634 -> 635 ;
636 [label="entropy = 0.84\nsamples = 294\nvalue = [0, 3, 245, 33, 13]\nclass = OK", fillcolor="#5eead0"] ;
635 -> 636 ;
637 [label="Mud_1 <= 2.5\nentropy = 1.29\nsamples = 173\nvalue = [0, 0, 110, 41, 22]\nclass = OK", fillcolor="#98f1e1"] ;
635 -> 637 ;
638 [label="Speed_0 <= 0.5\nentropy = 1.02\nsamples = 121\nvalue = [0, 0, 90, 24, 7]\nclass = OK", fillcolor="#78edd8"] ;
637 -> 638 ;
639 [label="entropy = 0.67\nsamples = 103\nvalue = [0, 0, 85, 18, 0]\nclass = OK", fillcolor="#63ebd1"] ;
638 -> 639 ;
640 [label="Mud_0 <= 3.5\nentropy = 1.57\nsamples = 18\nvalue = [0, 0, 5, 6, 7]\nclass = TERRIBLE", fillcolor="#fdeefa"] ;
638 -> 640 ;
641 [label="entropy = 0.86\nsamples = 7\nvalue = [0, 0, 5, 2, 0]\nclass = OK", fillcolor="#88efdc"] ;
640 -> 641 ;
642 [label="entropy = 0.95\nsamples = 11\nvalue = [0, 0, 0, 4, 7]\nclass = TERRIBLE", fillcolor="#f4aae4"] ;
640 -> 642 ;
643 [label="entropy = 1.57\nsamples = 52\nvalue = [0, 0, 20, 17, 15]\nclass = OK", fillcolor="#eefdfa"] ;
637 -> 643 ;
644 [label="Mud_3 <= 1.5\nentropy = 1.05\nsamples = 787\nvalue = [0, 0, 547, 211, 29]\nclass = OK", fillcolor="#8cf0dd"] ;
634 -> 644 ;
645 [label="Mud_2 <= 2.5\nentropy = 0.92\nsamples = 391\nvalue = [0, 0, 304, 71, 16]\nclass = OK", fillcolor="#6fecd5"] ;
644 -> 645 ;
646 [label="entropy = 0.76\nsamples = 258\nvalue = [0, 0, 209, 46, 3]\nclass = OK", fillcolor="#67ebd2"] ;
645 -> 646 ;
647 [label="Y <= 2.5\nentropy = 1.13\nsamples = 133\nvalue = [0, 0, 95, 25, 13]\nclass = OK", fillcolor="#7feed9"] ;
645 -> 647 ;
648 [label="Move <= 0.5\nentropy = 1.37\nsamples = 72\nvalue = [0, 0, 43, 16, 13]\nclass = OK", fillcolor="#a0f2e3"] ;
647 -> 648 ;
649 [label="entropy = 1.44\nsamples = 29\nvalue = [0, 0, 13, 4, 12]\nclass = OK", fillcolor="#f3fdfc"] ;
648 -> 649 ;
650 [label="entropy = 1.0\nsamples = 43\nvalue = [0, 0, 30, 12, 1]\nclass = OK", fillcolor="#8cf0dd"] ;
648 -> 650 ;
651 [label="entropy = 0.6\nsamples = 61\nvalue = [0, 0, 52, 9, 0]\nclass = OK", fillcolor="#5beacf"] ;
647 -> 651 ;
652 [label="Mud_2 <= 1.5\nentropy = 1.12\nsamples = 396\nvalue = [0, 0, 243, 140, 13]\nclass = OK", fillcolor="#aff5e8"] ;
644 -> 652 ;
653 [label="entropy = 0.88\nsamples = 145\nvalue = [0, 0, 107, 37, 1]\nclass = OK", fillcolor="#7feed9"] ;
652 -> 653 ;
654 [label="entropy = 1.22\nsamples = 251\nvalue = [0, 0, 136, 103, 12]\nclass = OK", fillcolor="#d3f9f2"] ;
652 -> 654 ;
655 [label="Y <= 1.5\nentropy = 1.58\nsamples = 685\nvalue = [0, 1, 280, 223, 181]\nclass = OK", fillcolor="#e7fcf8"] ;
633 -> 655 ;
656 [label="entropy = 1.3\nsamples = 256\nvalue = [0, 1, 163, 63, 29]\nclass = OK", fillcolor="#98f2e1"] ;
655 -> 656 ;
657 [label="Mud_3 <= 3.5\nentropy = 1.57\nsamples = 429\nvalue = [0, 0, 117, 160, 152]\nclass = BAD", fillcolor="#f9f9fe"] ;
655 -> 657 ;
658 [label="Y <= 2.5\nentropy = 1.51\nsamples = 257\nvalue = [0, 0, 85, 120, 52]\nclass = BAD", fillcolor="#d7d7fa"] ;
657 -> 658 ;
659 [label="Mud_2 <= 3.5\nentropy = 1.47\nsamples = 149\nvalue = [0, 0, 64, 62, 23]\nclass = OK", fillcolor="#fafefe"] ;
658 -> 659 ;
660 [label="entropy = 1.42\nsamples = 126\nvalue = [0, 0, 62, 47, 17]\nclass = OK", fillcolor="#d9faf4"] ;
659 -> 660 ;
661 [label="entropy = 1.21\nsamples = 23\nvalue = [0, 0, 2, 15, 6]\nclass = BAD", fillcolor="#9896f1"] ;
659 -> 661 ;
662 [label="entropy = 1.45\nsamples = 108\nvalue = [0, 0, 21, 58, 29]\nclass = BAD", fillcolor="#b7b6f5"] ;
658 -> 662 ;
663 [label="Mud_2 <= 1.5\nentropy = 1.4\nsamples = 172\nvalue = [0, 0, 32, 40, 100]\nclass = TERRIBLE", fillcolor="#f3a5e2"] ;
657 -> 663 ;
664 [label="entropy = 1.55\nsamples = 66\nvalue = [0, 0, 21, 17, 28]\nclass = TERRIBLE", fillcolor="#fbe0f5"] ;
663 -> 664 ;
665 [label="entropy = 1.2\nsamples = 106\nvalue = [0, 0, 11, 23, 72]\nclass = TERRIBLE", fillcolor="#f08ada"] ;
663 -> 665 ;
666 [label="Mud_2 <= 0.5\nentropy = 1.53\nsamples = 2606\nvalue = [0, 99, 1486, 677, 344]\nclass = OK", fillcolor="#acf4e7"] ;
506 -> 666 ;
667 [label="Y <= 0.5\nentropy = 1.44\nsamples = 377\nvalue = [0, 79, 242, 22, 34]\nclass = OK", fillcolor="#93f1df"] ;
666 -> 667 ;
668 [label="entropy = 1.02\nsamples = 63\nvalue = [0, 0, 48, 6, 9]\nclass = OK", fillcolor="#70ecd5"] ;
667 -> 668 ;
669 [label="Move <= 0.5\nentropy = 1.44\nsamples = 314\nvalue = [0, 79, 194, 16, 25]\nclass = OK", fillcolor="#9ef2e3"] ;
667 -> 669 ;
670 [label="Y <= 2.5\nentropy = 1.32\nsamples = 194\nvalue = [0, 30, 135, 9, 20]\nclass = OK", fillcolor="#80eeda"] ;
669 -> 670 ;
671 [label="Y <= 1.5\nentropy = 1.03\nsamples = 147\nvalue = [0, 28, 111, 2, 6]\nclass = OK", fillcolor="#75edd7"] ;
670 -> 671 ;
672 [label="entropy = 0.61\nsamples = 42\nvalue = [0, 0, 37, 1, 4]\nclass = OK", fillcolor="#53e8cd"] ;
671 -> 672 ;
673 [label="entropy = 1.04\nsamples = 105\nvalue = [0, 28, 74, 1, 2]\nclass = OK", fillcolor="#89efdc"] ;
671 -> 673 ;
674 [label="Mud_3 <= 1.5\nentropy = 1.62\nsamples = 47\nvalue = [0, 2, 24, 7, 14]\nclass = OK", fillcolor="#c3f7ed"] ;
670 -> 674 ;
675 [label="entropy = 0.99\nsamples = 18\nvalue = [0, 2, 14, 2, 0]\nclass = OK", fillcolor="#6aecd4"] ;
674 -> 675 ;
676 [label="entropy = 1.47\nsamples = 29\nvalue = [0, 0, 10, 5, 14]\nclass = TERRIBLE", fillcolor="#fad5f2"] ;
674 -> 676 ;
677 [label="entropy = 1.46\nsamples = 120\nvalue = [0, 49, 59, 7, 5]\nclass = OK", fillcolor="#e3fbf7"] ;
669 -> 677 ;
678 [label="Mud_2 <= 2.5\nentropy = 1.45\nsamples = 2229\nvalue = [0, 20, 1244, 655, 310]\nclass = OK", fillcolor="#b5f5e9"] ;
666 -> 678 ;
679 [label="Mud_2 <= 1.5\nentropy = 1.23\nsamples = 1472\nvalue = [0, 14, 950, 418, 90]\nclass = OK", fillcolor="#9bf2e2"] ;
678 -> 679 ;
680 [label="Speed_3 <= 0.5\nentropy = 1.1\nsamples = 676\nvalue = [0, 10, 491, 146, 29]\nclass = OK", fillcolor="#7eeed9"] ;
679 -> 680 ;
681 [label="entropy = 0.97\nsamples = 563\nvalue = [0, 1, 425, 115, 22]\nclass = OK", fillcolor="#76edd7"] ;
680 -> 681 ;
682 [label="Mud_3 <= 0.5\nentropy = 1.5\nsamples = 113\nvalue = [0, 9, 66, 31, 7]\nclass = OK", fillcolor="#aaf4e6"] ;
680 -> 682 ;
683 [label="entropy = 1.64\nsamples = 15\nvalue = [0, 8, 4, 2, 1]\nclass = GOOD", fillcolor="#cff6b7"] ;
682 -> 683 ;
684 [label="entropy = 1.25\nsamples = 98\nvalue = [0, 1, 62, 29, 6]\nclass = OK", fillcolor="#a0f3e3"] ;
682 -> 684 ;
685 [label="Mud_0 <= 3.5\nentropy = 1.31\nsamples = 796\nvalue = [0, 4, 459, 272, 61]\nclass = OK", fillcolor="#b8f6ea"] ;
679 -> 685 ;
686 [label="entropy = 1.27\nsamples = 696\nvalue = [0, 4, 408, 241, 43]\nclass = OK", fillcolor="#b6f5ea"] ;
685 -> 686 ;
687 [label="entropy = 1.46\nsamples = 100\nvalue = [0, 0, 51, 31, 18]\nclass = OK", fillcolor="#c6f7ee"] ;
685 -> 687 ;
688 [label="Y <= 0.5\nentropy = 1.63\nsamples = 757\nvalue = [0, 6, 294, 237, 220]\nclass = OK", fillcolor="#e9fcf9"] ;
678 -> 688 ;
689 [label="Mud_0 <= 0.5\nentropy = 1.28\nsamples = 108\nvalue = [0, 1, 72, 23, 12]\nclass = OK", fillcolor="#8df0de"] ;
688 -> 689 ;
690 [label="entropy = 0.35\nsamples = 15\nvalue = [0, 1, 14, 0, 0]\nclass = OK", fillcolor="#47e7c9"] ;
689 -> 690 ;
691 [label="entropy = 1.3\nsamples = 93\nvalue = [0, 0, 58, 23, 12]\nclass = OK", fillcolor="#9cf2e2"] ;
689 -> 691 ;
692 [label="Mud_3 <= 0.5\nentropy = 1.64\nsamples = 649\nvalue = [0, 5, 222, 214, 208]\nclass = OK", fillcolor="#fbfffe"] ;
688 -> 692 ;
693 [label="Speed_3 <= 0.5\nentropy = 1.74\nsamples = 71\nvalue = [0, 5, 34, 13, 19]\nclass = OK", fillcolor="#c6f8ee"] ;
692 -> 693 ;
694 [label="entropy = 1.51\nsamples = 56\nvalue = [0, 0, 27, 13, 16]\nclass = OK", fillcolor="#c9f8ef"] ;
693 -> 694 ;
695 [label="entropy = 1.51\nsamples = 15\nvalue = [0, 5, 7, 0, 3]\nclass = OK", fillcolor="#d7faf3"] ;
693 -> 695 ;
696 [label="Mud_2 <= 4.5\nentropy = 1.58\nsamples = 578\nvalue = [0, 0, 188, 201, 189]\nclass = BAD", fillcolor="#f9f9fe"] ;
692 -> 696 ;
697 [label="entropy = 1.58\nsamples = 504\nvalue = [0, 0, 167, 191, 146]\nclass = BAD", fillcolor="#f1f1fd"] ;
696 -> 697 ;
698 [label="entropy = 1.36\nsamples = 74\nvalue = [0, 0, 21, 10, 43]\nclass = TERRIBLE", fillcolor="#f4ade5"] ;
696 -> 698 ;
699 [label="Mud_1 <= 0.5\nentropy = 1.57\nsamples = 3165\nvalue = [0, 140, 1770, 818, 437]\nclass = OK", fillcolor="#aff4e7"] ;
505 -> 699 ;
700 [label="Y <= 2.5\nentropy = 1.61\nsamples = 420\nvalue = [0, 107, 235, 41, 37]\nclass = OK", fillcolor="#aef4e7"] ;
699 -> 700 ;
701 [label="Move <= 0.5\nentropy = 1.59\nsamples = 338\nvalue = [0, 106, 179, 28, 25]\nclass = OK", fillcolor="#c1f7ed"] ;
700 -> 701 ;
702 [label="Y <= 1.5\nentropy = 1.46\nsamples = 203\nvalue = [0, 41, 130, 15, 17]\nclass = OK", fillcolor="#92f1df"] ;
701 -> 702 ;
703 [label="Y <= 0.5\nentropy = 1.47\nsamples = 132\nvalue = [0, 37, 78, 7, 10]\nclass = OK", fillcolor="#aaf4e6"] ;
702 -> 703 ;
704 [label="Mud_0 <= 0.5\nentropy = 1.4\nsamples = 46\nvalue = [0, 3, 31, 5, 7]\nclass = OK", fillcolor="#85efdb"] ;
703 -> 704 ;
705 [label="entropy = 0.99\nsamples = 7\nvalue = [0, 3, 4, 0, 0]\nclass = OK", fillcolor="#cef8f0"] ;
704 -> 705 ;
706 [label="entropy = 1.19\nsamples = 39\nvalue = [0, 0, 27, 5, 7]\nclass = OK", fillcolor="#83efdb"] ;
704 -> 706 ;
707 [label="entropy = 1.3\nsamples = 86\nvalue = [0, 34, 47, 2, 3]\nclass = OK", fillcolor="#cef8f0"] ;
703 -> 707 ;
708 [label="Mud_2 <= 1.5\nentropy = 1.25\nsamples = 71\nvalue = [0, 4, 52, 8, 7]\nclass = OK", fillcolor="#75edd6"] ;
702 -> 708 ;
709 [label="entropy = 0.61\nsamples = 27\nvalue = [0, 4, 23, 0, 0]\nclass = OK", fillcolor="#5beacf"] ;
708 -> 709 ;
710 [label="entropy = 1.27\nsamples = 44\nvalue = [0, 0, 29, 8, 7]\nclass = OK", fillcolor="#8cf0dd"] ;
708 -> 710 ;
711 [label="entropy = 1.61\nsamples = 135\nvalue = [0, 65, 49, 13, 8]\nclass = GOOD", fillcolor="#e6fada"] ;
701 -> 711 ;
712 [label="entropy = 1.28\nsamples = 82\nvalue = [0, 1, 56, 13, 12]\nclass = OK", fillcolor="#84efdb"] ;
700 -> 712 ;
713 [label="Mud_1 <= 2.5\nentropy = 1.47\nsamples = 2745\nvalue = [0, 33, 1535, 777, 400]\nclass = OK", fillcolor="#b3f5e9"] ;
699 -> 713 ;
714 [label="Mud_2 <= 1.5\nentropy = 1.25\nsamples = 1774\nvalue = [0, 22, 1166, 459, 127]\nclass = OK", fillcolor="#95f1e0"] ;
713 -> 714 ;
715 [label="Speed_2 <= 0.5\nentropy = 1.07\nsamples = 661\nvalue = [0, 15, 489, 137, 20]\nclass = OK", fillcolor="#7aeed8"] ;
714 -> 715 ;
716 [label="entropy = 0.98\nsamples = 554\nvalue = [0, 4, 419, 113, 18]\nclass = OK", fillcolor="#76edd7"] ;
715 -> 716 ;
717 [label="entropy = 1.33\nsamples = 107\nvalue = [0, 11, 70, 24, 2]\nclass = OK", fillcolor="#91f1df"] ;
715 -> 717 ;
718 [label="Y <= 1.5\nentropy = 1.32\nsamples = 1113\nvalue = [0, 7, 677, 322, 107]\nclass = OK", fillcolor="#a6f3e5"] ;
714 -> 718 ;
719 [label="Mud_0 <= 2.5\nentropy = 1.11\nsamples = 507\nvalue = [0, 3, 355, 124, 25]\nclass = OK", fillcolor="#88efdc"] ;
718 -> 719 ;
720 [label="entropy = 0.99\nsamples = 330\nvalue = [0, 3, 244, 76, 7]\nclass = OK", fillcolor="#7ceed9"] ;
719 -> 720 ;
721 [label="entropy = 1.27\nsamples = 177\nvalue = [0, 0, 111, 48, 18]\nclass = OK", fillcolor="#9ef2e3"] ;
719 -> 721 ;
722 [label="Mud_2 <= 2.5\nentropy = 1.45\nsamples = 606\nvalue = [0, 4, 322, 198, 82]\nclass = OK", fillcolor="#c3f7ed"] ;
718 -> 722 ;
723 [label="Speed_3 <= 0.5\nentropy = 1.26\nsamples = 257\nvalue = [0, 2, 153, 88, 14]\nclass = OK", fillcolor="#b3f5e9"] ;
722 -> 723 ;
724 [label="entropy = 1.1\nsamples = 197\nvalue = [0, 0, 124, 67, 6]\nclass = OK", fillcolor="#a8f4e6"] ;
723 -> 724 ;
725 [label="Mud_3 <= 2.5\nentropy = 1.59\nsamples = 60\nvalue = [0, 2, 29, 21, 8]\nclass = OK", fillcolor="#d6faf3"] ;
723 -> 725 ;
726 [label="entropy = 1.34\nsamples = 45\nvalue = [0, 2, 28, 13, 2]\nclass = OK", fillcolor="#a2f3e4"] ;
725 -> 726 ;
727 [label="entropy = 1.27\nsamples = 15\nvalue = [0, 0, 1, 8, 6]\nclass = BAD", fillcolor="#d4d3f9"] ;
725 -> 727 ;
728 [label="Mud_3 <= 3.5\nentropy = 1.53\nsamples = 349\nvalue = [0, 2, 169, 110, 68]\nclass = OK", fillcolor="#cef9f1"] ;
722 -> 728 ;
729 [label="Speed_2 <= 0.5\nentropy = 1.49\nsamples = 310\nvalue = [0, 2, 161, 95, 52]\nclass = OK", fillcolor="#c2f7ed"] ;
728 -> 729 ;
730 [label="Speed_3 <= 0.5\nentropy = 1.43\nsamples = 251\nvalue = [0, 2, 142, 73, 34]\nclass = OK", fillcolor="#b2f5e9"] ;
729 -> 730 ;
731 [label="entropy = 1.32\nsamples = 207\nvalue = [0, 0, 126, 54, 27]\nclass = OK", fillcolor="#a2f3e4"] ;
730 -> 731 ;
732 [label="entropy = 1.68\nsamples = 44\nvalue = [0, 2, 16, 19, 7]\nclass = BAD", fillcolor="#eaeafc"] ;
730 -> 732 ;
733 [label="entropy = 1.58\nsamples = 59\nvalue = [0, 0, 19, 22, 18]\nclass = BAD", fillcolor="#f0f0fd"] ;
729 -> 733 ;
734 [label="entropy = 1.53\nsamples = 39\nvalue = [0, 0, 8, 15, 16]\nclass = TERRIBLE", fillcolor="#fef7fc"] ;
728 -> 734 ;
735 [label="Y <= 1.5\nentropy = 1.65\nsamples = 971\nvalue = [0, 11, 369, 318, 273]\nclass = OK", fillcolor="#f0fdfa"] ;
713 -> 735 ;
736 [label="Mud_1 <= 3.5\nentropy = 1.62\nsamples = 441\nvalue = [0, 3, 117, 150, 171]\nclass = TERRIBLE", fillcolor="#fdf1fa"] ;
735 -> 736 ;
737 [label="entropy = 1.61\nsamples = 261\nvalue = [0, 1, 88, 96, 76]\nclass = BAD", fillcolor="#f6f6fe"] ;
736 -> 737 ;
738 [label="Mud_1 <= 4.5\nentropy = 1.5\nsamples = 180\nvalue = [0, 2, 29, 54, 95]\nclass = TERRIBLE", fillcolor="#f7bfea"] ;
736 -> 738 ;
739 [label="entropy = 1.47\nsamples = 116\nvalue = [0, 0, 19, 44, 53]\nclass = TERRIBLE", fillcolor="#fce6f7"] ;
738 -> 739 ;
740 [label="entropy = 1.39\nsamples = 64\nvalue = [0, 2, 10, 10, 42]\nclass = TERRIBLE", fillcolor="#f08ada"] ;
738 -> 740 ;
741 [label="Mud_2 <= 2.5\nentropy = 1.58\nsamples = 530\nvalue = [0, 8, 252, 168, 102]\nclass = OK", fillcolor="#d1f9f2"] ;
735 -> 741 ;
742 [label="Move <= 0.5\nentropy = 1.5\nsamples = 370\nvalue = [0, 7, 199, 114, 50]\nclass = OK", fillcolor="#bdf6ec"] ;
741 -> 742 ;
743 [label="entropy = 1.33\nsamples = 185\nvalue = [0, 5, 116, 52, 12]\nclass = OK", fillcolor="#a0f2e3"] ;
742 -> 743 ;
744 [label="Y <= 2.5\nentropy = 1.59\nsamples = 185\nvalue = [0, 2, 83, 62, 38]\nclass = OK", fillcolor="#ddfbf5"] ;
742 -> 744 ;
745 [label="Mud_1 <= 3.5\nentropy = 1.67\nsamples = 105\nvalue = [0, 2, 31, 42, 30]\nclass = BAD", fillcolor="#e2e2fb"] ;
744 -> 745 ;
746 [label="entropy = 1.52\nsamples = 62\nvalue = [0, 1, 25, 28, 8]\nclass = BAD", fillcolor="#efeffd"] ;
745 -> 746 ;
747 [label="Move <= 1.5\nentropy = 1.54\nsamples = 43\nvalue = [0, 1, 6, 14, 22]\nclass = TERRIBLE", fillcolor="#f8c8ee"] ;
745 -> 747 ;
748 [label="entropy = 1.27\nsamples = 37\nvalue = [0, 0, 3, 12, 22]\nclass = TERRIBLE", fillcolor="#f5b0e6"] ;
747 -> 748 ;
749 [label="entropy = 1.46\nsamples = 6\nvalue = [0, 1, 3, 2, 0]\nclass = OK", fillcolor="#cef8f0"] ;
747 -> 749 ;
750 [label="entropy = 1.24\nsamples = 80\nvalue = [0, 0, 52, 20, 8]\nclass = OK", fillcolor="#95f1e0"] ;
744 -> 750 ;
751 [label="entropy = 1.63\nsamples = 160\nvalue = [0, 1, 53, 54, 52]\nclass = BAD", fillcolor="#fdfdff"] ;
741 -> 751 ;
752 [label="Speed <= 8.5\nentropy = 1.64\nsamples = 15446\nvalue = [1, 1998, 7627, 4956, 864]\nclass = OK", fillcolor="#cdf8f0"] ;
258 -> 752 ;
753 [label="Move <= 0.5\nentropy = 1.5\nsamples = 9052\nvalue = [0, 1552, 5273, 2001, 226]\nclass = OK", fillcolor="#a3f3e4"] ;
752 -> 753 ;
754 [label="Mud_2 <= 1.5\nentropy = 1.37\nsamples = 6250\nvalue = [0, 900, 4175, 984, 191]\nclass = OK", fillcolor="#87efdc"] ;
753 -> 754 ;
755 [label="Y <= 1.5\nentropy = 1.4\nsamples = 1971\nvalue = [0, 478, 1224, 229, 40]\nclass = OK", fillcolor="#9cf2e2"] ;
754 -> 755 ;
756 [label="Mud_1 <= 1.5\nentropy = 1.36\nsamples = 987\nvalue = [0, 140, 654, 169, 24]\nclass = OK", fillcolor="#8af0dd"] ;
755 -> 756 ;
757 [label="Y <= 0.5\nentropy = 1.39\nsamples = 330\nvalue = [0, 105, 192, 25, 8]\nclass = OK", fillcolor="#b2f5e9"] ;
756 -> 757 ;
758 [label="Mud_0 <= 1.5\nentropy = 1.39\nsamples = 157\nvalue = [0, 28, 103, 21, 5]\nclass = OK", fillcolor="#8cf0dd"] ;
757 -> 758 ;
759 [label="Boosts <= 10.5\nentropy = 1.14\nsamples = 69\nvalue = [0, 28, 39, 0, 2]\nclass = OK", fillcolor="#caf8ef"] ;
758 -> 759 ;
760 [label="entropy = 0.98\nsamples = 67\nvalue = [0, 28, 39, 0, 0]\nclass = OK", fillcolor="#c7f8ef"] ;
759 -> 760 ;
761 [label="entropy = 0.0\nsamples = 2\nvalue = [0, 0, 0, 0, 2]\nclass = TERRIBLE", fillcolor="#e539c0"] ;
759 -> 761 ;
762 [label="entropy = 0.99\nsamples = 88\nvalue = [0, 0, 64, 21, 3]\nclass = OK", fillcolor="#80eeda"] ;
758 -> 762 ;
763 [label="entropy = 1.24\nsamples = 173\nvalue = [0, 77, 89, 4, 3]\nclass = OK", fillcolor="#e6fcf8"] ;
757 -> 763 ;
764 [label="Mud_0 <= 1.5\nentropy = 1.19\nsamples = 657\nvalue = [0, 35, 462, 144, 16]\nclass = OK", fillcolor="#84efdb"] ;
756 -> 764 ;
765 [label="Y <= 0.5\nentropy = 1.3\nsamples = 180\nvalue = [0, 35, 121, 21, 3]\nclass = OK", fillcolor="#8af0dd"] ;
764 -> 765 ;
766 [label="entropy = 1.12\nsamples = 129\nvalue = [0, 35, 87, 7, 0]\nclass = OK", fillcolor="#91f1df"] ;
765 -> 766 ;
767 [label="entropy = 1.14\nsamples = 51\nvalue = [0, 0, 34, 14, 3]\nclass = OK", fillcolor="#94f1e0"] ;
765 -> 767 ;
768 [label="Mud_0 <= 3.5\nentropy = 0.99\nsamples = 477\nvalue = [0, 0, 341, 123, 13]\nclass = OK", fillcolor="#85efdb"] ;
764 -> 768 ;
769 [label="entropy = 0.87\nsamples = 396\nvalue = [0, 0, 299, 92, 5]\nclass = OK", fillcolor="#78edd8"] ;
768 -> 769 ;
770 [label="Y <= 0.5\nentropy = 1.35\nsamples = 81\nvalue = [0, 0, 42, 31, 8]\nclass = OK", fillcolor="#d3f9f2"] ;
768 -> 770 ;
771 [label="entropy = 1.42\nsamples = 44\nvalue = [0, 0, 13, 24, 7]\nclass = BAD", fillcolor="#bab9f6"] ;
770 -> 771 ;
772 [label="entropy = 0.87\nsamples = 37\nvalue = [0, 0, 29, 7, 1]\nclass = OK", fillcolor="#6eecd4"] ;
770 -> 772 ;
773 [label="Y <= 2.5\nentropy = 1.33\nsamples = 984\nvalue = [0, 338, 570, 60, 16]\nclass = OK", fillcolor="#b8f6ea"] ;
755 -> 773 ;
774 [label="entropy = 1.24\nsamples = 600\nvalue = [0, 261, 314, 17, 8]\nclass = OK", fillcolor="#e0fbf6"] ;
773 -> 774 ;
775 [label="Mud_3 <= 1.5\nentropy = 1.32\nsamples = 384\nvalue = [0, 77, 256, 43, 8]\nclass = OK", fillcolor="#8cf0dd"] ;
773 -> 775 ;
776 [label="entropy = 0.99\nsamples = 176\nvalue = [0, 77, 99, 0, 0]\nclass = OK", fillcolor="#d3f9f2"] ;
775 -> 776 ;
777 [label="Mud_3 <= 3.5\nentropy = 0.96\nsamples = 208\nvalue = [0, 0, 157, 43, 8]\nclass = OK", fillcolor="#76edd7"] ;
775 -> 777 ;
778 [label="Mud_2 <= 0.5\nentropy = 0.75\nsamples = 188\nvalue = [0, 0, 151, 36, 1]\nclass = OK", fillcolor="#69ebd3"] ;
777 -> 778 ;
779 [label="entropy = 1.17\nsamples = 27\nvalue = [0, 0, 11, 15, 1]\nclass = BAD", fillcolor="#cecdf8"] ;
778 -> 779 ;
780 [label="entropy = 0.56\nsamples = 161\nvalue = [0, 0, 140, 21, 0]\nclass = OK", fillcolor="#57e9ce"] ;
778 -> 780 ;
781 [label="entropy = 1.58\nsamples = 20\nvalue = [0, 0, 6, 7, 7]\nclass = BAD", fillcolor="#ffffff"] ;
777 -> 781 ;
782 [label="Mud_1 <= 1.5\nentropy = 1.31\nsamples = 4279\nvalue = [0, 422, 2951, 755, 151]\nclass = OK", fillcolor="#84efdb"] ;
754 -> 782 ;
783 [label="Y <= 1.5\nentropy = 1.42\nsamples = 1349\nvalue = [0, 255, 858, 196, 40]\nclass = OK", fillcolor="#92f1df"] ;
782 -> 783 ;
784 [label="Mud_0 <= 1.5\nentropy = 1.31\nsamples = 576\nvalue = [0, 202, 332, 34, 8]\nclass = OK", fillcolor="#baf6eb"] ;
783 -> 784 ;
785 [label="entropy = 1.19\nsamples = 203\nvalue = [0, 105, 92, 2, 4]\nclass = GOOD", fillcolor="#f0fce8"] ;
784 -> 785 ;
786 [label="Y <= 0.5\nentropy = 1.29\nsamples = 373\nvalue = [0, 97, 240, 32, 4]\nclass = OK", fillcolor="#98f2e1"] ;
784 -> 786 ;
